-8.887094259262084961e-02,7.061082869768142700e-02,1.349177807569503784e-01,-3.820445155724883080e-03,-9.921774268150329590e-02,-3.868766129016876221e-02,1.257164776325225830e-01,3.220048174262046814e-02,-1.187867149710655212e-01,1.518038958311080933e-01,-3.365348093211650848e-03,-1.237720176577568054e-01,1.004279851913452148e-01,1.291863173246383667e-01,1.488731056451797485e-01,-1.837961934506893158e-02,3.325999155640602112e-02,-2.097268253564834595e-01,-6.170390918850898743e-02,3.848311305046081543e-02,1.286317706108093262e-01,6.503333151340484619e-02,-1.894211512990295887e-03,-9.532497823238372803e-02,6.166813895106315613e-02,-1.388151198625564575e-01,-5.086408182978630066e-02,7.840283960103988647e-02,7.398819178342819214e-02,-1.254951022565364838e-02,-6.335370987653732300e-02,-2.775188721716403961e-02,-8.261161856353282928e-03,-1.272950917482376099e-01,-1.163823716342449188e-02,1.105240806937217712e-01,-1.899551600217819214e-02,1.641366071999073029e-02,-1.586669236421585083e-01,1.601737886667251587e-01,-8.359501138329505920e-03,1.527450680732727051e-01,-3.888924140483140945e-03,1.485286932438611984e-02,6.831935793161392212e-02,7.972623221576213837e-03,-1.749297603964805603e-02,1.019109338521957397e-01,8.205599337816238403e-02,1.167042255401611328e-01,-7.635937631130218506e-02,-6.997390091419219971e-02,-9.685704857110977173e-02,2.177998982369899750e-02,7.001596689224243164e-02,-6.685458123683929443e-02,1.491994857788085938e-01,1.280224323272705078e-01,4.425863269716501236e-03,-1.778173744678497314e-01,5.842023342847824097e-02,-4.516636580228805542e-02,4.610864445567131042e-02,7.821246236562728882e-02,7.457844167947769165e-02,-6.546799838542938232e-02,-1.267962008714675903e-01,-2.953020483255386353e-02,-3.154370188713073730e-02,1.837124526500701904e-01,-1.385962241329252720e-03,-1.549744755029678345e-01,9.854502975940704346e-02,1.165843829512596130e-01,-7.969083636999130249e-02,3.032843023538589478e-02,-1.551736798137426376e-02,1.775225251913070679e-01,3.335489332675933838e-02,-1.238792464137077332e-01,1.663560047745704651e-02,-9.620598703622817993e-02,-1.758225858211517334e-01,1.274431645870208740e-01,-8.942318707704544067e-02,7.012410461902618408e-02,-1.371159553527832031e-01,-3.625958785414695740e-02,-1.609919243492186069e-03,6.961390376091003418e-03,-2.916828542947769165e-02,-1.211888790130615234e-01,-5.352566018700599670e-02,-1.787995547056198120e-01,7.426223717629909515e-03,1.056783497333526611e-01,-2.886691596359014511e-03,5.605043470859527588e-02,3.651269525289535522e-02,1.443274170160293579e-01,-1.101132258772850037e-01,-6.167766824364662170e-02,1.251415163278579712e-01,-1.269583702087402344e-01,6.428982317447662354e-02,3.181974589824676514e-02,-5.759048089385032654e-02,1.282917894423007965e-02,9.373135119676589966e-02,-9.341973811388015747e-02,9.113875776529312134e-02,-6.077021732926368713e-02,-7.190106064081192017e-02,1.281708199530839920e-02,-1.009765639901161194e-02,-1.035703495144844055e-01,4.866816103458404541e-02,1.111332401633262634e-01,-3.291871398687362671e-03,-1.205205172300338745e-01
2.686966396868228912e-02,-1.964605152606964111e-01,1.840690374374389648e-01,4.224954918026924133e-02,-1.816598773002624512e-01,1.511326134204864502e-01,-1.761607676744461060e-01,1.173947229981422424e-01,2.167685627937316895e-01,-4.740533977746963501e-02,2.334053218364715576e-01,1.475653350353240967e-01,-8.726378530263900757e-02,4.510764777660369873e-02,6.212629750370979309e-02,1.256299167871475220e-01,1.114292666316032410e-01,3.023298643529415131e-02,-6.299844942986965179e-03,8.362136036157608032e-02,1.333814114332199097e-01,1.254631876945495605e-01,1.906250566244125366e-01,-9.631152264773845673e-03,-1.025579720735549927e-01,2.252254053018987179e-04,-1.309837847948074341e-01,5.782084167003631592e-02,2.196157723665237427e-01,3.837173879146575928e-01,-3.857707837596535683e-03,-2.903244495391845703e-01,2.517675049602985382e-02,1.633723676204681396e-01,-7.307391613721847534e-02,1.229402422904968262e-01,-2.222971618175506592e-01,-1.199413165450096130e-01,6.934849172830581665e-02,-1.725153997540473938e-02,-6.729423999786376953e-03,5.439282208681106567e-02,-2.647866010665893555e-01,4.784958437085151672e-02,2.162054777145385742e-01,-1.890237927436828613e-01,6.380987167358398438e-02,-1.044079288840293884e-01,-2.127850502729415894e-01,5.518401786684989929e-02,-4.357248172163963318e-02,9.327997267246246338e-02,1.321335434913635254e-01,9.523170441389083862e-02,-9.726489335298538208e-02,1.932375729084014893e-01,1.171188578009605408e-01,1.684171147644519806e-02,-8.730518072843551636e-02,-7.034109532833099365e-02,1.915599256753921509e-01,9.564717859029769897e-02,3.887250274419784546e-02,-3.975539281964302063e-02,1.450270116329193115e-01,1.181072462350130081e-02,-1.369148045778274536e-01,1.079066619277000427e-01,-3.851382434368133545e-02,1.506334915757179260e-02,3.040995076298713684e-02,2.195397205650806427e-02,-1.330759376287460327e-01,2.896018093451857567e-03,-1.741262525320053101e-01,-3.099090978503227234e-02,-3.296488225460052490e-01,-2.301079630851745605e-01,8.088599145412445068e-02,-1.157906185835599899e-02,4.991878941655158997e-02,-5.069876462221145630e-02,-1.438795477151870728e-01,-2.321371734142303467e-01,-5.888220295310020447e-02,5.345795303583145142e-02,-2.663452625274658203e-01,-8.707589656114578247e-02,1.787543892860412598e-01,1.670096367597579956e-01,1.066406443715095520e-01,-1.637215167284011841e-01,-3.249397873878479004e-02,-2.401912510395050049e-01,5.201339721679687500e-02,-3.052406571805477142e-02,2.701271511614322662e-02,2.213317714631557465e-02,5.430994182825088501e-02,-3.938820585608482361e-02,7.265438139438629150e-02,-1.780667528510093689e-02,-8.222684264183044434e-03,6.473421305418014526e-02,-1.164296343922615051e-01,2.076922543346881866e-02,1.783081889152526855e-01,1.715178191661834717e-01,1.401424109935760498e-01,1.910197138786315918e-01,1.834678649902343750e-01,7.380234450101852417e-02,2.170277833938598633e-01,1.286248415708541870e-01,4.209583625197410583e-03,2.681367099285125732e-02,-1.735670864582061768e-01,-1.965161412954330444e-01,-1.773095279932022095e-01,8.012735098600387573e-02
1.649179495871067047e-02,1.334492233581840992e-03,1.458501964807510376e-01,-7.476044446229934692e-02,-8.506584167480468750e-02,-4.184920340776443481e-02,-1.528642028570175171e-01,3.559722751379013062e-02,-7.658196240663528442e-02,-1.656389981508255005e-02,-7.621631957590579987e-03,1.927746236324310303e-01,-3.854382783174514771e-02,1.061071529984474182e-01,1.361867785453796387e-01,2.065158635377883911e-02,1.533011943101882935e-01,4.530690610408782959e-02,1.106067001819610596e-01,8.144412934780120850e-02,-8.571810275316238403e-02,-1.017159819602966309e-01,1.355534046888351440e-02,3.481646999716758728e-02,-3.086823970079421997e-02,-1.038781553506851196e-01,7.498484104871749878e-02,1.238310337066650391e-01,7.382089644670486450e-02,-2.731671556830406189e-02,3.674938529729843140e-02,-5.005251616239547729e-02,-9.702187031507492065e-02,-8.736340701580047607e-02,-6.372037529945373535e-02,-7.197578996419906616e-02,-1.993839442729949951e-02,-8.585714548826217651e-02,2.039437144994735718e-01,2.025337666273117065e-01,9.934791177511215210e-02,-7.379735261201858521e-02,-1.279857009649276733e-01,3.006505407392978668e-02,-1.528859138488769531e-01,-5.451335757970809937e-02,3.128396347165107727e-02,7.811088860034942627e-02,6.762525439262390137e-02,-9.076987951993942261e-02,1.362897604703903198e-01,-1.797273606061935425e-01,-8.561716973781585693e-02,-3.210670873522758484e-02,8.637084066867828369e-02,-8.716224133968353271e-02,-4.034467414021492004e-02,3.900095820426940918e-02,1.996855996549129486e-02,-1.642073853872716427e-03,-1.353505700826644897e-01,-1.180637627840042114e-01,1.759222000837326050e-01,1.307260058820247650e-02,-4.205667227506637573e-02,8.014655113220214844e-02,4.951997846364974976e-02,5.075158923864364624e-02,1.436090916395187378e-01,3.866373747587203979e-02,-5.903943255543708801e-02,-1.362899243831634521e-01,-5.893653724342584610e-03,2.371761016547679901e-02,1.294140517711639404e-01,-7.656698673963546753e-02,-6.823622621595859528e-03,-7.702250033617019653e-02,8.086266368627548218e-02,-1.078996956348419189e-01,6.054403260350227356e-02,4.642425046768039465e-04,-5.585135892033576965e-02,3.745596110820770264e-02,1.057444959878921509e-01,-1.484793722629547119e-01,-3.886105120182037354e-02,-9.222418069839477539e-02,-1.534359306097030640e-01,1.309424191713333130e-01,-4.413499683141708374e-02,-3.805469349026679993e-02,5.065515637397766113e-03,-2.130173332989215851e-02,-2.302756160497665405e-01,-1.501510888338088989e-01,1.722927987575531006e-01,3.378431871533393860e-02,-1.312501728534698486e-01,1.358733177185058594e-01,8.158043771982192993e-02,-7.354678958654403687e-02,1.783088408410549164e-02,-3.977592661976814270e-02,-1.137675642967224121e-01,4.709608480334281921e-02,1.481993943452835083e-01,-1.667902767658233643e-01,6.277669966220855713e-02,1.713324338197708130e-01,1.025004312396049500e-01,1.573020778596401215e-02,4.130075499415397644e-02,2.716653347015380859e-01,1.953552477061748505e-02,-7.737880945205688477e-02,1.171357929706573486e-01,-5.352073907852172852e-02,-1.719753891229629517e-01,7.855623960494995117e-02
-4.614025354385375977e-02,-3.050203323364257812e-01,-2.409253828227519989e-02,1.554730385541915894e-01,1.322564780712127686e-01,-3.433007374405860901e-02,-9.073991328477859497e-03,-3.190803900361061096e-02,-5.508724600076675415e-02,2.788893133401870728e-02,2.127164602279663086e-01,-7.778438157401978970e-04,8.481445908546447754e-02,7.708672434091567993e-02,-1.353551000356674194e-01,-1.021186783909797668e-01,2.588823735713958740e-01,-2.710545621812343597e-02,1.893461495637893677e-01,2.151075564324855804e-02,4.142930358648300171e-02,1.669802144169807434e-02,1.813397859223186970e-03,-1.250247955322265625e-01,4.428263008594512939e-02,1.380360964685678482e-02,1.775804311037063599e-01,1.461414843797683716e-01,1.816174387931823730e-01,1.151360645890235901e-01,8.097570389509201050e-02,-2.398300319910049438e-01,1.571213506394997239e-04,1.651240885257720947e-02,-9.780004620552062988e-02,3.477791696786880493e-02,-3.131228685379028320e-02,1.224989295005798340e-01,-1.935028433799743652e-01,2.331883274018764496e-02,1.309404075145721436e-01,1.026334706693887711e-02,-3.953844681382179260e-02,3.344008922576904297e-01,6.617205590009689331e-02,1.997847706079483032e-01,-1.864714771509170532e-01,-1.068435981869697571e-01,3.696320578455924988e-02,-1.463470011949539185e-01,-6.656923890113830566e-02,-1.067129299044609070e-01,5.380505463108420372e-04,-1.155795529484748840e-03,8.095731586217880249e-02,4.096366092562675476e-02,-1.430223733186721802e-01,-1.124064475297927856e-01,1.836495287716388702e-02,2.419452741742134094e-02,1.202409043908119202e-01,-1.765220910310745239e-01,-1.513104885816574097e-01,-2.562707662582397461e-02,-1.066029965877532959e-01,8.163686096668243408e-02,2.340189926326274872e-02,-9.302957355976104736e-02,1.328284442424774170e-01,7.016139477491378784e-02,-2.049730159342288971e-02,-5.107220634818077087e-02,8.291063457727432251e-02,-1.277513653039932251e-01,1.719593405723571777e-01,9.437895566225051880e-02,-3.093805909156799316e-01,-4.669834673404693604e-02,-1.276680678129196167e-01,6.737507134675979614e-02,-1.599136739969253540e-02,-1.001874729990959167e-01,1.103592142462730408e-01,1.276390850543975830e-01,-7.240398973226547241e-02,2.539226710796356201e-01,2.917042374610900879e-01,-8.172209560871124268e-02,3.733637928962707520e-02,-1.330328881740570068e-01,-7.985383272171020508e-02,4.723621904850006104e-02,-1.023959815502166748e-01,-1.470351070165634155e-01,1.670410186052322388e-01,1.058960109949111938e-01,-1.214414536952972412e-01,-4.267286881804466248e-02,-1.109425327740609646e-03,2.618342638015747070e-01,-1.427404284477233887e-01,1.862720102071762085e-01,1.253792792558670044e-01,2.315091639757156372e-01,-2.235961146652698517e-02,1.880203783512115479e-01,1.361690461635589600e-01,-1.094016283750534058e-01,4.902927950024604797e-02,1.180033292621374130e-02,-5.514374375343322754e-02,5.295189097523689270e-02,7.160099595785140991e-02,-2.238137461245059967e-02,-4.124620929360389709e-02,-1.119025237858295441e-02,3.179027233272790909e-03,-8.003212511539459229e-02,1.339206248521804810e-01,6.625210493803024292e-02
2.808424830436706543e-02,3.867715001106262207e-01,-2.804782092571258545e-01,3.397817537188529968e-02,-8.506595343351364136e-02,2.049286216497421265e-01,-1.446055807173252106e-02,-1.909393630921840668e-02,2.418854832649230957e-01,-7.333420217037200928e-02,2.482194155454635620e-01,1.084972172975540161e-01,3.178992867469787598e-01,-2.014500200748443604e-01,5.128614306449890137e-01,-1.219584643840789795e-01,2.096892446279525757e-01,2.637096345424652100e-01,-2.560785040259361267e-02,6.667444854974746704e-02,-1.943139359354972839e-02,1.247936263680458069e-01,2.951886951923370361e-01,-1.813205480575561523e-01,7.551158964633941650e-02,9.928746521472930908e-02,-2.342494875192642212e-01,4.651868045330047607e-01,1.572663486003875732e-01,1.231550872325897217e-01,-2.284106612205505371e-02,-3.715786039829254150e-01,-8.121690899133682251e-02,3.135130405426025391e-01,-2.813406884670257568e-01,5.257805585861206055e-01,-1.629853695631027222e-01,-4.936843812465667725e-01,5.018771886825561523e-01,3.383871912956237793e-02,4.184520542621612549e-01,1.658835262060165405e-01,-2.913626134395599365e-01,4.514001607894897461e-01,3.955090939998626709e-01,-5.047957897186279297e-01,-6.180233955383300781e-01,-6.809584796428680420e-02,-9.229332208633422852e-02,3.629549741744995117e-01,-5.840548127889633179e-02,-3.524773567914962769e-02,6.031862273812294006e-02,2.170920073986053467e-01,-5.832601785659790039e-01,-2.132467925548553467e-01,7.239829003810882568e-02,-1.654881685972213745e-01,7.605141028761863708e-03,-5.046144872903823853e-02,4.102285504341125488e-01,5.044056102633476257e-02,-2.113002389669418335e-01,-1.067297980189323425e-01,4.483368396759033203e-01,-2.296449095010757446e-01,-8.028594404458999634e-02,-1.436665654182434082e-01,2.156462371349334717e-01,-1.464460641145706177e-01,-9.723515249788761139e-03,3.421893417835235596e-01,3.056690990924835205e-01,-2.701696753501892090e-01,1.752184629440307617e-01,9.251525253057479858e-02,2.461605221033096313e-01,-3.159510195255279541e-01,2.430874854326248169e-01,1.046231240034103394e-01,1.959243267774581909e-01,-1.442201733589172363e-01,-1.748791784048080444e-01,-1.853160560131072998e-01,-1.796899177134037018e-02,-2.009300440549850464e-01,-2.750193178653717041e-01,-6.549578160047531128e-02,2.053847610950469971e-01,2.150824666023254395e-02,4.467429220676422119e-01,1.684941947460174561e-01,1.025737673044204712e-01,4.930049553513526917e-02,-9.634503722190856934e-02,-1.494805365800857544e-01,2.840512618422508240e-02,1.061063185334205627e-01,2.935869619250297546e-02,1.500532217323780060e-02,-1.193372458219528198e-01,-9.558214247226715088e-02,1.655588299036026001e-01,-9.705379605293273926e-02,-9.695076197385787964e-02,-2.853421494364738464e-02,5.420030280947685242e-02,-1.452839821577072144e-01,3.109876513481140137e-01,1.042650341987609863e-01,6.914863735437393188e-02,-9.997048228979110718e-02,-1.436374187469482422e-01,-1.752634048461914062e-01,1.041920706629753113e-01,2.346206456422805786e-01,1.513463556766510010e-01,7.439686655998229980e-01,1.796818375587463379e-01,3.518819063901901245e-02
2.619690075516700745e-02,-3.363860026001930237e-02,1.171277016401290894e-01,1.076565682888031006e-02,-7.934211194515228271e-02,8.156698197126388550e-02,-6.550080329179763794e-02,4.708491265773773193e-02,1.042418628931045532e-01,5.446759238839149475e-02,-1.357017550617456436e-02,-7.330638170242309570e-02,-2.184358984231948853e-01,1.534298509359359741e-01,9.674607217311859131e-02,1.006242539733648300e-02,8.293686807155609131e-02,-4.381511360406875610e-02,1.644695550203323364e-01,4.429486393928527832e-02,3.833382204174995422e-02,-4.491356667131185532e-03,-3.852204978466033936e-02,-1.084161922335624695e-01,2.684267610311508179e-02,1.576885282993316650e-01,-1.996279656887054443e-01,-2.692538127303123474e-02,5.074418336153030396e-02,1.287987679243087769e-01,5.481119081377983093e-02,3.816263377666473389e-02,1.348064001649618149e-02,-2.094237953424453735e-01,1.721351444721221924e-01,-8.243888616561889648e-02,-9.437418729066848755e-02,6.702842563390731812e-02,3.732384368777275085e-02,-1.175809651613235474e-01,-7.049366831779479980e-02,-1.612107008695602417e-01,-1.616730690002441406e-01,1.861034035682678223e-01,-9.016084671020507812e-02,-2.824751101434230804e-02,1.896100677549839020e-02,-1.273032873868942261e-01,-8.097087591886520386e-02,-1.382936388254165649e-01,1.333929300308227539e-01,9.713392704725265503e-02,-4.458875581622123718e-02,-2.090429663658142090e-01,1.230204254388809204e-01,1.675412952899932861e-01,6.814724951982498169e-02,-6.911323964595794678e-02,-9.432018548250198364e-02,-2.075552791357040405e-01,-5.885322112590074539e-03,-5.077698826789855957e-02,3.425948321819305420e-02,-1.397409886121749878e-01,-5.017797648906707764e-02,9.043391793966293335e-02,-8.417389541864395142e-02,3.708655759692192078e-02,-1.043357327580451965e-01,1.548966318368911743e-01,-4.518261179327964783e-02,-5.923290550708770752e-02,4.126089438796043396e-02,8.128616213798522949e-02,-1.416914016008377075e-01,-4.261017590761184692e-02,-5.992972105741500854e-02,-4.767151921987533569e-02,-8.562804013490676880e-02,7.727001607418060303e-02,-5.437526106834411621e-02,1.061859354376792908e-01,-5.794785916805267334e-02,-1.413981318473815918e-01,-1.364043503999710083e-01,-2.726345658302307129e-01,-1.605562120676040649e-01,-1.941427439451217651e-01,1.455340683460235596e-01,4.365807399153709412e-02,6.413262453861534595e-04,-1.155735924839973450e-01,4.858292173594236374e-03,-8.235914260149002075e-02,-6.719820201396942139e-02,7.214831560850143433e-02,-4.741682205349206924e-03,-5.858976766467094421e-02,1.943303644657135010e-02,-1.667547821998596191e-01,-1.341777592897415161e-01,9.379809349775314331e-02,1.188716664910316467e-01,-2.842724323272705078e-02,-1.094778254628181458e-01,-2.697832137346267700e-02,1.107050925493240356e-01,-1.519831120967864990e-01,1.186752170324325562e-01,-4.631159454584121704e-02,-1.495674997568130493e-01,1.800509244203567505e-01,1.891742944717407227e-01,1.750719845294952393e-01,1.944993436336517334e-01,1.213767305016517639e-01,-7.455826550722122192e-02,-1.000619605183601379e-01,-8.459091931581497192e-02,1.426367908716201782e-01
3.390073776245117188e-02,1.582119315862655640e-01,1.850032620131969452e-02,1.149347722530364990e-01,6.758512556552886963e-02,3.104151226580142975e-02,-1.191232129931449890e-01,6.964346766471862793e-02,1.225130865350365639e-03,-1.264875661581754684e-02,-9.124825149774551392e-02,1.616962403059005737e-01,1.299663633108139038e-01,-1.595064252614974976e-01,-7.198976725339889526e-02,4.554741084575653076e-02,-1.436790674924850464e-01,6.854685395956039429e-02,7.274033874273300171e-02,1.864373236894607544e-01,-1.045267432928085327e-01,-7.363323122262954712e-02,2.539143711328506470e-02,7.462683320045471191e-02,-2.775338292121887207e-02,2.330429479479789734e-02,1.218939013779163361e-02,-2.527621760964393616e-02,-1.605982780456542969e-01,2.269574552774429321e-01,-6.517609208822250366e-02,1.068582385778427124e-01,-9.685453027486801147e-02,-4.131905734539031982e-02,5.665254592895507812e-02,1.948904395103454590e-01,-2.686981111764907837e-02,2.271035686135292053e-02,-4.578551650047302246e-02,-2.398488856852054596e-02,-1.526461821049451828e-02,1.152587011456489563e-01,-4.453803226351737976e-02,6.369168311357498169e-02,5.078177154064178467e-02,4.323721677064895630e-02,6.124776229262351990e-02,3.921289369463920593e-02,2.255070209503173828e-02,6.779124587774276733e-02,1.110964268445968628e-01,6.107451766729354858e-02,1.814280152320861816e-01,5.281328223645687103e-03,9.437849372625350952e-02,3.242873121052980423e-03,2.927698940038681030e-02,-8.723992109298706055e-02,-8.550534024834632874e-03,6.380850821733474731e-02,-1.769383624196052551e-02,-1.181116551160812378e-01,3.686438128352165222e-02,-1.178859770298004150e-01,1.414242237806320190e-01,1.486049443483352661e-01,-1.169647723436355591e-01,1.152993664145469666e-01,-7.735493779182434082e-02,-9.498716145753860474e-02,1.958575248718261719e-01,-1.280844360589981079e-01,1.993536762893199921e-02,-1.919856071472167969e-01,1.315463334321975708e-01,1.276573091745376587e-01,9.352166950702667236e-02,-4.724429547786712646e-02,-8.601575344800949097e-02,-1.012883782386779785e-01,1.472401805222034454e-02,1.012171357870101929e-01,2.168248742818832397e-01,-3.957846015691757202e-02,-1.752804815769195557e-01,8.276984840631484985e-02,-6.105490773916244507e-02,8.476310223340988159e-02,5.507571995258331299e-02,-2.846439555287361145e-02,1.347815841436386108e-01,-3.500890731811523438e-02,4.660043120384216309e-02,1.790568530559539795e-01,1.088859811425209045e-01,5.993600189685821533e-02,-1.707492619752883911e-01,-8.089245855808258057e-02,-1.491730362176895142e-01,1.399403959512710571e-01,-7.055038213729858398e-02,1.161914095282554626e-01,7.798413932323455811e-02,1.497128903865814209e-01,-2.102503180503845215e-01,-8.297801017761230469e-02,5.045741051435470581e-02,-1.073109135031700134e-01,-4.122143983840942383e-02,1.054390743374824524e-01,-1.165415421128273010e-01,2.156329303979873657e-01,-6.776622682809829712e-02,-1.525335162878036499e-01,1.981553807854652405e-02,7.570374011993408203e-02,-1.081895735114812851e-02,-1.768189221620559692e-01,1.452226191759109497e-01,1.245359405875205994e-01
-3.600749000906944275e-02,-8.547587692737579346e-02,-2.518506906926631927e-02,-4.320803284645080566e-02,-8.927146345376968384e-02,1.021532863378524780e-01,-5.078834667801856995e-02,-4.839653149247169495e-02,-6.649764627218246460e-02,-4.119049012660980225e-02,-1.299931388348340988e-02,5.487890169024467468e-02,1.469751298427581787e-01,8.451531082391738892e-02,-1.747797876596450806e-01,2.252553217113018036e-02,-5.347616970539093018e-02,1.385571360588073730e-01,-1.851543188095092773e-01,1.046352833509445190e-01,1.007719561457633972e-01,-7.532043755054473877e-02,1.000133305788040161e-01,7.710590958595275879e-02,-4.045353084802627563e-02,1.177325174212455750e-01,1.037827283143997192e-01,-9.203942120075225830e-02,5.320663005113601685e-02,8.721844106912612915e-02,3.438322618603706360e-02,2.153163850307464600e-01,-5.901318415999412537e-02,7.151329889893531799e-03,1.929558366537094116e-01,-5.481854453682899475e-02,8.571275323629379272e-02,7.040721178054809570e-02,-3.953733667731285095e-02,-4.512125998735427856e-02,6.375192850828170776e-02,8.925306051969528198e-02,-1.113981679081916809e-01,1.273528039455413818e-01,9.256476908922195435e-02,-1.657430678606033325e-01,1.950671896338462830e-02,-4.259053990244865417e-02,7.232689857482910156e-02,-4.707036167383193970e-02,5.230093374848365784e-03,-1.763687431812286377e-01,4.173524677753448486e-02,-1.074569392949342728e-02,-8.369774371385574341e-02,9.405478090047836304e-02,1.024215761572122574e-02,2.220313251018524170e-01,-8.992193639278411865e-02,-4.972191900014877319e-02,-1.165454909205436707e-01,9.618183225393295288e-02,-4.566478077322244644e-03,-8.741886913776397705e-02,4.658611956983804703e-03,1.050628372468054295e-03,-1.340347714722156525e-02,-2.050662413239479065e-02,5.024872347712516785e-02,-3.522156178951263428e-02,1.012623086571693420e-01,-2.954000234603881836e-02,-4.429330583661794662e-03,1.501944810152053833e-01,1.944325268268585205e-01,2.946451306343078613e-03,-2.546575665473937988e-02,2.966014109551906586e-02,-2.125982046127319336e-01,-9.828051179647445679e-02,9.098738431930541992e-03,-1.003805920481681824e-02,1.764548383653163910e-02,1.014310643076896667e-01,-7.887096703052520752e-02,-1.791747063398361206e-01,-1.759378015995025635e-01,-1.471930742263793945e-01,-1.649261638522148132e-02,-2.537294924259185791e-01,7.421607524156570435e-02,-9.572079777717590332e-02,-5.553977936506271362e-02,7.443746924400329590e-02,-2.329550832509994507e-01,2.389174401760101318e-01,-1.667254567146301270e-01,4.255214333534240723e-02,-9.810233116149902344e-02,-7.663199305534362793e-02,1.484031826257705688e-01,4.814899712800979614e-02,7.762347161769866943e-02,7.922057062387466431e-02,3.473002091050148010e-02,1.792031675577163696e-01,-7.256907969713211060e-02,-1.738085597753524780e-01,-6.660487502813339233e-02,8.098621666431427002e-02,-5.559669807553291321e-02,2.463212981820106506e-02,-7.666572928428649902e-02,8.320862799882888794e-02,-9.101279079914093018e-02,-3.435400314629077911e-03,1.663043051958084106e-01,3.421800583600997925e-02,1.463769823312759399e-01,-2.120885811746120453e-02
-3.869960457086563110e-02,-2.565141394734382629e-02,-6.835677474737167358e-02,-6.857758760452270508e-02,-7.641304284334182739e-03,-3.918891027569770813e-02,1.239899620413780212e-01,1.154107227921485901e-01,-1.734751909971237183e-01,4.303142800927162170e-02,-1.209461838006973267e-01,-3.528624773025512695e-02,4.966219887137413025e-02,-2.374396771192550659e-01,1.090437471866607666e-01,8.411325514316558838e-02,-2.083128541707992554e-01,1.067642867565155029e-01,-2.764508724212646484e-01,1.509454995393753052e-01,3.995598852634429932e-02,-1.558776292949914932e-02,-4.371988773345947266e-02,8.772640675306320190e-02,9.681048244237899780e-02,-1.720845699310302734e-02,5.405211448669433594e-02,2.359466440975666046e-02,5.980958044528961182e-02,1.212056726217269897e-01,-1.211807057261466980e-01,-7.821259647607803345e-02,5.491183605045080185e-03,3.506717830896377563e-02,-2.701379954814910889e-01,3.747915849089622498e-02,-6.979035586118698120e-02,6.330954283475875854e-02,-4.032852873206138611e-02,-2.020648121833801270e-01,-9.517482481896877289e-03,-7.295219600200653076e-02,6.706083565950393677e-02,2.999533154070377350e-02,-1.220055818557739258e-01,-1.938254684209823608e-01,-1.661806106567382812e-01,-1.188624277710914612e-02,-1.262278109788894653e-01,1.017545387148857117e-01,4.230883717536926270e-02,-1.652822792530059814e-01,-4.128912091255187988e-02,1.305587589740753174e-01,-1.512633357197046280e-02,-4.245077818632125854e-02,5.459325015544891357e-02,8.681068569421768188e-02,-7.309035956859588623e-02,-7.223467528820037842e-02,5.150642618536949158e-02,1.726385653018951416e-01,4.059170186519622803e-02,1.908307075500488281e-01,-1.845551133155822754e-01,-9.870917350053787231e-02,-4.768923856317996979e-03,-1.881423294544219971e-01,1.325303502380847931e-02,-4.307485371828079224e-02,1.684129685163497925e-01,-1.892248243093490601e-01,-1.033672131597995758e-02,-2.392958998680114746e-01,-9.490866959095001221e-02,-6.182296201586723328e-02,1.412006169557571411e-01,8.367934823036193848e-02,-1.415677070617675781e-01,-1.194105204194784164e-02,-1.702705770730972290e-01,-1.243184506893157959e-01,2.277021855115890503e-02,3.333311527967453003e-02,-1.334047168493270874e-01,6.288871169090270996e-02,5.911488085985183716e-02,-2.674913266673684120e-03,4.366464912891387939e-02,9.918938577175140381e-02,5.741364508867263794e-02,1.656533591449260712e-02,1.356895118951797485e-01,1.729630231857299805e-01,-3.793190419673919678e-02,8.968317508697509766e-02,6.626751273870468140e-02,9.678138047456741333e-02,9.272541850805282593e-02,4.121276363730430603e-02,9.737272560596466064e-02,5.518642812967300415e-02,-1.499345898628234863e-01,-2.079467028379440308e-01,9.761359542608261108e-02,1.427583992481231689e-01,1.714120954275131226e-01,1.733049750328063965e-01,-2.423525005578994751e-01,-6.123301386833190918e-02,3.903053584508597851e-04,-8.007957041263580322e-02,-1.958919912576675415e-01,-1.761505603790283203e-01,3.173019364476203918e-02,6.773727387189865112e-02,-1.909250617027282715e-01,-8.562780916690826416e-02,-4.784074146300554276e-03,1.850894987583160400e-01
1.268411725759506226e-01,1.775436550378799438e-01,1.051401346921920776e-01,-7.264029234647750854e-02,-7.240749150514602661e-02,-3.228557109832763672e-02,-8.136492222547531128e-02,-1.110291108489036560e-01,-1.236695679835975170e-03,1.223265156149864197e-01,-4.970991984009742737e-02,-9.010813198983669281e-03,6.579224485903978348e-03,-4.023096710443496704e-02,-3.645508363842964172e-02,1.649793833494186401e-01,-1.534618996083736420e-02,-1.065293103456497192e-01,-5.456475168466567993e-02,-2.319576889276504517e-01,-1.022257134318351746e-01,-2.129697240889072418e-02,1.481694281101226807e-01,-1.144345402717590332e-01,8.152773976325988770e-02,6.030870601534843445e-02,-1.430714577436447144e-01,-9.009669721126556396e-02,-1.148626580834388733e-01,-1.313206106424331665e-01,-7.588817179203033447e-02,-1.116006299853324890e-01,5.654380470514297485e-02,-1.589764803647994995e-01,-8.458992093801498413e-02,1.911597400903701782e-01,-9.724593162536621094e-02,-1.290408968925476074e-01,7.886604964733123779e-02,8.229544758796691895e-02,-1.304163634777069092e-01,9.222701191902160645e-04,2.114853113889694214e-01,-8.545268326997756958e-02,3.151805698871612549e-02,-1.487109512090682983e-01,9.065665304660797119e-02,1.130590513348579407e-01,-2.947708033025264740e-02,7.428960502147674561e-02,1.125684902071952820e-01,4.761740192770957947e-02,-8.242571353912353516e-02,2.451450824737548828e-01,-2.626710757613182068e-02,-1.248990744352340698e-01,-1.724657416343688965e-01,-7.957864552736282349e-03,-5.728483945131301880e-02,-1.283797714859247208e-02,-2.043783105909824371e-02,1.062354072928428650e-01,-1.018092874437570572e-02,1.855446100234985352e-01,8.125703036785125732e-02,8.226760663092136383e-03,-4.503500089049339294e-02,2.990278415381908417e-02,-1.734266616404056549e-02,1.306432783603668213e-01,-1.161106601357460022e-01,-7.248110137879848480e-03,1.209699958562850952e-01,-3.912754729390144348e-02,8.460191637277603149e-02,-4.606513679027557373e-02,-1.114317122846841812e-02,6.575005128979682922e-03,-1.091082990169525146e-01,1.687811762094497681e-01,4.212888702750205994e-02,-3.779672831296920776e-02,9.611781686544418335e-02,-1.580981910228729248e-01,-6.832576543092727661e-02,1.513394340872764587e-02,-5.639629438519477844e-02,-7.643131166696548462e-02,4.337386786937713623e-02,-2.912327274680137634e-02,-1.538388524204492569e-02,-2.891266345977783203e-02,8.846984803676605225e-02,5.287063494324684143e-02,4.409222863614559174e-03,4.292983934283256531e-02,-1.414857804775238037e-01,1.633847691118717194e-02,5.801728740334510803e-02,-8.888750523328781128e-02,-5.864211916923522949e-02,2.592607866972684860e-03,1.189372390508651733e-01,-2.171454206109046936e-02,2.413028152659535408e-03,5.847391113638877869e-02,-9.261028468608856201e-02,2.065623551607131958e-01,-2.048053219914436340e-02,-8.280477672815322876e-02,-7.377122342586517334e-02,6.420688331127166748e-02,-1.270436588674783707e-02,-2.830071449279785156e-01,-8.658456802368164062e-02,1.005071252584457397e-01,-1.322878599166870117e-01,1.321525871753692627e-01,-1.087750773876905441e-02,-1.014130264520645142e-01
-2.484316378831863403e-02,-1.044591367244720459e-01,3.688409551978111267e-02,8.205301314592361450e-02,5.792235955595970154e-03,-1.689621806144714355e-01,-1.521264016628265381e-01,-3.534861281514167786e-02,-8.036781847476959229e-02,-6.790012586861848831e-03,-9.035094082355499268e-02,1.537701189517974854e-01,9.253466874361038208e-02,-9.702809900045394897e-02,-6.858596205711364746e-02,1.741700470447540283e-01,-3.845197334885597229e-02,1.018850207328796387e-01,5.318086221814155579e-02,-8.788211643695831299e-02,4.347423091530799866e-02,1.492426395416259766e-01,-1.576440222561359406e-02,-7.722716778516769409e-02,-1.066802591085433960e-01,-2.682819068431854248e-01,-1.457662582397460938e-01,-1.383989155292510986e-01,-1.622771322727203369e-01,-1.817404329776763916e-01,-1.753541827201843262e-01,5.529650673270225525e-02,-5.312037840485572815e-02,-7.976075261831283569e-02,-9.877367317676544189e-02,-1.204932928085327148e-01,1.036064848303794861e-01,7.499809563159942627e-02,6.158461049199104309e-02,1.576025933027267456e-01,5.320353433489799500e-02,1.887127608060836792e-01,-2.255533933639526367e-01,2.451887726783752441e-02,-1.475045382976531982e-01,1.095704287290573120e-01,1.453828960657119751e-01,-9.734722971916198730e-02,-1.173471435904502869e-01,1.780593842267990112e-01,8.739887923002243042e-02,-1.171952299773693085e-02,-1.291925646364688873e-02,1.463654786348342896e-01,-1.498947441577911377e-01,2.222425490617752075e-01,-1.321462541818618774e-01,-1.248952001333236694e-02,-1.000973731279373169e-01,-1.288110613822937012e-01,3.995044156908988953e-02,4.802028462290763855e-02,4.947887733578681946e-02,9.855925291776657104e-02,-1.795389801263809204e-01,7.727870345115661621e-02,-1.752066761255264282e-01,4.179462790489196777e-02,4.277639091014862061e-02,-1.169610023498535156e-01,3.189315646886825562e-02,-1.487311273813247681e-01,4.382145777344703674e-02,-1.077693924307823181e-01,-2.323805689811706543e-01,-2.094814330339431763e-01,6.425470858812332153e-02,-1.360267996788024902e-01,-2.969019860029220581e-02,-8.667931705713272095e-02,-9.185071289539337158e-02,-2.051607966423034668e-01,4.512805864214897156e-02,4.021928831934928894e-02,-3.465860709547996521e-02,7.702115178108215332e-02,-1.129250153899192810e-01,4.110177233815193176e-02,7.038527727127075195e-02,3.089033812284469604e-02,2.884723618626594543e-02,-6.953678280115127563e-02,7.126948237419128418e-02,1.104713380336761475e-01,-7.906007766723632812e-02,-1.534651517868041992e-01,-1.247359290719032288e-01,-1.673744432628154755e-02,-2.776663936674594879e-02,3.169878199696540833e-02,-2.724768221378326416e-01,3.230176493525505066e-02,3.352797776460647583e-02,-3.567317500710487366e-02,6.942758709192276001e-02,-4.435586929321289062e-02,2.513081431388854980e-01,-3.659220039844512939e-02,-8.496461436152458191e-03,-1.508713215589523315e-01,1.766864955425262451e-01,6.924924254417419434e-02,-7.854787260293960571e-02,-1.433106213808059692e-01,-1.538542062044143677e-01,6.888552103191614151e-03,5.247423797845840454e-02,1.284661293029785156e-01,-1.993655562400817871e-01,-4.846790432929992676e-02
1.081157997250556946e-01,1.718961298465728760e-01,5.241074040532112122e-02,-8.148609846830368042e-02,-1.226698756217956543e-01,-2.355118282139301300e-03,1.670203655958175659e-01,5.543305352330207825e-02,2.308793216943740845e-01,2.984717302024364471e-02,1.686685718595981598e-02,-1.005089133977890015e-01,-2.044065892696380615e-01,2.696141600608825684e-04,3.470281884074211121e-02,1.334709674119949341e-01,-9.005076438188552856e-02,-1.996315717697143555e-01,-8.784632384777069092e-02,-1.061486899852752686e-01,-5.692132934927940369e-02,2.807063460350036621e-01,1.440181136131286621e-01,8.587610721588134766e-02,-9.457027912139892578e-02,-2.573589086532592773e-01,7.342864573001861572e-02,-5.406063422560691833e-02,2.171463146805763245e-02,2.349155694246292114e-01,-5.531796813011169434e-02,-3.370500728487968445e-02,1.436191201210021973e-01,-1.253667920827865601e-01,1.169926300644874573e-02,4.986288771033287048e-02,9.795061498880386353e-02,1.799180060625076294e-01,5.681505426764488220e-03,2.231730846688151360e-03,4.309860058128833771e-03,3.248987346887588501e-02,7.209015637636184692e-02,1.490521011874079704e-03,1.040920466184616089e-01,-1.564937084913253784e-01,-7.431308925151824951e-02,-1.499894410371780396e-01,-1.456476598978042603e-01,-1.279065310955047607e-01,-3.319628536701202393e-02,-8.494273573160171509e-02,-3.662300482392311096e-02,-1.021174862980842590e-01,3.207961842417716980e-02,1.444707661867141724e-01,2.199419401586055756e-02,9.213121980428695679e-02,9.005441516637802124e-02,-1.150209233164787292e-01,-7.214657962322235107e-02,-9.910175949335098267e-02,-2.024740874767303467e-01,-1.533271651715040207e-02,8.902132511138916016e-02,2.134012058377265930e-02,-6.898682564496994019e-02,5.117313191294670105e-02,1.209237277507781982e-01,2.640689313411712646e-01,-2.427860163152217865e-02,1.573156565427780151e-02,1.010691896080970764e-01,6.925225257873535156e-02,2.104105949401855469e-01,-3.131373599171638489e-02,-2.074149101972579956e-01,2.719535529613494873e-01,6.117163226008415222e-02,5.940999463200569153e-02,-9.496369957923889160e-02,1.137342676520347595e-01,-1.911461502313613892e-01,1.159196421504020691e-01,-1.594890803098678589e-01,-3.160079941153526306e-02,5.560589581727981567e-02,-6.103185936808586121e-02,2.943030372262001038e-02,-1.851874291896820068e-01,7.466263324022293091e-02,7.772005349397659302e-02,4.296424239873886108e-02,9.564641118049621582e-02,4.590989649295806885e-02,1.190482527017593384e-01,1.732272328808903694e-03,1.555461287498474121e-01,4.851687327027320862e-02,3.368649259209632874e-02,-6.995904445648193359e-02,1.711655780673027039e-02,9.932372719049453735e-02,1.415623426437377930e-01,8.574052155017852783e-02,4.490886256098747253e-02,1.464930474758148193e-01,2.691899053752422333e-02,-4.458570107817649841e-02,2.823083475232124329e-02,1.333852857351303101e-02,1.742386445403099060e-02,2.079122811555862427e-01,-8.148691058158874512e-02,-4.197091981768608093e-02,6.132374331355094910e-02,-5.459206923842430115e-02,-1.184198912233114243e-02,9.557271376252174377e-03,-3.584721088409423828e-01
9.882128797471523285e-03,-1.074033975601196289e-01,1.370589286088943481e-01,-5.632589757442474365e-02,-1.314404308795928955e-01,-1.161892618983983994e-02,-8.869737386703491211e-02,-2.387913018465042114e-01,1.874661445617675781e-01,-3.631255030632019043e-02,-4.853554815053939819e-02,1.511936187744140625e-01,1.230844333767890930e-01,-1.503005344420671463e-02,3.741241246461868286e-02,-6.103602796792984009e-02,-5.113150924444198608e-02,2.787211537361145020e-02,1.153088510036468506e-01,-4.549550940282642841e-04,8.770781010389328003e-02,-1.005899347364902496e-02,-2.419043481349945068e-01,6.973952800035476685e-02,9.444249793887138367e-03,4.949448630213737488e-03,5.405309051275253296e-02,-1.997974961996078491e-01,-5.893645808100700378e-02,3.276997432112693787e-02,2.091742679476737976e-02,-1.397379487752914429e-01,-8.596584945917129517e-02,2.071392955258488655e-03,2.038157358765602112e-02,4.736602772027254105e-03,-1.186479106545448303e-01,-1.974090486764907837e-01,1.003277078270912170e-01,-4.626706615090370178e-02,1.766279786825180054e-01,-2.947629615664482117e-02,1.225327625870704651e-01,9.121872484683990479e-02,-1.806622445583343506e-01,1.444583106786012650e-02,-5.071402713656425476e-02,5.148355849087238312e-03,-2.332212179899215698e-01,-4.773978888988494873e-02,3.998885303735733032e-02,-1.013360023498535156e-01,1.361519545316696167e-01,-2.975210249423980713e-01,1.858941614627838135e-01,-1.065887734293937683e-01,1.792008639313280582e-03,-1.913466304540634155e-01,1.567263305187225342e-01,2.045951634645462036e-01,-1.349813342094421387e-01,-2.775880508124828339e-02,1.897831559181213379e-01,-2.060474008321762085e-01,-2.434897609055042267e-02,-8.890689164400100708e-02,2.031137049198150635e-01,-5.640676990151405334e-02,1.968027502298355103e-01,-9.262064099311828613e-02,-3.618808463215827942e-02,3.125869482755661011e-02,-6.392167508602142334e-02,-5.387803167104721069e-02,1.181977242231369019e-01,1.396064013242721558e-01,2.073465883731842041e-01,2.953164838254451752e-02,1.321568191051483154e-01,3.376524522900581360e-02,-1.532723009586334229e-01,1.900249421596527100e-01,-7.032805681228637695e-02,-8.487755805253982544e-02,8.473335951566696167e-02,-1.435585469007492065e-01,2.898872829973697662e-02,-2.654387354850769043e-01,2.083260118961334229e-01,1.402243375778198242e-01,-1.532383449375629425e-02,1.041286364197731018e-01,5.192438885569572449e-02,5.145387351512908936e-02,4.054951667785644531e-02,-1.438448578119277954e-01,2.008621543645858765e-01,-2.050553262233734131e-01,-2.419286035001277924e-02,-6.702475249767303467e-02,-1.607217937707901001e-01,1.335012912750244141e-01,-2.129010856151580811e-01,-1.355447620153427124e-01,9.603079408407211304e-02,-5.984940007328987122e-02,-6.774971843697130680e-04,-1.406399905681610107e-01,2.192953526973724365e-01,1.464342325925827026e-01,1.366666108369827271e-01,-2.640152163803577423e-02,7.054256740957498550e-03,7.148920744657516479e-02,1.165525466203689575e-01,-7.199281454086303711e-02,-3.326958790421485901e-02,-1.631196588277816772e-01,1.250506788492202759e-01,-3.362394869327545166e-02
-4.241691529750823975e-02,-9.322378784418106079e-02,-9.936605393886566162e-02,-2.708750031888484955e-02,-9.139115363359451294e-02,1.160843074321746826e-01,-1.748203784227371216e-01,-7.642623037099838257e-02,1.431530117988586426e-01,-6.015940755605697632e-02,1.113843992352485657e-01,2.732371166348457336e-02,-2.054073065519332886e-01,1.487271040678024292e-01,4.782954603433609009e-02,1.661746054887771606e-01,1.508340984582901001e-02,-6.483006756752729416e-03,1.048908308148384094e-01,-1.552327629178762436e-02,-3.865728387609124184e-03,2.295857761055231094e-03,3.684406727552413940e-02,6.477718055248260498e-02,-1.112527400255203247e-02,5.017665028572082520e-02,-9.928245563060045242e-04,2.438351213932037354e-01,-1.883991956710815430e-01,-1.033840030431747437e-01,-1.334297470748424530e-02,2.645850740373134613e-02,1.013460457324981689e-01,-5.869320128113031387e-03,-2.660303413867950439e-01,-9.552715718746185303e-02,-1.780457347631454468e-01,1.341383755207061768e-01,4.918554797768592834e-02,-5.288053676486015320e-02,-1.063481643795967102e-01,3.571020439267158508e-02,1.342455297708511353e-01,1.392372697591781616e-01,-3.130351006984710693e-02,1.194452121853828430e-01,7.699558138847351074e-02,-1.231801137328147888e-02,-8.720704913139343262e-02,-2.128254175186157227e-01,1.160547733306884766e-01,4.980514198541641235e-02,9.727542102336883545e-02,-1.083056256175041199e-01,1.176006123423576355e-01,-1.116418316960334778e-01,-6.154473498463630676e-02,1.025188863277435303e-01,4.904761165380477905e-02,-5.655738711357116699e-02,-3.821106255054473877e-02,1.438255310058593750e-01,-4.572735726833343506e-02,3.656555339694023132e-02,-1.448626369237899780e-01,-1.101119592785835266e-01,-1.990495622158050537e-01,9.508194774389266968e-02,-1.495794653892517090e-01,3.950915485620498657e-02,8.348656445741653442e-02,-1.502999067306518555e-01,1.938236057758331299e-01,1.025020629167556763e-01,-7.871922850608825684e-02,-1.454788744449615479e-01,9.164443612098693848e-02,7.857513427734375000e-02,1.183110103011131287e-01,2.093982882797718048e-02,2.023143321275711060e-02,-1.181127056479454041e-01,-2.416508272290229797e-02,-3.502357751131057739e-02,3.374977782368659973e-02,5.586827173829078674e-03,3.534875810146331787e-02,-4.328057169914245605e-02,-1.429696679115295410e-01,-1.244698092341423035e-01,-1.322436705231666565e-02,7.050602138042449951e-02,1.623130738735198975e-01,-5.276182293891906738e-02,9.764996170997619629e-02,4.300682991743087769e-02,1.157167628407478333e-01,9.756664931774139404e-02,1.543431878089904785e-01,-3.639655560255050659e-02,1.452025119215250015e-02,-2.821349352598190308e-02,-4.316383600234985352e-02,-5.441923160105943680e-03,-2.292165309190750122e-01,-1.884262263774871826e-01,-8.105007559061050415e-02,6.430170685052871704e-02,-1.677601933479309082e-01,7.173208054155111313e-03,7.763177622109651566e-03,9.572221897542476654e-03,6.979883462190628052e-02,1.493196487426757812e-01,-5.639282986521720886e-02,9.567278623580932617e-02,1.368015855550765991e-01,1.549532450735569000e-02,7.558190077543258667e-02,9.686788171529769897e-02
8.077793568372726440e-02,1.134069934487342834e-01,-5.034678056836128235e-02,6.950040906667709351e-02,-3.140572831034660339e-02,1.362872496247291565e-02,4.254876449704170227e-02,-8.398079872131347656e-02,-9.222381561994552612e-02,1.189629957079887390e-01,2.067139185965061188e-02,7.419161498546600342e-02,1.158332899212837219e-01,4.167286306619644165e-02,-1.323178559541702271e-01,3.519498184323310852e-02,5.134804546833038330e-02,1.866884180344641209e-03,-6.920606642961502075e-02,6.226779520511627197e-02,2.078136205673217773e-01,1.049890816211700439e-01,3.293995186686515808e-02,-4.533260315656661987e-02,1.914714872837066650e-01,9.561009705066680908e-02,6.102741882205009460e-02,-1.532907783985137939e-01,-6.969545036554336548e-02,1.316165775060653687e-01,-2.608671411871910095e-02,1.006647385656833649e-02,-2.200454100966453552e-02,1.144956052303314209e-01,-1.535292156040668488e-02,8.991204202175140381e-02,-1.708898842334747314e-01,2.600608579814434052e-02,-5.456646904349327087e-02,-4.006063565611839294e-02,-9.586144238710403442e-02,7.918950915336608887e-02,8.323480188846588135e-02,-8.220701664686203003e-02,-3.647812083363533020e-02,-6.836397945880889893e-02,1.163159012794494629e-01,2.559990249574184418e-02,-1.048302203416824341e-01,1.855167187750339508e-02,1.561661064624786377e-01,-8.057340234518051147e-02,-1.221315041184425354e-01,-1.557230353355407715e-01,-4.579371958971023560e-02,-1.268920004367828369e-01,2.280644923448562622e-01,8.273033052682876587e-02,-1.217300593852996826e-01,-2.624626271426677704e-02,8.503261953592300415e-02,-8.750809729099273682e-02,-1.231782436370849609e-01,-6.825617700815200806e-02,-1.664726287126541138e-01,1.940110139548778534e-02,-4.992995038628578186e-02,-1.028484199196100235e-02,1.338939368724822998e-01,9.919307380914688110e-02,-1.115629598498344421e-01,2.296270569786429405e-03,-8.345229178667068481e-02,-1.892651617527008057e-02,4.308629035949707031e-02,5.504725128412246704e-02,1.876825350336730480e-03,3.563251346349716187e-02,1.299452316015958786e-02,-9.788005053997039795e-02,3.618756309151649475e-02,6.695031374692916870e-02,9.082042425870895386e-02,-3.095305757597088814e-03,-7.281834632158279419e-02,-2.175931446254253387e-02,1.718688160181045532e-01,-1.170954108238220215e-02,-9.719666093587875366e-02,-8.892536163330078125e-03,-4.222433641552925110e-02,-1.728001534938812256e-01,1.448972374200820923e-01,9.714227169752120972e-03,-1.001373752951622009e-01,-7.201387733221054077e-02,1.242539733648300171e-01,-1.324144452810287476e-01,4.932818002998828888e-03,-2.937990799546241760e-02,9.776626713573932648e-03,4.118697345256805420e-02,1.691325157880783081e-01,2.817791141569614410e-02,-7.176891714334487915e-02,2.260754108428955078e-01,-1.942026428878307343e-02,2.305178046226501465e-01,1.855373829603195190e-01,-1.415105909109115601e-01,-2.064880281686782837e-01,1.423517316579818726e-01,2.424024976789951324e-02,1.075522899627685547e-01,8.265752345323562622e-03,-5.858770757913589478e-02,5.281073227524757385e-02,6.047125905752182007e-02,3.008786402642726898e-02,-7.454415410757064819e-02
7.249748706817626953e-02,-6.279889959841966629e-03,1.015762239694595337e-01,-1.170965284109115601e-01,7.565217092633247375e-03,-2.228009700775146484e-02,7.103110849857330322e-02,-1.771254092454910278e-01,1.450399607419967651e-01,-3.795933444052934647e-03,2.365193068981170654e-01,-7.209575176239013672e-02,1.107561215758323669e-01,-6.112694367766380310e-02,-1.002174839377403259e-01,-1.073488891124725342e-01,1.259184628725051880e-01,1.194525882601737976e-01,-1.523942947387695312e-01,-5.971660371869802475e-03,1.744218915700912476e-02,2.008880376815795898e-01,1.051335707306861877e-01,6.819344311952590942e-02,-9.725999087095260620e-02,-1.486254483461380005e-01,-1.743583232164382935e-01,1.046508178114891052e-01,-3.319432586431503296e-02,1.779218576848506927e-02,1.375922858715057373e-01,1.018083691596984863e-01,-1.213638633489608765e-01,9.287424385547637939e-02,2.928329631686210632e-02,9.857022203505039215e-03,9.040932357311248779e-02,-5.727585032582283020e-02,8.548582345247268677e-02,-1.293594483286142349e-02,1.535472124814987183e-01,-3.906876593828201294e-02,-1.349450945854187012e-01,1.693728119134902954e-01,5.874150618910789490e-02,-1.501927375793457031e-01,-1.235020533204078674e-01,1.689752936363220215e-01,-5.665190890431404114e-02,-7.417525351047515869e-02,5.862144008278846741e-02,5.316616222262382507e-02,1.372075546532869339e-02,1.619436591863632202e-01,-1.372275352478027344e-01,-2.575659751892089844e-01,1.404746323823928833e-01,-1.321146935224533081e-01,-1.963080912828445435e-01,1.408048868179321289e-01,5.830322206020355225e-02,-1.805404722690582275e-01,-3.221258148550987244e-02,-1.373007944494020194e-05,-5.610415339469909668e-02,-1.091584488749504089e-01,-9.495295584201812744e-03,-1.292890459299087524e-01,1.412688940763473511e-02,5.758475512266159058e-02,-5.289290100336074829e-02,4.055430367588996887e-02,-1.023647785186767578e-01,-6.048598140478134155e-02,7.587777823209762573e-02,8.594352006912231445e-02,1.705086976289749146e-01,9.372809529304504395e-02,5.715691298246383667e-02,1.525269448757171631e-01,9.916213899850845337e-02,-1.285613048821687698e-03,-1.408552229404449463e-01,-6.488215923309326172e-02,-1.667178720235824585e-01,-2.538309432566165924e-02,7.528480142354965210e-02,-2.264480888843536377e-01,1.289612203836441040e-01,-1.085741966962814331e-01,1.638704687356948853e-01,5.367150902748107910e-02,4.648217931389808655e-02,-1.022103950381278992e-01,7.310200482606887817e-02,3.627612441778182983e-02,-1.511432509869337082e-02,-1.215278822928667068e-02,9.322669357061386108e-02,-4.409112036228179932e-02,-1.757225841283798218e-01,-2.640980295836925507e-03,-7.309049367904663086e-02,-6.114543229341506958e-02,-4.839498177170753479e-02,8.736595511436462402e-02,6.992078572511672974e-02,2.230794876813888550e-01,4.830302670598030090e-02,6.679022312164306641e-02,-9.927550703287124634e-02,1.334804855287075043e-02,-3.884782269597053528e-02,-3.595641255378723145e-02,-4.677642881870269775e-02,8.869515359401702881e-02,4.211795516312122345e-03,1.397323459386825562e-01,5.923730134963989258e-02,6.751094013452529907e-03
-1.566183269023895264e-01,-1.208411231637001038e-01,-1.964254081249237061e-01,1.241013780236244202e-01,-2.208114862442016602e-01,-2.040935456752777100e-01,2.016719728708267212e-01,5.488504096865653992e-02,-1.098584160208702087e-01,5.755273252725601196e-02,-3.797892481088638306e-02,-1.010843142867088318e-01,-1.495966166257858276e-01,-2.241742163896560669e-01,-1.261422634124755859e-01,3.476867079734802246e-02,-2.484592646360397339e-01,1.864381283521652222e-01,2.042669951915740967e-01,-3.540781140327453613e-02,-6.561817601323127747e-03,2.029448896646499634e-01,-7.960916310548782349e-02,1.074063628911972046e-01,-4.148823767900466919e-02,5.716447904706001282e-02,1.954333484172821045e-01,-1.661044806241989136e-01,4.708798602223396301e-02,-6.851221621036529541e-02,1.004541991278529167e-03,-1.610454730689525604e-02,1.825521439313888550e-01,-3.837390569970011711e-03,1.200541108846664429e-01,-2.056173533201217651e-01,5.804735049605369568e-02,-4.898548498749732971e-02,-7.212138921022415161e-02,-8.370350301265716553e-02,-6.358706206083297729e-02,6.496116518974304199e-02,1.268308907747268677e-01,2.050322741270065308e-01,1.795656234025955200e-01,5.910737905651330948e-03,-8.853204548358917236e-02,-1.617784351110458374e-01,-1.208267547190189362e-02,-7.398601621389389038e-02,2.031118124723434448e-01,-2.441242150962352753e-02,-2.313388139009475708e-01,-1.132180988788604736e-01,1.437240242958068848e-01,-3.310495615005493164e-02,3.827903270721435547e-01,7.311502844095230103e-02,7.751253247261047363e-02,-4.676744341850280762e-02,-1.743022501468658447e-01,-1.651073247194290161e-01,-9.742970019578933716e-02,3.889637067914009094e-02,5.076896399259567261e-02,-7.745421677827835083e-02,-6.954911351203918457e-02,-1.757567822933197021e-01,1.191091537475585938e-01,1.296577304601669312e-01,-1.558775305747985840e-01,1.545913331210613251e-02,-7.818967103958129883e-02,4.754607379436492920e-02,3.049685619771480560e-02,-1.734979301691055298e-01,6.761021912097930908e-02,1.420150231570005417e-02,-2.020416706800460815e-01,9.041987359523773193e-02,-7.990442961454391479e-02,1.358324438333511353e-01,-8.699600584805011749e-03,9.921691566705703735e-02,-2.522984705865383148e-02,1.967045515775680542e-01,5.574256926774978638e-02,1.782364100217819214e-01,-1.669796742498874664e-02,-1.265969127416610718e-01,-1.162922680377960205e-01,-5.688776448369026184e-02,-1.473192870616912842e-01,5.515601951628923416e-04,1.165727823972702026e-01,1.093212589621543884e-01,-2.056419551372528076e-01,7.078787684440612793e-02,-5.679336562752723694e-02,-8.632969111204147339e-02,1.950022876262664795e-01,-5.355423688888549805e-02,7.711876183748245239e-02,-1.389369219541549683e-01,1.095359921455383301e-01,-9.973998181521892548e-03,5.383110418915748596e-02,-1.351784020662307739e-01,9.994278661906719208e-03,6.470424681901931763e-02,1.574430316686630249e-01,-3.133393228054046631e-01,3.984205424785614014e-02,-2.866503596305847168e-01,-3.242037817835807800e-02,1.356629133224487305e-01,-4.172356054186820984e-02,2.396429479122161865e-01,2.456450164318084717e-01,1.258914619684219360e-01
1.342529803514480591e-01,-2.358529865741729736e-01,3.708212673664093018e-01,-3.034172952175140381e-01,-2.429766356945037842e-01,9.715884178876876831e-02,1.298773884773254395e-01,4.158620163798332214e-02,4.074190801475197077e-04,5.911215394735336304e-02,-9.822909533977508545e-02,-4.749432206153869629e-02,-2.571145296096801758e-01,-1.251647341996431351e-02,-5.938803777098655701e-02,-2.611758187413215637e-02,-1.062193438410758972e-01,-1.071124244481325150e-02,8.704655803740024567e-03,1.146330386400222778e-01,-1.749355047941207886e-01,2.445930391550064087e-01,8.184289336204528809e-01,-7.124835997819900513e-02,1.027732491493225098e-01,-2.169379740953445435e-01,2.604510188102722168e-01,3.619647026062011719e-01,-1.988394707441329956e-01,-1.232068892568349838e-02,-9.488703310489654541e-02,-3.812021315097808838e-01,-1.484352499246597290e-01,-5.235568434000015259e-02,6.313008069992065430e-02,-6.966544687747955322e-02,-2.143699489533901215e-02,1.179552003741264343e-01,4.595882818102836609e-02,1.314855366945266724e-01,-2.291580103337764740e-02,-2.864221110939979553e-02,-1.909593939781188965e-01,7.805394381284713745e-02,-7.622903585433959961e-02,-2.643612623214721680e-01,4.222111031413078308e-02,-1.511159688234329224e-01,-1.210112497210502625e-02,-4.296784698963165283e-01,5.171329975128173828e-01,-1.341303810477256775e-02,-1.968943178653717041e-01,-1.010948605835437775e-02,-3.716430366039276123e-01,2.134838998317718506e-01,3.903385996818542480e-01,1.255025565624237061e-01,-3.225465416908264160e-01,-3.461036086082458496e-02,3.123837411403656006e-01,-9.524463117122650146e-02,-8.049178868532180786e-02,2.270755767822265625e-01,5.765171721577644348e-02,-3.300139307975769043e-02,-1.203915178775787354e-01,-1.944879293441772461e-01,1.382159739732742310e-01,1.734457165002822876e-01,-2.140807919204235077e-03,1.969893574714660645e-01,-2.594280540943145752e-01,-4.125227686017751694e-03,1.583684682846069336e-01,-1.826471090316772461e-02,-2.084358781576156616e-01,1.231803074479103088e-01,-4.859945550560951233e-02,1.518878042697906494e-01,-1.020993366837501526e-01,-1.525530517101287842e-01,-2.590966224670410156e-01,2.259895503520965576e-01,1.885926723480224609e-01,9.570316970348358154e-02,-3.637896478176116943e-01,-2.504516541957855225e-01,2.242950350046157837e-01,-1.850515902042388916e-01,1.605611294507980347e-01,-1.921428740024566650e-01,7.411391008645296097e-03,-1.301513314247131348e-01,4.312172904610633850e-02,-1.632088273763656616e-01,2.226299196481704712e-01,1.624857485294342041e-01,-3.284058272838592529e-01,-1.616436988115310669e-01,2.630449645221233368e-02,2.208969444036483765e-01,-3.483203798532485962e-02,-2.250887453556060791e-01,-1.166253238916397095e-01,8.396767079830169678e-03,9.133418649435043335e-02,1.230855584144592285e-01,7.857640832662582397e-02,1.209767162799835205e-01,2.948461771011352539e-01,2.470576316118240356e-01,-1.730783283710479736e-01,1.873881220817565918e-01,-9.642392396926879883e-03,-1.480724811553955078e-01,1.979679334908723831e-03,-5.254033207893371582e-01,-1.792399287223815918e-01,1.639547944068908691e-02
-3.116030059754848480e-02,-1.912107020616531372e-01,-1.192141547799110413e-01,2.565943449735641479e-02,-1.380007565021514893e-01,1.027846336364746094e-01,-1.390900760889053345e-01,4.920710995793342590e-02,-1.460883915424346924e-01,2.030651122331619263e-01,-1.104115322232246399e-01,-2.236804217100143433e-01,-2.255134731531143188e-01,-4.527401924133300781e-02,1.804703325033187866e-01,1.075123697519302368e-01,6.262066215276718140e-02,-3.959253896027803421e-03,-1.410713642835617065e-01,7.773806154727935791e-02,2.899199426174163818e-01,-4.610756635665893555e-01,8.864845335483551025e-02,1.324658840894699097e-01,1.097157597541809082e-01,1.148347854614257812e-01,1.073178946971893311e-01,-3.126834034919738770e-01,-9.172845631837844849e-02,-3.607027977705001831e-02,-2.198644429445266724e-01,-1.253499556332826614e-02,-4.918058961629867554e-02,3.951147794723510742e-01,2.023667395114898682e-01,1.836769133806228638e-01,-2.709166407585144043e-01,4.560734331607818604e-01,-1.041314750909805298e-01,-2.315782159566879272e-01,-1.235811226069927216e-02,1.136373206973075867e-01,-3.251168876886367798e-02,1.542445868253707886e-01,9.264042228460311890e-02,-1.484520435333251953e-01,9.469828754663467407e-02,4.669369384646415710e-02,2.551349438726902008e-02,2.983885630965232849e-02,8.795654773712158203e-02,-2.166955322027206421e-01,4.431997984647750854e-02,-9.880591928958892822e-02,-7.945967465639114380e-02,2.003006488084793091e-01,1.748408526182174683e-01,3.052704408764839172e-02,1.350137889385223389e-01,-6.227286905050277710e-02,-5.137875676155090332e-02,6.155308708548545837e-02,8.994665741920471191e-02,6.524299830198287964e-02,-1.063065528869628906e-01,1.009884700179100037e-01,-1.823199242353439331e-01,4.262739121913909912e-01,-1.618897169828414917e-01,-1.577686332166194916e-02,4.995224997401237488e-02,-1.370127797126770020e-01,-3.516654074192047119e-01,-2.419527433812618256e-02,-2.048567384481430054e-01,7.028788328170776367e-02,-1.537712663412094116e-02,2.282882183790206909e-01,-2.037075906991958618e-01,-2.183852903544902802e-02,-1.469505514251068234e-04,-2.674422971904277802e-02,-1.453965604305267334e-01,-6.639044731855392456e-02,-1.441674381494522095e-01,1.397672146558761597e-01,5.067308545112609863e-01,-2.078565210103988647e-02,3.086740076541900635e-01,-5.761470273137092590e-02,-1.770351976156234741e-01,-6.606993079185485840e-02,8.110482990741729736e-02,2.720996737480163574e-01,2.237430959939956665e-02,-1.448090225458145142e-01,3.646368682384490967e-01,-1.875943988561630249e-01,2.122853845357894897e-01,1.120832040905952454e-01,4.408210515975952148e-03,1.419348418712615967e-01,4.711563140153884888e-02,4.826643317937850952e-02,-9.672643616795539856e-03,-8.857429772615432739e-02,7.177686691284179688e-02,3.087122552096843719e-02,7.388611137866973877e-02,1.922570616006851196e-01,-6.249833479523658752e-02,-2.860292196273803711e-01,-4.723994806408882141e-02,2.072369307279586792e-02,-2.436718493700027466e-01,1.133089065551757812e-01,4.711442440748214722e-02,-3.341045677661895752e-01,4.113808646798133850e-02,1.060862764716148376e-01
-1.660032570362091064e-01,1.249670535326004028e-01,7.167408615350723267e-02,1.841747760772705078e-02,6.007872149348258972e-02,-6.113536283373832703e-02,-5.366306751966476440e-03,3.035279177129268646e-02,3.089171461760997772e-02,-4.362828284502029419e-02,1.997508853673934937e-02,-2.123499363660812378e-01,-1.624118834733963013e-01,1.499952971935272217e-01,1.251439601182937622e-01,-6.295091658830642700e-02,-1.294810473918914795e-01,-4.727882798761129379e-03,7.634965330362319946e-02,1.621040701866149902e-01,-1.705396771430969238e-01,4.601980745792388916e-02,-5.992229655385017395e-02,8.424654603004455566e-02,9.741311520338058472e-02,2.682664245367050171e-02,1.017328165471553802e-02,-1.241790577769279480e-01,-6.153359636664390564e-02,1.083658337593078613e-01,1.260515153408050537e-01,1.020479723811149597e-01,-4.536306113004684448e-02,1.303952336311340332e-01,-2.834219858050346375e-02,1.314159482717514038e-03,-1.125698257237672806e-02,3.622224181890487671e-02,3.293655067682266235e-02,-1.364538446068763733e-02,1.620936840772628784e-01,-3.304466232657432556e-02,8.371795713901519775e-02,1.026278547942638397e-02,5.352745205163955688e-02,1.326693147420883179e-01,-1.587144285440444946e-01,2.303900942206382751e-02,4.445122554898262024e-02,-8.977422863245010376e-02,4.078394547104835510e-02,1.004890426993370056e-01,4.210378974676132202e-02,2.646150887012481689e-01,-1.411395817995071411e-01,2.146744914352893829e-02,-2.047907263040542603e-01,9.156166762113571167e-02,-3.570882603526115417e-02,4.824104532599449158e-02,-7.697537541389465332e-02,-4.865255206823348999e-02,2.737277187407016754e-02,1.103024408221244812e-01,6.442964822053909302e-02,-7.448401302099227905e-02,1.274221297353506088e-02,-9.593910723924636841e-02,-1.030929312109947205e-01,5.799786001443862915e-02,1.381756514310836792e-01,-1.974145770072937012e-01,-8.381860703229904175e-02,-4.358236864209175110e-02,2.144542668247595429e-04,1.870910823345184326e-01,2.441983819007873535e-01,2.427821904420852661e-01,-1.313501149415969849e-01,-5.042857676744461060e-02,5.878473073244094849e-02,-1.178891882300376892e-01,5.209835991263389587e-02,-1.063019502907991409e-02,8.933865278959274292e-02,1.103592067956924438e-01,1.453561037778854370e-01,-2.994303032755851746e-02,-4.062425717711448669e-02,1.994335651397705078e-01,3.579613566398620605e-02,-9.884651750326156616e-02,7.970917224884033203e-02,7.700578868389129639e-02,-1.261781305074691772e-01,9.720723330974578857e-02,-2.081708982586860657e-02,-3.387372195720672607e-02,-4.289127886295318604e-02,-7.734010368585586548e-02,1.033480614423751831e-01,4.717659950256347656e-02,-1.011170819401741028e-01,6.632453203201293945e-02,-1.266970206052064896e-02,2.992584742605686188e-02,-9.432668238878250122e-02,-6.104678288102149963e-02,-7.172201573848724365e-02,-2.275532297790050507e-02,-1.582287847995758057e-01,-3.875061124563217163e-02,-2.034533321857452393e-01,7.476323843002319336e-02,7.808220107108354568e-03,1.041107103228569031e-01,-1.628355383872985840e-01,-4.291153326630592346e-02,1.204773783683776855e-01,-4.790129140019416809e-02
-1.546774208545684814e-01,8.231980353593826294e-02,1.009658724069595337e-01,-7.132688909769058228e-02,-1.717602759599685669e-01,1.174522936344146729e-01,1.314947456121444702e-01,2.164911031723022461e-01,4.116999730467796326e-02,7.851567119359970093e-02,2.031192332506179810e-01,8.845629543066024780e-02,-1.004984788596630096e-02,-1.639888621866703033e-02,4.069443419575691223e-02,5.474421009421348572e-02,1.146022900938987732e-01,-4.993607848882675171e-02,-2.648315727710723877e-01,-4.408088698983192444e-02,1.152452304959297180e-01,1.959154158830642700e-01,1.847700565122067928e-03,1.219802945852279663e-01,-5.166181176900863647e-02,-1.853372603654861450e-01,1.048318110406398773e-02,1.079567000269889832e-01,-3.882538154721260071e-02,-3.590425476431846619e-02,-1.130545139312744141e-01,-1.630306392908096313e-01,1.584161818027496338e-02,-6.824949383735656738e-02,-1.470086276531219482e-01,-1.796676367521286011e-01,-1.050339713692665100e-01,5.199133604764938354e-02,9.495189785957336426e-02,-1.314526237547397614e-02,-1.515409648418426514e-01,1.068750321865081787e-01,4.718815162777900696e-02,-3.244486749172210693e-01,-2.225787341594696045e-01,-1.661881953477859497e-01,-2.986962720751762390e-02,-2.084869518876075745e-02,2.943007973954081535e-03,-8.008289150893688202e-03,-7.135535031557083130e-02,2.123193293809890747e-01,-4.440168291330337524e-02,1.262957900762557983e-01,-1.602372527122497559e-01,1.325249075889587402e-01,-3.153584003448486328e-01,-2.185164950788021088e-02,-1.649530082941055298e-01,-7.520761340856552124e-02,1.609466224908828735e-01,3.350634127855300903e-02,1.080590113997459412e-01,1.797369569540023804e-01,5.822176486253738403e-02,-4.666967317461967468e-02,-1.165929809212684631e-01,4.302483424544334412e-02,9.594266861677169800e-02,-1.304186731576919556e-01,1.059467047452926636e-01,-2.565405739005655050e-04,-1.119057536125183105e-01,-9.929075092077255249e-02,1.123286504298448563e-02,-8.168849349021911621e-02,1.830254048109054565e-01,-5.965786799788475037e-02,2.997154295444488525e-01,-5.346156284213066101e-02,-2.346864044666290283e-01,-1.240070313215255737e-01,-1.812273710966110229e-01,1.274120658636093140e-01,-2.321246266365051270e-02,7.030777633190155029e-02,1.447472274303436279e-01,-7.399792969226837158e-02,-6.102592218667268753e-03,-9.509073197841644287e-02,1.649432480335235596e-01,1.344568282365798950e-01,-1.364385038614273071e-01,-8.411194384098052979e-02,7.649486511945724487e-02,-7.353274524211883545e-02,1.770115047693252563e-01,-1.997108571231365204e-02,1.025549992918968201e-01,4.867567494511604309e-02,1.093065515160560608e-01,2.439412474632263184e-02,1.607801467180252075e-01,-1.948332339525222778e-01,1.252816915512084961e-01,1.189892739057540894e-01,5.195315182209014893e-02,-2.404486574232578278e-02,1.314597763121128082e-02,-9.483327716588973999e-02,-3.921977803111076355e-02,2.556107044219970703e-01,-2.114928811788558960e-01,-1.693658232688903809e-01,1.267696078866720200e-02,-5.233553051948547363e-02,1.042139530181884766e-01,-6.308961659669876099e-02,1.270228475332260132e-01,-1.107745915651321411e-01
-9.472577832639217377e-03,6.819477677345275879e-02,-8.578588068485260010e-02,1.733735352754592896e-01,9.188167750835418701e-02,7.379214465618133545e-02,1.118806004524230957e-01,-1.946829706430435181e-01,1.262487024068832397e-01,-1.890498399734497070e-02,1.616927683353424072e-01,-1.415766924619674683e-01,2.194324322044849396e-02,-1.240830719470977783e-01,9.716428071260452271e-02,-1.215453296899795532e-01,-5.270900577306747437e-02,-1.743396930396556854e-02,-1.329906880855560303e-01,1.308923512697219849e-01,1.194622516632080078e-01,1.203739419579505920e-01,1.504614949226379395e-01,-1.934545300900936127e-02,1.053539756685495377e-02,1.302179247140884399e-01,-1.244486719369888306e-01,-3.894065693020820618e-02,-1.045241430401802063e-01,1.826658397912979126e-01,-6.529837846755981445e-02,1.380993276834487915e-01,1.188369169831275940e-01,4.421544820070266724e-02,7.462949305772781372e-02,2.943893522024154663e-02,-2.518124878406524658e-02,6.316833198070526123e-02,-6.283084303140640259e-02,1.282359808683395386e-01,-5.560889095067977905e-02,-1.784773170948028564e-01,7.868529111146926880e-02,1.249401643872261047e-01,3.424664214253425598e-02,-1.017957702279090881e-01,-3.094801306724548340e-02,1.176716610789299011e-01,1.287824213504791260e-01,-1.062497571110725403e-01,7.876063883304595947e-02,-9.020637720823287964e-02,-8.033201098442077637e-02,6.506391614675521851e-02,-4.443477466702461243e-02,-7.785636931657791138e-03,-1.879687458276748657e-01,1.919040828943252563e-02,2.170561701059341431e-01,-5.017374828457832336e-02,-1.023535132408142090e-01,-1.120425760746002197e-01,-7.797805964946746826e-02,4.636228084564208984e-03,1.353557109832763672e-01,8.416664600372314453e-02,1.732472479343414307e-01,1.318513508886098862e-02,3.681859746575355530e-02,-2.528559416532516479e-02,-1.172844246029853821e-01,-1.101062595844268799e-01,1.253642141819000244e-01,-1.408090144395828247e-01,3.455350920557975769e-02,1.341855973005294800e-01,-1.617340445518493652e-01,8.550221472978591919e-02,7.939450442790985107e-02,1.375639736652374268e-01,1.827581375837326050e-01,-5.319733545184135437e-02,-1.910149492323398590e-02,2.326153591275215149e-02,-1.960334777832031250e-01,1.303558647632598877e-01,-8.615128695964813232e-02,-1.936029642820358276e-02,-6.383130699396133423e-02,-7.442025095224380493e-02,1.178741082549095154e-01,5.509803444147109985e-02,-1.713910698890686035e-02,-1.337396949529647827e-01,-1.664103567600250244e-02,1.330021768808364868e-01,-6.480874121189117432e-02,-1.590377651154994965e-03,-4.323503002524375916e-02,-4.168006591498851776e-03,-2.751738950610160828e-02,-2.030338048934936523e-01,-4.655747488141059875e-02,-6.622365862131118774e-02,-1.321139633655548096e-01,-6.321161985397338867e-02,-6.690505146980285645e-02,2.432080544531345367e-02,-7.954659312963485718e-02,1.571065187454223633e-01,-4.598913714289665222e-02,4.443963989615440369e-03,1.274559497833251953e-01,3.097953461110591888e-02,1.292356997728347778e-01,-1.466259360313415527e-01,3.187464177608489990e-02,2.407435141503810883e-02,-1.248557418584823608e-01,-1.001108884811401367e-01
5.769268423318862915e-02,1.266820728778839111e-02,-6.283693946897983551e-03,5.782452598214149475e-02,-1.270730048418045044e-01,-2.458596229553222656e-02,-1.661319136619567871e-01,-1.473618000745773315e-01,4.462173208594322205e-02,-1.367133706808090210e-01,2.292137593030929565e-02,6.531473249197006226e-02,7.362373918294906616e-02,7.138990797102451324e-03,-1.604511439800262451e-01,-1.283621639013290405e-01,5.079634115099906921e-02,5.500396341085433960e-02,7.781497389078140259e-02,6.036438792943954468e-02,-1.060114651918411255e-01,2.034613862633705139e-04,-2.613991126418113708e-02,-4.958845302462577820e-02,-2.949687186628580093e-03,-6.730332225561141968e-02,7.725555449724197388e-02,-1.106482297182083130e-01,-1.452009975910186768e-01,-1.682024076581001282e-02,1.313046067953109741e-01,-1.375187784433364868e-01,8.058725297451019287e-02,-1.273775845766067505e-01,2.339186146855354309e-03,-1.812875717878341675e-01,-3.018954768776893616e-02,6.961411982774734497e-02,9.602731466293334961e-02,9.411099553108215332e-02,9.680684655904769897e-02,-1.207582429051399231e-01,-1.020751297473907471e-01,1.150344535708427429e-01,2.363079488277435303e-01,-2.877533435821533203e-03,-7.155210524797439575e-02,-3.723087161779403687e-02,2.309649996459484100e-02,2.885969579219818115e-01,-9.878714382648468018e-02,1.029944941401481628e-01,-1.314256712794303894e-02,-3.138929307460784912e-01,7.248445600271224976e-02,8.292875438928604126e-02,-8.956129103899002075e-02,7.751717418432235718e-02,9.070757031440734863e-02,-1.367536932229995728e-01,-1.186783686280250549e-01,-1.227241307497024536e-01,9.880823642015457153e-02,-1.512335427105426788e-02,1.213632225990295410e-01,-5.622777715325355530e-02,1.752730011940002441e-01,-1.354703754186630249e-01,-1.592173357494175434e-03,-3.336200863122940063e-02,3.721553832292556763e-02,1.178568974137306213e-01,4.442289471626281738e-02,-1.630347408354282379e-02,-3.895308449864387512e-02,-1.924548000097274780e-01,-1.104227304458618164e-01,8.688861876726150513e-02,2.927930280566215515e-02,1.091198474168777466e-01,1.665470600128173828e-01,1.834986656904220581e-01,-1.462390571832656860e-01,-1.512278914451599121e-01,3.532810881733894348e-02,5.514088273048400879e-02,7.902639359235763550e-02,-2.243900485336780548e-02,-1.075913831591606140e-01,-1.097560748457908630e-01,-8.736794441938400269e-02,2.061805874109268188e-02,1.143365651369094849e-01,-7.876455038785934448e-02,5.699547752737998962e-02,-1.426534205675125122e-01,1.463557928800582886e-01,-7.153862714767456055e-02,-1.270423680543899536e-01,-2.113353759050369263e-01,-3.494386002421379089e-02,1.003714092075824738e-02,1.085150688886642456e-01,1.634598821401596069e-01,-1.667129844427108765e-01,5.048441141843795776e-02,7.840879261493682861e-02,2.014772221446037292e-02,1.017257943749427795e-01,1.505547016859054565e-01,1.104640588164329529e-01,-9.867745451629161835e-03,2.210930585861206055e-01,3.631757795810699463e-01,5.942378193140029907e-02,1.336519718170166016e-01,6.091514974832534790e-02,-1.027271449565887451e-01,-1.851648837327957153e-02,-4.667228460311889648e-02
3.442884981632232666e-02,-2.488720230758190155e-02,-1.041147764772176743e-02,-1.670005917549133301e-01,3.514733538031578064e-02,1.412399113178253174e-01,1.261700782924890518e-02,-2.390645444393157959e-02,1.344128102064132690e-01,-5.517234653234481812e-02,5.626556277275085449e-02,6.105555593967437744e-02,2.943908274173736572e-01,-3.362805396318435669e-02,-7.729788869619369507e-02,-1.389988139271736145e-02,3.257339075207710266e-02,-9.124136716127395630e-02,4.856710135936737061e-02,2.895889803767204285e-02,-8.119741082191467285e-02,-2.226228266954421997e-02,-1.325826346874237061e-02,-1.694149672985076904e-01,3.120061196386814117e-02,-1.580303162336349487e-01,7.375656068325042725e-02,1.573524773120880127e-01,-1.168648432940244675e-02,4.047159478068351746e-02,-8.327087759971618652e-02,1.787881404161453247e-01,-2.818908914923667908e-02,2.904987335205078125e-02,8.029700815677642822e-02,8.374951779842376709e-02,-1.748510897159576416e-01,-8.966138213872909546e-02,-1.026338562369346619e-01,3.975809738039970398e-02,-8.128242194652557373e-02,-1.036022007465362549e-01,-7.478651404380798340e-02,1.762075722217559814e-01,2.604133784770965576e-01,1.059849262237548828e-01,1.356640178710222244e-02,2.565786056220531464e-02,-2.051870673894882202e-01,6.098715215921401978e-02,2.905310317873954773e-02,1.089642010629177094e-02,2.493746764957904816e-02,-8.395534008741378784e-02,1.714358627796173096e-01,4.241624474525451660e-02,-6.414601951837539673e-02,-2.206122577190399170e-01,6.515671312808990479e-02,1.828165352344512939e-02,-7.017926126718521118e-02,-1.505409479141235352e-01,-1.147323194891214371e-02,5.097395181655883789e-02,-8.708833158016204834e-02,-2.917240746319293976e-02,-1.259004026651382446e-01,-9.863285720348358154e-02,-7.187093794345855713e-02,2.484405785799026489e-02,6.787468492984771729e-02,3.624866530299186707e-02,4.455612227320671082e-02,-2.432674467563629150e-01,-6.806387007236480713e-02,-8.595392853021621704e-02,-9.565397165715694427e-03,-1.664829142100643367e-05,4.238371551036834717e-02,1.650762110948562622e-01,-6.075174361467361450e-02,4.117444157600402832e-02,-1.358937174081802368e-01,1.380144655704498291e-01,2.606547437608242035e-03,-1.319204643368721008e-02,-1.454471647739410400e-01,8.190628141164779663e-02,1.883009821176528931e-02,3.529151529073715210e-02,-6.453118473291397095e-02,-9.070917963981628418e-02,-1.867903918027877808e-01,-3.446269407868385315e-02,-2.095103561878204346e-01,-1.145119145512580872e-01,3.002948127686977386e-02,-4.108833149075508118e-02,-1.047187894582748413e-01,1.641885638236999512e-01,-7.107294350862503052e-02,1.385911703109741211e-01,-4.163258522748947144e-02,4.988066852092742920e-02,-5.154645070433616638e-03,9.644738584756851196e-02,-1.225210726261138916e-01,1.030630320310592651e-01,-9.956322610378265381e-02,-6.126084364950656891e-03,-2.632549405097961426e-02,1.284934431314468384e-01,4.747450724244117737e-02,-2.272467873990535736e-02,6.369908154010772705e-02,4.207418486475944519e-02,-1.043382063508033752e-01,5.631102621555328369e-02,4.470241256058216095e-03,-3.752221167087554932e-02
-4.188219085335731506e-03,4.036142304539680481e-02,1.843233592808246613e-03,-7.949332706630229950e-03,-1.395080983638763428e-01,-1.995908170938491821e-01,-9.610527753829956055e-02,6.077913567423820496e-02,2.515589818358421326e-02,-1.655838638544082642e-02,-2.914337068796157837e-02,-7.100374996662139893e-02,1.750848889350891113e-01,-8.785621821880340576e-02,9.156441688537597656e-02,-1.416627317667007446e-01,-4.956439137458801270e-02,-1.429447382688522339e-01,1.021333634853363037e-01,-1.486626267433166504e-01,1.312584336847066879e-02,2.627637386322021484e-01,-2.574446611106395721e-02,-9.364065527915954590e-02,3.047361224889755249e-02,-1.411714702844619751e-01,-6.023931130766868591e-02,1.942337900400161743e-01,-6.931718438863754272e-02,1.222381666302680969e-01,4.311756696552038193e-03,1.307778656482696533e-01,4.394625127315521240e-02,-1.864563524723052979e-01,-1.166577413678169250e-01,-2.537328563630580902e-02,1.168954893946647644e-01,8.860417455434799194e-02,-1.055622845888137817e-02,-3.078102599829435349e-03,-1.963267326354980469e-01,7.674309611320495605e-02,1.164327710866928101e-01,-6.976195424795150757e-02,-9.260061196982860565e-03,6.492815166711807251e-02,-4.217285290360450745e-02,9.329064190387725830e-02,-1.657956466078758240e-02,-1.385310757905244827e-02,2.107080370187759399e-01,-1.393206566572189331e-01,1.411506235599517822e-01,6.776490062475204468e-02,-5.422871559858322144e-02,-1.085388138890266418e-01,-2.432458847761154175e-01,-5.253856536000967026e-03,-4.602511599659919739e-02,-3.630109503865242004e-02,9.275969862937927246e-02,-1.032671034336090088e-01,1.806757296435534954e-03,-1.551613491028547287e-02,1.149540096521377563e-01,2.512606382369995117e-01,9.365323185920715332e-02,-1.259882282465696335e-02,-2.320151217281818390e-02,-2.897333800792694092e-01,-6.104636937379837036e-02,-2.060564234852790833e-02,-4.065949097275733948e-02,-2.745516784489154816e-02,-1.499877572059631348e-01,1.764623634517192841e-02,7.104426622390747070e-02,-7.684413343667984009e-02,1.047175973653793335e-01,-2.416773699223995209e-02,-1.249047070741653442e-01,3.239932702854275703e-03,1.269298642873764038e-01,4.642721638083457947e-02,-4.319869354367256165e-02,-4.637582227587699890e-02,-1.527181919664144516e-02,-1.904290355741977692e-02,-5.030909925699234009e-02,-2.548488974571228027e-01,-7.150224409997463226e-03,1.459269821643829346e-01,-1.333696395158767700e-01,9.138925373554229736e-02,1.914871037006378174e-01,1.452476829290390015e-01,-4.592303931713104248e-02,-1.152892485260963440e-01,-6.242267414927482605e-02,1.188190504908561707e-01,-3.389243036508560181e-03,1.936833113431930542e-01,-8.031567558646202087e-03,-4.419739916920661926e-02,-3.344985470175743103e-02,3.896982967853546143e-02,2.139841616153717041e-01,1.025409698486328125e-01,2.464394830167293549e-02,-1.146399676799774170e-01,-1.226264983415603638e-01,1.325273662805557251e-01,-8.554709702730178833e-02,-5.228879302740097046e-02,5.686709657311439514e-03,6.072618812322616577e-02,-6.193644180893898010e-02,1.751353032886981964e-02,1.234533861279487610e-01,7.238427549600601196e-02
-9.331437945365905762e-02,3.256568312644958496e-02,3.079262329265475273e-03,-1.057415902614593506e-01,1.616423875093460083e-01,1.586097925901412964e-01,-1.952443569898605347e-01,-1.628330647945404053e-01,-1.595169007778167725e-01,-2.272736430168151855e-01,-1.012331992387771606e-01,-4.603316634893417358e-02,4.748607054352760315e-02,8.337953686714172363e-02,1.473336070775985718e-01,-7.897721230983734131e-02,8.180516958236694336e-02,1.660895049571990967e-01,-5.038223043084144592e-02,-2.259085699915885925e-02,8.815656602382659912e-02,-2.582403123378753662e-01,-4.944895580410957336e-02,-8.676689118146896362e-02,1.884258985519409180e-01,-5.731896497309207916e-03,-6.565058976411819458e-02,3.037617504596710205e-01,-4.711068049073219299e-02,6.111366674304008484e-02,6.313727796077728271e-02,-2.544609606266021729e-01,-1.881013624370098114e-02,-1.787029802799224854e-01,-3.018613457679748535e-01,2.923127636313438416e-02,-5.113143101334571838e-02,6.183752045035362244e-02,6.803835183382034302e-02,1.376512348651885986e-01,2.128727547824382782e-02,-4.485760629177093506e-02,-1.010856106877326965e-01,9.223705530166625977e-02,-1.922462135553359985e-01,-1.252095252275466919e-01,-2.324510812759399414e-01,-9.842053800821304321e-02,5.094059929251670837e-02,-1.791383773088455200e-01,-4.251962993294000626e-03,4.449342191219329834e-02,1.642250716686248779e-01,1.170676723122596741e-01,1.517094671726226807e-01,-7.239757478237152100e-02,-1.980291604995727539e-01,1.587688773870468140e-01,-2.194865942001342773e-01,-1.960977464914321899e-01,1.403634697198867798e-01,1.774808950722217560e-02,8.103337138891220093e-02,1.166802719235420227e-01,-5.543504282832145691e-02,-1.523200124502182007e-01,3.541187383234500885e-03,-1.917528808116912842e-01,-7.116787880659103394e-02,1.089789718389511108e-01,1.977041661739349365e-01,-1.982244402170181274e-01,1.107142642140388489e-01,1.674559116363525391e-01,1.473449766635894775e-01,1.002654507756233215e-01,-6.826832145452499390e-02,2.130327373743057251e-02,-1.158259436488151550e-01,-7.427526265382766724e-02,1.070782914757728577e-01,-4.712884873151779175e-02,-1.517484486103057861e-01,-1.531062126159667969e-01,-1.559514999389648438e-01,1.356051266193389893e-01,-1.379695683717727661e-01,-4.022160172462463379e-02,1.973364651203155518e-01,1.248014718294143677e-01,8.160234987735748291e-02,-1.331635564565658569e-01,-4.336004331707954407e-02,4.034057259559631348e-02,-8.074076846241950989e-03,-1.231052353978157043e-02,-7.231643795967102051e-02,1.929425895214080811e-01,-1.069185584783554077e-01,1.303160488605499268e-01,-1.069656088948249817e-01,-1.748658865690231323e-01,1.007265001535415649e-01,-1.395393908023834229e-01,-9.026566985994577408e-04,-3.127991035580635071e-02,-4.025267902761697769e-03,-5.520222708582878113e-02,-5.306136235594749451e-02,2.452098131179809570e-01,3.592064231634140015e-02,1.936525255441665649e-01,-8.968016505241394043e-02,1.040393635630607605e-01,-2.790410220623016357e-01,-5.130802467465400696e-02,1.245712488889694214e-01,-1.439359411597251892e-02,-7.169412076473236084e-02,-1.489189267158508301e-01
-1.519530713558197021e-01,6.637839134782552719e-03,-4.713830351829528809e-02,-1.900309175252914429e-01,-5.521835386753082275e-02,-8.774809539318084717e-02,1.838096790015697479e-02,-3.424960654228925705e-03,-9.105088561773300171e-02,-9.940107166767120361e-02,-9.655359387397766113e-02,-1.245435625314712524e-01,-6.009270437061786652e-03,1.356384754180908203e-01,-1.676083207130432129e-01,-1.242186576128005981e-01,-3.033997118473052979e-02,1.204417198896408081e-01,-4.289826750755310059e-02,4.635656625032424927e-02,1.220137178897857666e-01,-2.593201696872711182e-01,-1.187609359622001648e-01,-6.294024735689163208e-02,2.390917018055915833e-02,-1.331507712602615356e-01,-1.803175546228885651e-03,4.906797781586647034e-02,-1.283365637063980103e-01,6.062650680541992188e-02,8.883970975875854492e-02,-1.291971355676651001e-01,6.821957230567932129e-02,-7.282968610525131226e-02,-8.577997237443923950e-02,-3.525206148624420166e-01,1.593513786792755127e-01,-1.629683002829551697e-02,-1.355032026767730713e-01,-9.895660728216171265e-02,-1.886262595653533936e-01,-9.553695470094680786e-02,-2.432574480772018433e-01,-3.935446217656135559e-02,-1.051052287220954895e-01,-1.762467473745346069e-01,-2.656034529209136963e-01,-7.811283320188522339e-02,2.357575856149196625e-02,1.987719908356666565e-02,5.166299641132354736e-02,-4.494971036911010742e-02,-1.120226457715034485e-01,-1.349526345729827881e-01,-6.954431999474763870e-03,-4.850377514958381653e-02,-9.776613861322402954e-02,2.939162589609622955e-02,1.280517727136611938e-01,7.548176497220993042e-02,-4.649154469370841980e-02,-1.891997084021568298e-02,-5.752383545041084290e-02,2.241931110620498657e-02,-9.855789691209793091e-02,1.263989210128784180e-01,8.510164171457290649e-02,-1.709290146827697754e-01,1.019227802753448486e-01,9.789209812879562378e-02,-8.484107255935668945e-02,-7.860810309648513794e-02,-1.281635016202926636e-01,-2.539613470435142517e-02,-2.238558232784271240e-01,5.710692331194877625e-02,9.083369374275207520e-02,-9.747183881700038910e-03,-5.240764468908309937e-02,-2.307131886482238770e-02,8.411807566881179810e-02,-1.629365980625152588e-01,-6.675948947668075562e-02,1.270898282527923584e-01,-1.148358583450317383e-01,3.270516544580459595e-02,2.179041355848312378e-01,-1.525150388479232788e-01,-1.720055341720581055e-01,-1.026931852102279663e-01,-1.095648333430290222e-01,1.228794530034065247e-01,-1.572281867265701294e-01,-6.583207100629806519e-02,-8.821203559637069702e-02,1.125555336475372314e-01,5.612238310277462006e-03,3.551311045885086060e-02,6.398595124483108521e-02,2.477615475654602051e-01,-9.836263209581375122e-02,9.237953275442123413e-02,4.186387360095977783e-02,-3.226896822452545166e-01,-2.018795311450958252e-01,-7.753215730190277100e-02,7.215509563684463501e-02,-9.853805601596832275e-02,-1.755496114492416382e-01,1.083584204316139221e-01,-1.510683298110961914e-01,8.080369234085083008e-02,-1.224426925182342529e-01,3.961325064301490784e-02,6.098160054534673691e-03,-1.965102106332778931e-01,-1.090609431266784668e-01,5.432577058672904968e-02,-1.182181760668754578e-01,7.441172003746032715e-02
1.622034981846809387e-02,4.563952609896659851e-02,5.206747725605964661e-02,5.706910509616136551e-03,1.271833945065736771e-02,-1.773725301027297974e-01,2.018905282020568848e-01,3.321947157382965088e-02,-2.764067426323890686e-02,-3.363329172134399414e-02,-6.684975326061248779e-02,-1.967687755823135376e-01,-2.324813306331634521e-01,-1.220793835818767548e-02,3.424881026148796082e-02,3.012236952781677246e-02,1.589753180742263794e-01,-2.917475104331970215e-01,7.207670807838439941e-02,1.818045973777770996e-01,1.449333280324935913e-01,7.720312476158142090e-02,1.367789111100137234e-03,-1.978861913084983826e-02,-1.629869453608989716e-02,1.452549695968627930e-01,1.717086136341094971e-02,1.121590733528137207e-01,1.640582270920276642e-02,5.639937892556190491e-02,-3.567574918270111084e-02,2.072336822748184204e-01,-7.213531434535980225e-02,-7.272100448608398438e-02,2.702090144157409668e-02,1.325748860836029053e-02,-1.668092422187328339e-02,1.297832280397415161e-01,-1.646271534264087677e-02,6.538138538599014282e-02,-3.658056259155273438e-02,2.804629318416118622e-02,-7.806353271007537842e-02,-4.983124509453773499e-02,8.223900943994522095e-02,4.077969491481781006e-02,-1.471690684556961060e-01,-1.005212962627410889e-01,1.295952498912811279e-01,1.939737424254417419e-02,-1.165298279374837875e-02,8.078064769506454468e-02,-4.890920221805572510e-02,1.451206654310226440e-01,-1.647780090570449829e-01,3.092385362833738327e-03,-1.820381544530391693e-02,8.383530192077159882e-03,1.003606170415878296e-01,-1.087116077542304993e-01,-1.085338592529296875e-01,-2.252133488655090332e-01,6.027273088693618774e-02,-5.443999078124761581e-03,-1.101028025150299072e-01,-1.955839246511459351e-01,-1.175277307629585266e-01,2.183374762535095215e-01,-2.027888596057891846e-01,9.832171723246574402e-03,-1.074377149343490601e-01,-6.811447441577911377e-02,-2.963536186143755913e-03,-1.424297541379928589e-01,6.025839969515800476e-02,-4.404346272349357605e-02,-1.793061941862106323e-01,-2.325393632054328918e-02,-4.010910913348197937e-02,-1.248746365308761597e-01,1.579869389533996582e-01,7.806453388184309006e-03,-4.309062659740447998e-02,-1.072705239057540894e-01,1.382686197757720947e-01,3.012298606336116791e-02,-1.045380905270576477e-02,1.366939842700958252e-01,-4.123690351843833923e-02,-1.773316115140914917e-01,4.141913726925849915e-02,-3.573443368077278137e-02,-8.731792122125625610e-02,-6.069511175155639648e-02,1.071353256702423096e-01,8.644657582044601440e-02,4.780991002917289734e-02,-1.303339749574661255e-01,2.919642813503742218e-02,4.814307019114494324e-02,6.041485071182250977e-02,7.210340350866317749e-02,7.896928489208221436e-02,6.778661627322435379e-03,-7.306877523660659790e-02,8.225725591182708740e-02,4.292884469032287598e-02,-2.532005310058593750e-02,4.269853699952363968e-03,1.832100301980972290e-01,-1.070931628346443176e-01,-6.482557207345962524e-02,1.341288983821868896e-01,-1.797531396150588989e-01,4.882029071450233459e-02,-5.820349603891372681e-02,-4.315282776951789856e-02,-1.203577443957328796e-01,1.795803755521774292e-01,2.992594242095947266e-01
-1.312865912914276123e-01,4.916506819427013397e-03,3.824103623628616333e-02,-2.739610848948359489e-03,-9.670182317495346069e-02,1.143988519906997681e-01,1.254105102270841599e-02,8.682599663734436035e-02,9.922418743371963501e-02,-1.241619661450386047e-01,-1.551562994718551636e-01,1.399524658918380737e-01,1.188701167702674866e-01,8.786948025226593018e-02,-2.075642496347427368e-01,-4.202818125486373901e-02,8.943961933255195618e-03,-1.040888279676437378e-01,-6.602586805820465088e-02,-4.101892188191413879e-02,-7.052534818649291992e-02,-1.668775454163551331e-03,-4.555794224143028259e-02,-5.480880662798881531e-02,7.476453483104705811e-02,-3.168700635433197021e-02,-9.513518959283828735e-02,1.677484810352325439e-02,3.452496603131294250e-02,-1.040474232286214828e-02,1.549787167459726334e-02,1.031721979379653931e-01,-5.977932363748550415e-02,1.565461307764053345e-01,-4.367039725184440613e-02,-1.192585378885269165e-01,-1.321430318057537079e-02,1.069241985678672791e-01,5.685193464159965515e-02,2.017841860651969910e-02,4.580549430102109909e-03,-5.591571703553199768e-02,9.209598600864410400e-02,-1.775693846866488457e-03,-3.480526432394981384e-02,7.931205630302429199e-02,1.486757546663284302e-01,-7.038157433271408081e-02,-1.292694807052612305e-01,2.507230937480926514e-01,8.295987546443939209e-02,-9.679805487394332886e-02,-2.707127947360277176e-03,-5.914423614740371704e-02,-1.014679521322250366e-01,9.119269251823425293e-02,1.220860034227371216e-01,5.188957601785659790e-02,-1.476117596030235291e-02,-7.742086797952651978e-02,5.761182308197021484e-02,-4.908411204814910889e-02,-6.593732535839080811e-02,7.978986203670501709e-02,1.137356460094451904e-01,7.519759237766265869e-02,4.525079205632209778e-02,2.918353304266929626e-02,-1.573285609483718872e-01,-6.727837026119232178e-02,5.769865587353706360e-03,2.542719244956970215e-01,2.458325959742069244e-02,1.087469607591629028e-01,-1.701600402593612671e-01,-7.068644464015960693e-02,2.071036258712410927e-03,7.835155725479125977e-02,2.169083803892135620e-01,7.257985323667526245e-02,-4.203234985470771790e-02,8.042122423648834229e-02,-4.009972326457500458e-03,1.304362267255783081e-01,-1.683500707149505615e-01,5.889037251472473145e-02,-2.379013150930404663e-01,-1.386294215917587280e-01,-2.315993234515190125e-02,1.217807978391647339e-01,-3.642951324582099915e-02,9.633433073759078979e-02,1.987776905298233032e-01,7.453370839357376099e-02,-3.908433020114898682e-02,1.714637316763401031e-02,-2.415338344871997833e-02,-1.099998056888580322e-01,1.825555972754955292e-02,-3.330240771174430847e-02,1.576957702636718750e-01,5.878194794058799744e-02,-6.123088300228118896e-02,4.186226055026054382e-02,-3.625768795609474182e-02,1.756331138312816620e-02,-6.423355545848608017e-03,-3.636247292160987854e-02,-1.297959983348846436e-01,-1.166504994034767151e-01,-6.190604716539382935e-02,-3.351015225052833557e-02,1.237763762474060059e-01,-4.590655118227005005e-02,9.953839331865310669e-02,-1.372780092060565948e-02,-7.132575381547212601e-03,7.121942937374114990e-02,-1.049637570977210999e-01,-2.402351383352652192e-04
2.041395306587219238e-01,1.623042076826095581e-01,1.132190972566604614e-01,-8.877743035554885864e-02,-5.720021575689315796e-02,5.408831685781478882e-02,-1.152899935841560364e-01,6.548822671175003052e-02,8.266764879226684570e-02,-9.436717629432678223e-02,3.265935480594635010e-01,2.532839961349964142e-02,1.413968503475189209e-01,-2.905949652194976807e-01,8.611490577459335327e-02,-6.867675483226776123e-02,-2.063364237546920776e-01,8.850584179162979126e-02,5.898957606405019760e-03,-1.642335355281829834e-01,8.503618091344833374e-02,1.864121854305267334e-01,-1.433448493480682373e-01,-9.326482191681861877e-03,9.134258329868316650e-02,-5.635302513837814331e-02,-2.302791923284530640e-01,2.098402678966522217e-01,1.778449863195419312e-01,1.141462177038192749e-01,8.483487367630004883e-02,-2.783420979976654053e-01,8.991983532905578613e-02,-1.062572002410888672e-01,6.302707642316818237e-02,-4.126881957054138184e-01,1.238224878907203674e-01,-8.152218163013458252e-02,8.381244726479053497e-03,-1.658307611942291260e-01,1.154153198003768921e-01,1.892097294330596924e-01,-1.198137402534484863e-01,-1.446699500083923340e-01,-1.223256289958953857e-01,-2.924659550189971924e-01,-1.715562194585800171e-01,2.292597480118274689e-02,-5.204758793115615845e-02,-3.234446346759796143e-01,-4.960869625210762024e-02,-1.446841657161712646e-01,9.551254659891128540e-02,8.219239860773086548e-02,-3.428273797035217285e-01,2.409559190273284912e-01,3.701877593994140625e-02,-1.241916567087173462e-01,2.835084497928619385e-01,-1.441787630319595337e-01,5.158995836973190308e-02,1.328941881656646729e-01,8.260107040405273438e-02,2.196049690246582031e-01,8.482935279607772827e-02,9.953965991735458374e-02,-8.611909300088882446e-02,-6.285042315721511841e-02,-4.486734420061111450e-02,-5.228069610893726349e-03,1.089080348610877991e-01,3.302504122257232666e-02,1.639209538698196411e-01,-3.030868619680404663e-02,1.216408535838127136e-01,-1.496522724628448486e-01,2.025288715958595276e-02,-8.296357095241546631e-02,1.461206823587417603e-01,2.466490864753723145e-01,-1.899850219488143921e-01,-1.408701390027999878e-01,-1.589459180831909180e-01,-9.446543641388416290e-03,-2.245015203952789307e-01,-1.123871281743049622e-01,-6.797011196613311768e-02,-2.729063928127288818e-01,-1.766002364456653595e-02,-6.616533547639846802e-02,1.743561774492263794e-01,-1.380852460861206055e-01,1.395161896944046021e-01,-7.204166799783706665e-02,2.355988882482051849e-02,-1.238261461257934570e-01,8.442198485136032104e-02,2.482518320903182030e-03,-7.316086441278457642e-02,2.560674250125885010e-01,-6.647899001836776733e-02,6.465914845466613770e-02,-6.199105083942413330e-02,-3.379238247871398926e-01,-9.612628817558288574e-02,1.519303619861602783e-01,3.700217977166175842e-02,7.408735156059265137e-02,1.595658017322421074e-03,6.955949962139129639e-02,7.606584578752517700e-02,1.821474879980087280e-01,-1.613735854625701904e-01,-3.850480914115905762e-01,8.357912302017211914e-02,-9.511031210422515869e-02,2.796524167060852051e-01,1.442435234785079956e-01,3.355368226766586304e-02,1.666092686355113983e-02
1.613849587738513947e-02,-1.961733549833297729e-01,1.965797320008277893e-02,-1.419173181056976318e-01,3.888557106256484985e-02,-1.044019907712936401e-01,1.180912032723426819e-01,-2.120231986045837402e-01,-5.980065092444419861e-02,-2.943670563399791718e-02,-1.901465840637683868e-02,5.840887781232595444e-03,-1.064791753888130188e-01,-2.427970618009567261e-02,-5.530357733368873596e-02,-1.146024689078330994e-01,2.585841342806816101e-03,-7.694388926029205322e-02,3.062920086085796356e-02,3.200661018490791321e-02,-5.523185245692729950e-03,-9.356866031885147095e-02,3.296773135662078857e-02,1.012515202164649963e-01,-3.075860999524593353e-02,3.659348934888839722e-02,-8.449491858482360840e-02,7.100494112819433212e-04,4.721232503652572632e-02,1.736116558313369751e-01,-1.119715273380279541e-01,2.517136372625827789e-02,-1.150478236377239227e-02,-3.204952552914619446e-02,7.154746353626251221e-02,-7.327784597873687744e-02,-1.074193418025970459e-01,-3.367795422673225403e-02,7.754679024219512939e-02,1.450879126787185669e-01,1.221961304545402527e-01,1.279045194387435913e-01,8.792891353368759155e-02,1.562206726521253586e-02,-9.296553581953048706e-02,-1.012359708547592163e-01,6.237214431166648865e-02,2.594906091690063477e-02,-3.694847598671913147e-02,1.247570440173149109e-01,5.542969703674316406e-02,-2.280686050653457642e-01,4.274319857358932495e-02,1.253213584423065186e-01,-2.236695215106010437e-02,4.902312159538269043e-02,1.266977488994598389e-01,1.475395858287811279e-01,3.373916819691658020e-02,9.213867038488388062e-02,5.545893311500549316e-02,-1.439465582370758057e-01,-3.622121736407279968e-02,-1.257278919219970703e-01,8.456893265247344971e-03,1.302644843235611916e-03,1.741258352994918823e-01,-1.070612575858831406e-02,9.482304006814956665e-02,4.382243752479553223e-02,6.649425625801086426e-02,-1.845569610595703125e-01,3.846520185470581055e-02,1.931630671024322510e-01,-4.170989617705345154e-02,7.337288558483123779e-02,1.166183277964591980e-01,2.247044891119003296e-01,-5.752779915928840637e-02,1.634823977947235107e-01,1.015494093298912048e-01,8.868059515953063965e-02,6.047689914703369141e-02,4.364608228206634521e-02,-8.143756538629531860e-03,-2.213987521827220917e-02,-6.232915446162223816e-02,-3.582484647631645203e-02,-6.021688878536224365e-02,1.324338372796773911e-02,9.741974622011184692e-02,-2.059096395969390869e-01,-2.715836279094219208e-03,-2.139401286840438843e-01,-1.582438796758651733e-01,4.213865473866462708e-02,-1.006189882755279541e-01,-1.273529231548309326e-01,4.217318817973136902e-02,-7.538798451423645020e-02,1.660227328538894653e-01,-1.275958120822906494e-01,2.655738219618797302e-02,9.378107637166976929e-02,1.168359741568565369e-01,6.402299553155899048e-02,-2.687666006386280060e-02,-2.708068490028381348e-01,-2.249035751447081566e-03,1.114598661661148071e-01,-1.423089802265167236e-01,-6.800288334488868713e-03,1.363468542695045471e-02,1.692245006561279297e-01,-1.933458074927330017e-02,-5.782904475927352905e-02,4.969583824276924133e-02,-2.316307835280895233e-02,5.642251297831535339e-02,9.936080127954483032e-02
-2.579108253121376038e-02,-5.114416591823101044e-03,-5.709513276815414429e-02,-3.482729196548461914e-02,3.756674379110336304e-02,1.439905315637588501e-01,4.485505074262619019e-02,1.597725898027420044e-01,2.621674910187721252e-02,-8.000934123992919922e-02,9.178856387734413147e-03,-1.170783862471580505e-01,-2.968913614749908447e-01,-1.245442703366279602e-01,-1.787277013063430786e-01,4.060583189129829407e-02,1.003528162837028503e-01,-7.925462722778320312e-02,-1.593300849199295044e-01,-2.142491564154624939e-02,-9.166007488965988159e-02,6.653778254985809326e-02,-6.890331953763961792e-02,-6.367028504610061646e-02,3.135410696268081665e-02,2.174268811941146851e-01,6.539738178253173828e-02,-4.401317983865737915e-02,1.487060338258743286e-01,7.960823178291320801e-02,8.842360228300094604e-02,-1.695923805236816406e-01,-2.124908268451690674e-01,-3.118089027702808380e-02,1.029261797666549683e-01,-1.130371391773223877e-01,1.742717176675796509e-01,-1.532588452100753784e-01,-9.049501270055770874e-03,-5.447329953312873840e-02,7.142625004053115845e-02,-1.718842983245849609e-01,9.500155597925186157e-02,2.679542899131774902e-01,-1.818754076957702637e-01,-1.382922101765871048e-02,-1.214773207902908325e-01,-1.285126805305480957e-01,-6.818297505378723145e-02,-2.538507059216499329e-02,2.374807372689247131e-02,6.271804869174957275e-02,4.778622463345527649e-02,-3.824728727340698242e-02,-4.065780434757471085e-03,-2.302514947950839996e-02,-1.039643511176109314e-01,7.364065200090408325e-02,-9.237124770879745483e-02,9.712480939924716949e-03,6.582404673099517822e-02,-8.357159048318862915e-02,1.706006936728954315e-02,-2.697817049920558929e-02,-1.096235774457454681e-02,-1.726913005113601685e-01,7.869005948305130005e-02,1.831997372210025787e-02,9.471441060304641724e-02,4.384482279419898987e-02,-5.103049427270889282e-02,-2.142645269632339478e-01,-1.193231493234634399e-01,1.483273059129714966e-01,2.037514448165893555e-01,5.987694114446640015e-02,6.869029253721237183e-02,1.429430842399597168e-01,3.203770611435174942e-03,3.001409396529197693e-02,2.137454897165298462e-01,4.611120745539665222e-02,-4.766650497913360596e-02,2.906202897429466248e-02,3.786927834153175354e-02,1.340084671974182129e-01,-1.229680050164461136e-02,1.092317625880241394e-01,8.434130810201168060e-03,-1.283531635999679565e-01,-4.348199069499969482e-02,-1.449633985757827759e-01,-4.667440429329872131e-02,-8.576632291078567505e-02,-1.056251972913742065e-01,1.038447469472885132e-01,-9.065477550029754639e-02,-8.339035511016845703e-02,-4.903640598058700562e-03,4.247875511646270752e-02,1.273529529571533203e-01,-1.061182003468275070e-02,-6.866183876991271973e-02,3.986131399869918823e-03,-1.883706264197826385e-02,-5.334030091762542725e-02,-1.720941066741943359e-01,-1.110550239682197571e-01,1.923811286687850952e-01,4.891097545623779297e-02,4.567500948905944824e-02,-1.919619590044021606e-01,-1.637363135814666748e-01,-6.379804760217666626e-02,-9.602095931768417358e-03,5.656583979725837708e-02,-6.348533928394317627e-02,-1.313812937587499619e-02,2.589848823845386505e-02,7.490470260381698608e-02
