-2.960846200585365295e-02
5.958371609449386597e-02
-6.562365591526031494e-02
6.072099786251783371e-03
1.403473224490880966e-02
-4.255703091621398926e-02
5.927392467856407166e-02
-1.361364312469959259e-02
5.759119987487792969e-02
2.155931293964385986e-02
3.907008096575737000e-03
-1.900669373571872711e-02
7.456932216882705688e-02
-1.039256006479263306e-01
-4.725845158100128174e-02
-7.756989914923906326e-03
3.364602476358413696e-02
4.707575216889381409e-02
-1.190498247742652893e-01
-4.668016731739044189e-02
6.613184511661529541e-02
8.280062675476074219e-02
2.322947978973388672e-02
6.935440003871917725e-02
-6.600648164749145508e-02
-4.212326183915138245e-02
-7.338584959506988525e-02
-8.617440611124038696e-02
-4.197579622268676758e-02
-7.592725753784179688e-02
1.809700019657611847e-02
-6.905572116374969482e-02
-1.295049209147691727e-02
6.065733730792999268e-02
-8.517319709062576294e-02
-1.011252123862504959e-02
3.484749794006347656e-02
-4.207498207688331604e-02
2.642542123794555664e-02
-7.492390275001525879e-02
4.292145371437072754e-02
3.640299290418624878e-02
3.733398765325546265e-02
4.144176840782165527e-03
5.101333186030387878e-02
-1.115524992346763611e-01
-8.645997941493988037e-02
7.096758484840393066e-02
-1.561704277992248535e-02
1.003296449780464172e-01
-6.743692606687545776e-02
-6.732341647148132324e-02
2.834083326160907745e-02
7.287267595529556274e-02
-1.303560584783554077e-01
-5.992616713047027588e-02
6.144050881266593933e-02
-2.430917695164680481e-03
-6.045532971620559692e-02
4.559268057346343994e-02
1.317596808075904846e-02
-3.899044916033744812e-02
-4.521166160702705383e-02
6.452451646327972412e-02
-3.108349815011024475e-02
-1.206975430250167847e-02
2.987156622111797333e-02
-5.394285172224044800e-02
-5.503186490386724472e-03
2.419923804700374603e-02
4.011840745806694031e-02
7.946639508008956909e-02
-4.488627985119819641e-02
-9.506050497293472290e-02
7.156566530466079712e-02
-2.091763541102409363e-02
2.244864404201507568e-02
5.453066900372505188e-02
6.497383117675781250e-02
5.824799463152885437e-02
-9.837240213528275490e-04
-2.303477749228477478e-02
-8.035182207822799683e-02
3.605866432189941406e-02
-4.187606647610664368e-02
6.830407679080963135e-02
5.320060998201370239e-02
-5.408420413732528687e-02
1.650895923376083374e-02
-8.914931118488311768e-02
7.138185203075408936e-02
1.785174384713172913e-02
9.234223514795303345e-02
6.039155274629592896e-02
7.978396862745285034e-02
3.534245491027832031e-02
3.058867156505584717e-02
3.585621714591979980e-02
8.082457631826400757e-02
1.290177647024393082e-02
-4.740791022777557373e-02
-2.256339415907859802e-02
-5.033331457525491714e-03
-7.300489395856857300e-02
5.935194715857505798e-02
6.245327368378639221e-02
4.547483846545219421e-02
5.472292006015777588e-02
-1.067417114973068237e-01
6.892813742160797119e-02
6.611443310976028442e-02
-9.167250245809555054e-02
4.106509312987327576e-02
-8.010423928499221802e-02
-4.131149500608444214e-02
3.012154065072536469e-02
-1.679962588241323829e-04
5.143325403332710266e-02
6.069505214691162109e-02
-7.212167978286743164e-02
