-1.299641579389572144e-01,9.186436235904693604e-02,-1.109272837638854980e-01,1.180379241704940796e-01,-4.978129640221595764e-02,7.214376330375671387e-02,5.798320844769477844e-02,-6.847279518842697144e-02,-1.322843134403228760e-01,-8.178907632827758789e-02,-1.072285324335098267e-02,1.159008741378784180e-01,9.655463695526123047e-02,-7.115849107503890991e-02,-4.135421663522720337e-02,1.835896670818328857e-01,9.046410210430622101e-03,1.733243018388748169e-01,2.790336869657039642e-02,-1.239485144615173340e-01,4.573045670986175537e-02,1.233221292495727539e-01,2.293344587087631226e-01,-1.885952651500701904e-01,-1.574818789958953857e-02,-4.130510240793228149e-02,-1.615066379308700562e-01,-1.423106491565704346e-01,3.959811851382255554e-02,4.853655397891998291e-02,-1.359491050243377686e-01,-2.843755781650543213e-01,-1.765411347150802612e-01,-8.528196066617965698e-02,-1.957976222038269043e-01,-1.987649947404861450e-01,-1.847972571849822998e-01,-1.352048665285110474e-01,-8.383627235889434814e-02,2.237981557846069336e-01,4.878193140029907227e-02,-6.344643235206604004e-02,1.175674796104431152e-01,-1.393797993659973145e-01,6.604478508234024048e-02,6.274098902940750122e-02,4.475667327642440796e-02,-9.466502815485000610e-02,-5.110070109367370605e-02,-1.070415973663330078e-01,9.400447458028793335e-02,2.350798249244689941e-01,-3.838798403739929199e-02,-1.827587038278579712e-01,-3.898496180772781372e-02,-2.203472144901752472e-02,6.217503920197486877e-02,8.317285031080245972e-02,3.481676056981086731e-02,3.106055594980716705e-02,-6.297527253627777100e-02,1.706033498048782349e-01,1.100665107369422913e-01,3.607926890254020691e-02,9.970062226057052612e-02,4.811171069741249084e-02,-1.701275818049907684e-02,1.458354890346527100e-01,-1.482337713241577148e-01,-5.812187213450670242e-03,-3.815633431077003479e-02,-1.074165850877761841e-01,1.170647293329238892e-01,-1.989676803350448608e-01,-1.886992715299129486e-02,3.927129507064819336e-02,2.187213897705078125e-01,1.813196688890457153e-01,-1.614372879266738892e-01,1.981567591428756714e-01,-2.544973045587539673e-02,5.873224139213562012e-02,4.834782332181930542e-03,1.110448613762855530e-01,1.423433274030685425e-01,-1.329710124991834164e-03,-2.988286316394805908e-01,9.577184170484542847e-02,2.255530655384063721e-02,-3.572225943207740784e-02,-4.150196909904479980e-03,-2.085390128195285797e-02,1.566633284091949463e-01,1.227913200855255127e-01,9.743644297122955322e-02,-1.763404160737991333e-02,2.886804938316345215e-01,-2.619308046996593475e-02,7.931623607873916626e-02,5.395352095365524292e-02,-7.258159667253494263e-02,2.388145923614501953e-01,-2.317519485950469971e-01,5.073935538530349731e-02,1.181590706110000610e-01,-1.708100140094757080e-01,5.185723677277565002e-02,4.601520672440528870e-02,1.500347908586263657e-02,-1.149616613984107971e-01,1.861843317747116089e-01,1.727763265371322632e-01,-1.670639812946319580e-01,5.749043077230453491e-02,-2.509303092956542969e-01,9.108731150627136230e-02,3.745262324810028076e-02,-4.999430850148200989e-02,4.313622787594795227e-02,6.344407051801681519e-02
2.718951553106307983e-02,9.345875680446624756e-02,3.075635433197021484e-02,7.235076278448104858e-02,1.306020170450210571e-01,1.916287839412689209e-02,-4.492445662617683411e-02,-4.463710635900497437e-02,1.805294156074523926e-01,3.206941112875938416e-02,-1.880215406417846680e-01,-4.405608773231506348e-02,-7.096312940120697021e-02,-2.636080235242843628e-02,3.861690312623977661e-02,-4.506877437233924866e-02,-1.208400428295135498e-01,4.331280291080474854e-02,-1.085383743047714233e-01,4.551600664854049683e-02,1.573870629072189331e-01,-4.320169333368539810e-03,8.376426994800567627e-02,-3.050855100154876709e-01,9.147594869136810303e-02,-5.435176938772201538e-02,-2.720776386559009552e-02,7.881404459476470947e-02,1.383121591061353683e-02,2.219778895378112793e-01,2.698314189910888672e-02,2.284583076834678650e-02,-2.388919144868850708e-02,2.999452501535415649e-02,-2.884259074926376343e-02,-3.173687262460589409e-03,-1.999807655811309814e-01,1.312815546989440918e-01,2.196372300386428833e-01,-3.618077188730239868e-02,-2.619304358959197998e-01,2.361720204353332520e-01,-6.760319229215383530e-03,-1.420864313840866089e-01,1.357408761978149414e-01,1.054358482360839844e-02,8.082122355699539185e-02,-9.801444411277770996e-02,1.351926028728485107e-01,6.409510970115661621e-02,3.837399557232856750e-02,7.731375843286514282e-02,7.941180467605590820e-02,-2.603155672550201416e-01,7.415619492530822754e-02,-9.715471416711807251e-02,7.066026329994201660e-02,-8.065077662467956543e-02,1.604778617620468140e-01,-7.647772133350372314e-02,-3.704309230670332909e-03,-4.195474460721015930e-02,-4.008084163069725037e-02,3.319994080811738968e-03,-4.303025454282760620e-02,-1.005390137434005737e-01,-4.700615257024765015e-02,-7.580725103616714478e-02,-1.035149991512298584e-01,-1.303212493658065796e-01,-1.470476835966110229e-01,1.068906784057617188e-01,-1.000070422887802124e-01,-1.399807631969451904e-01,-1.546999556012451649e-03,3.654257161542773247e-03,6.958557665348052979e-02,-1.816488057374954224e-01,7.617134135216474533e-03,-1.764389425516128540e-01,-2.794536054134368896e-01,-1.660957783460617065e-01,-4.748970270156860352e-02,2.451050095260143280e-03,2.391504682600498199e-02,-1.022353116422891617e-02,-9.685011208057403564e-02,-8.882921934127807617e-02,-1.897359043359756470e-01,2.081038951873779297e-01,9.392124600708484650e-03,1.328329145908355713e-01,8.471529930830001831e-02,7.497277855873107910e-02,1.042091287672519684e-02,7.526682317256927490e-02,1.827883571386337280e-01,1.715723127126693726e-01,-9.991603344678878784e-02,2.244972623884677887e-02,-1.077249646186828613e-02,1.078240126371383667e-01,2.167847901582717896e-01,1.304225772619247437e-01,-1.029543951153755188e-01,1.193229705095291138e-01,1.185374408960342407e-01,-1.080871075391769409e-01,-9.066781401634216309e-02,-1.328548765741288662e-03,-9.167209267616271973e-03,-8.711650222539901733e-02,-1.077468320727348328e-01,-1.545381397008895874e-01,8.439789712429046631e-02,-1.350105106830596924e-01,-5.882665887475013733e-02,1.412937045097351074e-01,6.549518555402755737e-02,-6.026205793023109436e-02
1.784402132034301758e-02,-6.346598267555236816e-02,1.098975166678428650e-01,7.312108296900987625e-03,-8.172776550054550171e-02,-2.585931718349456787e-01,2.574452161788940430e-01,2.346001118421554565e-01,8.672427386045455933e-03,1.521553099155426025e-01,-3.084364235401153564e-01,-1.288828700780868530e-01,2.595636844635009766e-01,1.451480835676193237e-01,8.116994798183441162e-02,-3.287762403488159180e-02,-1.241211071610450745e-01,2.155687659978866577e-02,-6.786552071571350098e-02,1.440446227788925171e-01,-5.584990978240966797e-02,6.622414290904998779e-02,2.512660622596740723e-01,1.460702568292617798e-01,9.088255465030670166e-02,1.118548214435577393e-01,-2.784443199634552002e-01,-3.747851401567459106e-02,-1.551108527928590775e-02,-1.693273782730102539e-01,-1.419582217931747437e-01,1.050710380077362061e-01,-5.061765015125274658e-02,-6.220602989196777344e-02,-4.304964467883110046e-02,4.424806535243988037e-01,1.077533215284347534e-01,1.142146438360214233e-01,1.402050536125898361e-02,1.290214061737060547e-01,-3.386165946722030640e-02,-5.394961684942245483e-02,-1.927923411130905151e-01,1.151023581624031067e-01,-4.290668293833732605e-02,-7.127032428979873657e-02,3.379936218261718750e-01,2.200210988521575928e-01,5.985265225172042847e-02,-2.320136278867721558e-01,-1.193970441818237305e-01,-2.353199571371078491e-01,-2.355522513389587402e-01,-1.575933098793029785e-01,-5.443152412772178650e-02,1.717194318771362305e-01,5.942849069833755493e-02,2.335459589958190918e-01,5.111545324325561523e-02,-1.504301875829696655e-01,1.167911291122436523e-02,2.492741793394088745e-01,1.706239953637123108e-02,1.083815172314643860e-01,8.974596112966537476e-02,1.588598638772964478e-01,1.457252353429794312e-01,1.685679145157337189e-02,1.700838804244995117e-01,-9.268847852945327759e-02,-1.292546540498733521e-01,4.507685825228691101e-02,-9.573136456310749054e-03,3.640025854110717773e-02,-1.457526683807373047e-01,-1.585488207638263702e-02,8.010702580213546753e-02,1.833647936582565308e-01,-4.138880595564842224e-02,-4.931527003645896912e-02,3.759010732173919678e-01,-1.308754086494445801e-01,-1.609203033149242401e-02,1.111796945333480835e-01,3.417227044701576233e-02,2.575565886218100786e-04,4.174973070621490479e-02,4.591790959239006042e-03,-1.642729490995407104e-01,-1.026544347405433655e-01,-5.980216711759567261e-02,-1.398235708475112915e-01,-9.997750818729400635e-02,-1.221263315528631210e-02,-3.628736734390258789e-02,6.495104730129241943e-02,4.793672636151313782e-02,-4.177200049161911011e-02,-1.346422433853149414e-01,1.869737654924392700e-01,1.130983233451843262e-01,2.086148262023925781e-01,-1.854282170534133911e-01,1.571303308010101318e-01,-1.624384522438049316e-01,1.433178037405014038e-01,9.399621188640594482e-02,1.391244828701019287e-01,-1.224350929260253906e-01,-8.302948623895645142e-02,-5.954098701477050781e-02,-3.332638442516326904e-01,3.361927270889282227e-01,-1.345421373844146729e-01,-1.950780898332595825e-01,-2.030858956277370453e-02,-1.279598325490951538e-01,1.026734337210655212e-01,-1.091621592640876770e-01,-9.518511593341827393e-02
-1.505041420459747314e-01,4.106318950653076172e-02,8.171670138835906982e-02,-6.218601390719413757e-02,-1.330913417041301727e-02,7.498035673052072525e-03,-2.041700668632984161e-02,2.912004105746746063e-02,3.717003762722015381e-02,-1.343168169260025024e-01,-5.901729315519332886e-02,1.973520405590534210e-02,-6.456805765628814697e-02,-1.327779050916433334e-02,1.027955561876296997e-01,1.153590530157089233e-02,6.182593479752540588e-02,-4.042426869273185730e-02,-1.944092288613319397e-02,-1.026445105671882629e-01,-1.588360033929347992e-02,-2.109769582748413086e-01,-8.862616866827011108e-02,-9.859502315521240234e-02,-5.568654835224151611e-02,2.688591368496417999e-02,-6.548170745372772217e-02,1.087308377027511597e-01,-9.182598441839218140e-02,7.145680487155914307e-03,-1.071049124002456665e-01,-1.593713313341140747e-01,-3.770858794450759888e-02,-1.230910420417785645e-01,-3.429441154003143311e-02,3.039666451513767242e-02,1.863258332014083862e-02,6.205891072750091553e-02,-3.188990801572799683e-02,-4.213096573948860168e-02,-5.355996266007423401e-02,-7.664272096008062363e-03,1.162538491189479828e-02,-1.953323744237422943e-02,2.335724420845508575e-02,-5.906501039862632751e-02,-1.280796825885772705e-01,-5.249717831611633301e-02,2.912328019738197327e-02,3.619143739342689514e-02,4.451454803347587585e-02,5.248995497822761536e-02,-1.435324433259665966e-03,7.856319844722747803e-02,-7.594767212867736816e-02,2.792147174477577209e-02,4.596739262342453003e-02,8.859287947416305542e-02,-9.258336573839187622e-02,-5.461076740175485611e-03,-1.094454526901245117e-01,8.516099303960800171e-02,1.161335501819849014e-02,-4.869469907134771347e-03,5.378736555576324463e-02,-2.845819480717182159e-02,-4.185197502374649048e-02,2.075503580272197723e-02,-4.779703915119171143e-02,2.459408342838287354e-02,-5.291469767689704895e-02,-6.552779674530029297e-02,-8.779224008321762085e-02,-2.425530739128589630e-02,-7.537841796875000000e-02,-1.271820534020662308e-02,5.906455963850021362e-02,2.712452970445156097e-02,-1.652079448103904724e-02,-5.245873704552650452e-02,1.538982987403869629e-01,2.683668769896030426e-02,9.720069356262683868e-04,-2.805349230766296387e-02,8.596977591514587402e-02,1.091646328568458557e-01,-5.889572948217391968e-02,1.101465895771980286e-01,-3.890380635857582092e-02,5.373457446694374084e-03,-3.229533880949020386e-02,1.549369934946298599e-02,7.330614328384399414e-02,-6.115584168583154678e-03,3.053837828338146210e-02,3.856903314590454102e-02,-2.614241838455200195e-02,-2.929687872529029846e-02,-3.310680761933326721e-02,-7.902996987104415894e-02,5.599920451641082764e-02,-5.741960555315017700e-02,5.773815512657165527e-02,-4.156706854701042175e-02,-1.055625453591346741e-01,-6.244625896215438843e-02,3.182095289230346680e-02,4.638546332716941833e-02,2.095109224319458008e-02,-8.871674537658691406e-03,-1.019604057073593140e-01,1.426803180947899818e-03,2.451989799737930298e-02,1.988359726965427399e-02,-6.907499937369721010e-06,3.622961929067969322e-03,8.180689066648483276e-02,-3.327195718884468079e-02,-6.832128018140792847e-02,5.011839326471090317e-03
6.747706234455108643e-02,6.610997021198272705e-02,1.158787086606025696e-01,5.598071217536926270e-02,-7.592495996505022049e-03,-2.244477532804012299e-02,-1.623427495360374451e-02,2.571433596312999725e-02,-2.013554051518440247e-02,1.009287759661674500e-01,5.725794658064842224e-02,-3.225281368941068649e-03,8.039361983537673950e-02,5.283119902014732361e-02,-1.151068415492773056e-02,8.515114895999431610e-03,7.990653067827224731e-02,3.367480821907520294e-03,-1.007254235446453094e-02,-1.395278424024581909e-01,1.372856460511684418e-02,4.049853980541229248e-02,1.327576581388711929e-02,-9.078230708837509155e-02,7.848869077861309052e-03,5.927414167672395706e-03,-9.758619964122772217e-02,-6.898366659879684448e-02,7.441888004541397095e-02,1.143511570990085602e-02,2.524431608617305756e-02,1.210376918315887451e-01,-6.402439624071121216e-02,7.015490531921386719e-02,2.796635590493679047e-02,5.269937589764595032e-02,-4.361178353428840637e-02,2.792444825172424316e-02,2.865741215646266937e-02,-1.487277001142501831e-01,3.931696712970733643e-02,-6.324009038507938385e-03,1.062448136508464813e-02,-1.562425587326288223e-02,6.266086548566818237e-02,-3.591370582580566406e-02,1.701441109180450439e-01,-2.152865566313266754e-02,-6.494244933128356934e-02,9.143026918172836304e-02,-1.060601323843002319e-03,-3.684703959152102470e-03,-5.728022754192352295e-02,-6.010351702570915222e-02,-1.027498319745063782e-01,-7.880681753158569336e-02,-3.353751450777053833e-02,-9.905420988798141479e-02,-1.132592335343360901e-01,-3.241493552923202515e-02,-3.858469426631927490e-02,-1.171423122286796570e-01,9.726509451866149902e-02,-1.693920977413654327e-02,-1.087614372372627258e-01,3.088526427745819092e-03,7.521314173936843872e-02,-8.423313498497009277e-03,-2.718888781964778900e-02,1.972615253180265427e-03,1.728177443146705627e-02,-8.384619140997529030e-04,3.833058848977088928e-02,-8.375000208616256714e-02,-2.070847898721694946e-01,-6.826656404882669449e-03,-1.213661283254623413e-01,1.448780857026576996e-02,-3.512732684612274170e-02,-6.278260610997676849e-03,2.119210734963417053e-02,-4.029824864119291306e-03,5.240337457507848740e-03,-4.369248822331428528e-02,-1.448284089565277100e-01,1.768933385610580444e-01,5.177961662411689758e-02,7.836536318063735962e-02,-4.243845120072364807e-03,9.109269827604293823e-03,3.668405860662460327e-02,-2.667656913399696350e-02,-1.603132784366607666e-01,-1.387400086969137192e-02,7.132765650749206543e-02,-4.526024684309959412e-02,-9.866043546935543418e-05,1.851056469604372978e-03,-2.637534588575363159e-02,-2.499238029122352600e-02,-9.754840284585952759e-02,4.881696775555610657e-02,2.078373730182647705e-02,-2.894052769988775253e-03,-7.270345836877822876e-02,8.599887043237686157e-02,-9.938336163759231567e-02,1.139836907386779785e-01,4.155698418617248535e-02,-2.318252623081207275e-02,5.951654538512229919e-02,8.436259627342224121e-02,9.171744436025619507e-02,-7.773616909980773926e-02,-8.045880496501922607e-02,-7.612343877553939819e-02,1.527871936559677124e-01,-5.714043602347373962e-02,4.188305884599685669e-02,-6.385353207588195801e-02
1.515047252178192139e-01,1.453873235732316971e-02,-2.566431090235710144e-02,-9.976869076490402222e-02,1.757900603115558624e-02,-2.789894817396998405e-03,2.843449078500270844e-02,-1.848137937486171722e-02,-1.587864756584167480e-02,9.888133406639099121e-02,-5.613446235656738281e-03,-9.540099650621414185e-02,5.985929444432258606e-02,5.214316770434379578e-02,-3.489810973405838013e-02,3.587700054049491882e-02,-2.510687522590160370e-02,-1.087922789156436920e-02,3.182314708828926086e-02,6.648512929677963257e-02,-1.099921911954879761e-01,-6.859376281499862671e-02,-3.435574844479560852e-02,-1.575699299573898315e-01,-4.223232716321945190e-02,-1.709594763815402985e-02,6.691592931747436523e-02,-1.884444504976272583e-01,6.207089126110076904e-02,-4.822962731122970581e-02,-9.377623349428176880e-02,-8.677148073911666870e-02,1.753257215023040771e-02,-1.082541421055793762e-01,3.956475481390953064e-02,3.040762245655059814e-02,-6.199749559164047241e-02,-1.097291125915944576e-03,7.010696455836296082e-03,-1.048895567655563354e-01,5.475899949669837952e-02,4.662580788135528564e-03,9.591308236122131348e-02,5.062134936451911926e-02,-3.141460195183753967e-02,-6.734436750411987305e-02,2.299285121262073517e-02,5.201299488544464111e-02,-1.120764669030904770e-02,-5.980942770838737488e-02,3.553419187664985657e-02,-4.909708630293607712e-03,-1.501055434346199036e-02,-4.906189814209938049e-02,-9.352380409836769104e-03,1.288442034274339676e-02,-1.156057491898536682e-01,-5.239604786038398743e-02,-9.885153919458389282e-02,-1.536114793270826340e-02,6.222729757428169250e-02,-1.574569791555404663e-01,-8.924052119255065918e-02,2.822219580411911011e-02,-1.357671916484832764e-01,8.003320544958114624e-02,-5.946739017963409424e-02,-1.046186778694391251e-02,-8.909320458769798279e-03,2.528879122110083699e-06,-4.043024033308029175e-02,-4.377354308962821960e-02,5.750710517168045044e-02,-4.212809726595878601e-02,1.051367074251174927e-01,6.205447018146514893e-02,9.063112735748291016e-02,5.317824333906173706e-02,-5.168661847710609436e-02,-2.383383363485336304e-02,-1.720379889011383057e-01,-8.704012259840965271e-03,-5.734804272651672363e-02,1.719950288534164429e-01,6.781867891550064087e-02,9.880428761243820190e-02,-9.471878409385681152e-02,-2.171840518712997437e-02,2.391075342893600464e-02,1.009899750351905823e-02,4.302681237459182739e-02,1.393303088843822479e-02,-1.783576309680938721e-01,-2.553153038024902344e-02,-7.109791785478591919e-02,-4.677101969718933105e-02,-3.667731210589408875e-02,3.352212905883789062e-02,-3.771812655031681061e-03,1.842668838798999786e-02,1.178975682705640793e-02,-7.830534130334854126e-03,-1.618810812942683697e-03,2.466592937707901001e-02,-4.544940218329429626e-02,-1.049656420946121216e-01,-4.961093142628669739e-02,-9.956991672515869141e-02,-2.649319730699062347e-02,1.242808327078819275e-01,-9.293010458350181580e-03,-1.739251166582107544e-01,1.234791949391365051e-01,-1.064607948064804077e-01,3.742790780961513519e-03,5.375572666525840759e-02,1.528751850128173828e-01,8.264751732349395752e-02,4.842796549201011658e-02,-5.699798837304115295e-02
-4.049747716635465622e-03,-1.902543455362319946e-01,1.799171604216098785e-02,-1.326231509447097778e-01,7.548576593399047852e-02,-7.526699453592300415e-02,-9.729224443435668945e-02,1.068945005536079407e-01,-2.268351018428802490e-01,-1.501641422510147095e-01,9.307938814163208008e-02,1.556172668933868408e-01,-1.155815348029136658e-01,1.753953751176595688e-03,1.634517684578895569e-02,-9.186917915940284729e-03,2.062705904245376587e-01,2.040516957640647888e-02,-1.218561530113220215e-01,1.155210286378860474e-01,-2.097763121128082275e-01,2.505027689039707184e-02,-7.838074117898941040e-03,1.843490302562713623e-01,1.702585220336914062e-01,-4.023326933383941650e-02,2.648808585945516825e-04,-5.143751949071884155e-02,1.231168508529663086e-01,3.855068981647491455e-02,1.407373696565628052e-01,-8.731967955827713013e-02,8.944931626319885254e-02,1.323292851448059082e-01,2.865089289844036102e-02,-1.131456270813941956e-01,1.178866699337959290e-01,1.217576488852500916e-01,-6.738258898258209229e-02,1.375688761472702026e-01,1.242845039814710617e-02,-6.314564496278762817e-02,-5.272752046585083008e-02,3.007902577519416809e-02,1.396226882934570312e-01,1.186807453632354736e-01,3.768525645136833191e-02,2.436685934662818909e-02,-1.099791154265403748e-01,-1.143501885235309601e-02,5.473077669739723206e-02,1.553707718849182129e-01,-5.950404703617095947e-02,2.632956206798553467e-01,-1.979134529829025269e-01,5.745628848671913147e-02,1.381166726350784302e-01,1.121613755822181702e-01,-3.622934967279434204e-02,1.082142591476440430e-01,-1.191954389214515686e-01,-2.329246848821640015e-01,-1.314100772142410278e-01,-5.246784165501594543e-02,4.643283784389495850e-02,-1.443126983940601349e-02,6.753373146057128906e-02,7.415370643138885498e-02,-1.669223904609680176e-01,3.019693121314048767e-02,-1.344145387411117554e-01,1.543358117341995239e-01,3.638793528079986572e-02,-9.554301947355270386e-02,-2.749594300985336304e-02,1.106888279318809509e-01,-4.165375605225563049e-02,2.243123799562454224e-01,-1.408073157072067261e-01,-7.157677412033081055e-02,1.400295644998550415e-01,-4.449235647916793823e-02,-1.214922145009040833e-01,8.510594815015792847e-02,-2.205274254083633423e-01,1.836260259151458740e-01,-1.657449752092361450e-01,6.595848500728607178e-02,-1.085871756076812744e-01,2.286105602979660034e-02,-1.827868670225143433e-01,-1.247509196400642395e-01,1.038462147116661072e-01,1.611314862966537476e-01,-6.285502016544342041e-02,-1.767154186964035034e-01,4.911725223064422607e-02,-5.585822463035583496e-02,-1.036437600851058960e-01,-2.505678869783878326e-02,-8.533533662557601929e-02,9.881862998008728027e-02,-1.849324256181716919e-01,-7.322672754526138306e-02,-2.509213984012603760e-02,4.108648374676704407e-02,-4.814851284027099609e-02,-5.812289938330650330e-02,4.040243104100227356e-02,1.076558381319046021e-01,-2.095944620668888092e-02,-2.390515506267547607e-01,4.556731134653091431e-02,-5.925948917865753174e-02,-1.818742007017135620e-01,1.048125177621841431e-01,6.826161593198776245e-02,-3.871857374906539917e-02,7.267791032791137695e-02,-1.754146069288253784e-01
-1.032049953937530518e-01,-8.729951828718185425e-02,4.429886583238840103e-03,-9.821742027997970581e-02,1.069694757461547852e-02,7.233703508973121643e-03,3.590833023190498352e-02,3.814987465739250183e-02,3.875419124960899353e-02,1.256174445152282715e-01,2.509847283363342285e-02,1.385588850826025009e-02,3.005685098469257355e-02,7.760795205831527710e-02,-1.543898731470108032e-01,-1.455765217542648315e-02,-1.495836675167083740e-02,5.198988132178783417e-03,-5.040911491960287094e-03,-1.287209391593933105e-01,-5.178881436586380005e-02,-1.452145576477050781e-01,-7.631623744964599609e-02,8.111546188592910767e-02,8.059527724981307983e-02,-2.444994635879993439e-02,2.091790921986103058e-02,1.596229374408721924e-01,7.380402833223342896e-02,-5.577269196510314941e-02,6.094444543123245239e-02,2.128649130463600159e-02,-9.302874095737934113e-03,5.421349313110113144e-03,-1.107748374342918396e-01,3.313003480434417725e-02,7.304291939362883568e-04,-6.701032072305679321e-02,2.043587341904640198e-02,9.310047328472137451e-02,-1.872614324092864990e-01,2.741013281047344208e-02,7.281886041164398193e-02,5.760272499173879623e-03,9.465725161135196686e-03,-9.899459779262542725e-02,5.440316721796989441e-02,5.155643448233604431e-02,-2.617010846734046936e-02,-1.147240996360778809e-01,-2.157575683668255806e-03,-5.801370367407798767e-02,-5.627077445387840271e-02,4.047783464193344116e-02,6.581177562475204468e-02,4.712198302149772644e-02,-2.697355300188064575e-02,-4.910787567496299744e-03,1.888973452150821686e-02,1.310101896524429321e-02,-5.774637684226036072e-02,-8.205622434616088867e-02,-7.873857766389846802e-02,-4.616897553205490112e-02,-1.753279417753219604e-01,-3.012023307383060455e-02,1.628830730915069580e-01,-1.441632211208343506e-02,-4.519279673695564270e-02,-5.567881092429161072e-02,4.400533810257911682e-02,-7.311873137950897217e-02,-9.281755774281919003e-04,1.126903593540191650e-01,1.178431659936904907e-01,3.011405281722545624e-02,1.033968552947044373e-01,3.201786661520600319e-03,1.776790060102939606e-02,-1.207644958049058914e-02,-1.152329891920089722e-02,-1.005057618021965027e-01,-3.733337623998522758e-03,3.105760738253593445e-02,-8.209233731031417847e-02,1.680806465446949005e-02,4.649429395794868469e-02,3.040218725800514221e-02,1.878536790609359741e-01,3.773494437336921692e-02,-1.781767159700393677e-01,-1.785277575254440308e-02,-6.491852924227714539e-03,-8.798123896121978760e-02,-1.037703603506088257e-01,-9.699153900146484375e-02,2.794865984469652176e-03,5.994249135255813599e-02,1.021805219352245331e-02,4.807918891310691833e-02,9.433471411466598511e-02,3.805303713306784630e-03,7.975427061319351196e-02,7.618719339370727539e-02,3.110493160784244537e-02,1.235591247677803040e-02,-6.799596548080444336e-02,4.123718291521072388e-02,1.150312088429927826e-02,9.747424162924289703e-03,1.375824064016342163e-01,9.076050668954849243e-02,3.399757668375968933e-02,-1.237177476286888123e-01,-4.411179944872856140e-02,-9.796538949012756348e-02,-3.923009149730205536e-03,4.783536493778228760e-02,-7.220153510570526123e-02,-1.250409259228035808e-04
1.007068678736686707e-01,1.335081309080123901e-01,3.045654483139514923e-02,4.711306095123291016e-02,3.130390942096710205e-01,1.391785144805908203e-01,-8.254051208496093750e-02,-1.166261062026023865e-01,2.917878031730651855e-01,-4.090429842472076416e-02,-7.945385575294494629e-02,4.605617746710777283e-02,5.078718438744544983e-02,3.284157440066337585e-02,1.604500561952590942e-01,-2.058788090944290161e-01,8.596453815698623657e-02,1.818612813949584961e-01,2.601387798786163330e-01,-8.425755053758621216e-02,3.176723420619964600e-01,2.590078413486480713e-01,-5.999766290187835693e-02,-4.780008457601070404e-03,-1.101711913943290710e-01,2.821260988712310791e-01,9.146449714899063110e-02,-9.268803149461746216e-02,-9.381183981895446777e-02,1.986374706029891968e-01,4.992890171706676483e-04,1.391739491373300552e-02,-3.268185630440711975e-02,-3.081756234169006348e-01,1.568427085876464844e-01,9.819101542234420776e-02,-2.710588872432708740e-01,-2.249020934104919434e-01,1.287594884634017944e-01,-2.391250245273113251e-02,4.076931998133659363e-02,1.170486658811569214e-01,9.584847837686538696e-02,-2.765212357044219971e-01,1.372199784964323044e-02,-1.310129556804895401e-02,5.001803115010261536e-02,-9.586112201213836670e-02,1.921412497758865356e-01,1.521697491407394409e-01,5.349573865532875061e-02,-9.252621792256832123e-03,4.939454048871994019e-02,-2.183155715465545654e-01,3.402043506503105164e-02,1.241844221949577332e-01,-6.852108240127563477e-02,5.531670525670051575e-02,-1.041796952486038208e-01,1.000956743955612183e-01,-1.811414062976837158e-01,7.693748176097869873e-02,1.357901394367218018e-01,-2.029972076416015625e-01,-4.962357878684997559e-02,3.889114037156105042e-02,2.106460742652416229e-03,-1.751115173101425171e-01,1.064012795686721802e-01,-1.248939782381057739e-01,1.972486376762390137e-01,-1.918739266693592072e-02,-1.277521401643753052e-01,8.254867047071456909e-03,1.814603209495544434e-01,-2.983515262603759766e-01,1.183645706623792648e-02,-1.664837300777435303e-01,3.915800452232360840e-01,-7.759173959493637085e-02,9.321513772010803223e-02,1.149950474500656128e-01,-2.450606413185596466e-02,-3.334638178348541260e-01,3.724831715226173401e-02,-8.393926918506622314e-02,-1.115285903215408325e-01,-1.001326516270637512e-01,1.170615926384925842e-01,-1.246420294046401978e-01,9.828147292137145996e-02,1.954434625804424286e-02,-3.986904025077819824e-02,-7.023786753416061401e-02,-1.428467631340026855e-01,-1.025939062237739563e-01,-5.356267467141151428e-02,-6.517892330884933472e-02,1.100787296891212463e-01,9.926613420248031616e-02,-1.284994632005691528e-01,-5.237707495689392090e-02,1.674427390098571777e-01,4.019799530506134033e-01,-1.157276481389999390e-01,-8.689415454864501953e-02,1.195941418409347534e-01,-2.429513037204742432e-01,-2.060095667839050293e-01,-6.547433324158191681e-03,-2.321480400860309601e-02,1.191812604665756226e-01,-1.236183270812034607e-01,2.336682192981243134e-02,6.100222840905189514e-02,-1.371121406555175781e-01,-7.187304645776748657e-02,2.215320318937301636e-01,-6.812862586230039597e-03,4.057866707444190979e-02
8.886902034282684326e-02,-2.277674078941345215e-01,4.244556650519371033e-02,1.544205695390701294e-01,-1.367527842521667480e-01,-1.964677274227142334e-01,1.948486864566802979e-01,-9.157568216323852539e-02,-8.910437673330307007e-02,-7.761435955762863159e-02,-2.285164035856723785e-02,1.665267795324325562e-01,-1.019078791141510010e-01,-2.309676557779312134e-01,-4.288617521524429321e-02,3.479258716106414795e-01,1.683489680290222168e-01,-9.916079044342041016e-02,-1.910423338413238525e-01,7.316002249717712402e-02,3.166333213448524475e-02,-4.551604762673377991e-02,-2.478804439306259155e-03,-8.781526237726211548e-02,1.899595856666564941e-01,-6.370199471712112427e-02,-8.466523885726928711e-02,1.528921276330947876e-01,-8.875730633735656738e-02,-5.638203024864196777e-02,1.455843746662139893e-01,4.384220018982887268e-02,2.414107769727706909e-01,1.147920265793800354e-01,1.794174164533615112e-01,-7.217612117528915405e-02,1.954923421144485474e-01,-8.045122772455215454e-02,-1.116345375776290894e-01,4.757193475961685181e-02,-2.782153524458408356e-02,8.006396144628524780e-02,1.395122259855270386e-01,2.282784134149551392e-01,8.237783610820770264e-02,1.532236188650131226e-01,9.053413569927215576e-02,-1.826206445693969727e-01,-1.384007781744003296e-01,-1.205046474933624268e-01,1.644268818199634552e-02,5.005921050906181335e-02,4.813055507838726044e-03,-1.782394200563430786e-01,-6.981680542230606079e-02,-1.096658185124397278e-01,-1.002070531249046326e-01,-4.004293680191040039e-02,-1.424427032470703125e-01,-1.864054799079895020e-02,1.458596140146255493e-01,2.116450667381286621e-02,-2.484474182128906250e-01,1.619465202093124390e-01,-1.606947928667068481e-02,8.380659669637680054e-02,1.119559165090322495e-02,-2.668561879545450211e-03,-2.377114892005920410e-01,-9.504909813404083252e-02,-1.617534309625625610e-01,-5.685797333717346191e-02,1.848490685224533081e-01,-3.941878303885459900e-02,-6.061695516109466553e-02,1.220937818288803101e-01,-9.754524379968643188e-02,-1.227636933326721191e-01,-6.393016315996646881e-03,8.768539992161095142e-04,3.196837007999420166e-02,-2.249624580144882202e-01,-2.951327860355377197e-01,1.081959232687950134e-01,-1.041239127516746521e-01,-2.477999962866306305e-02,6.306356191635131836e-02,-9.802063554525375366e-02,-1.099174097180366516e-01,1.561346650123596191e-01,-1.713107973337173462e-01,-2.137667685747146606e-02,1.871094703674316406e-01,1.883941739797592163e-01,9.538313001394271851e-02,4.482531547546386719e-02,1.459030658006668091e-01,1.942574046552181244e-02,-1.269182562828063965e-01,2.607787214219570160e-02,1.376521866768598557e-02,5.712016671895980835e-02,9.177402406930923462e-02,3.788713738322257996e-02,2.914007008075714111e-02,-2.154003530740737915e-01,2.019255012273788452e-01,1.382984966039657593e-01,6.733387708663940430e-02,2.187222838401794434e-01,7.599269505590200424e-03,-4.830099269747734070e-02,-1.876723952591419220e-02,2.936847135424613953e-02,-4.877888411283493042e-02,1.722425967454910278e-01,-1.788257360458374023e-01,-2.936058938503265381e-01,2.984522283077239990e-01,1.631754264235496521e-02
1.903856247663497925e-01,-1.724148839712142944e-01,-2.258310317993164062e-01,-3.205132484436035156e-02,-2.015358656644821167e-01,-8.543849736452102661e-02,-2.223393321037292480e-01,1.103894561529159546e-01,-5.513199791312217712e-02,-6.800512969493865967e-02,1.097435131669044495e-02,1.210953295230865479e-01,2.078326418995857239e-02,-8.106535300612449646e-03,3.818257525563240051e-02,-3.907735273241996765e-02,2.179651260375976562e-01,-3.740109875798225403e-02,1.075203046202659607e-01,5.506220832467079163e-02,-1.823980957269668579e-01,9.352146089076995850e-02,-3.229941055178642273e-02,-1.690251827239990234e-01,-5.859988555312156677e-02,-1.135348081588745117e-01,-1.286031603813171387e-01,9.473059326410293579e-03,8.363430947065353394e-02,-1.731378287076950073e-01,-7.307998836040496826e-02,-1.113652996718883514e-02,1.380615383386611938e-01,1.530863903462886810e-02,5.640754848718643188e-02,8.047846704721450806e-02,-8.859097212553024292e-02,8.618240803480148315e-02,7.721783220767974854e-02,-1.440330594778060913e-01,1.488200575113296509e-01,1.574302911758422852e-01,-3.351958096027374268e-02,8.458033949136734009e-02,9.384086728096008301e-02,7.158379256725311279e-02,2.149161882698535919e-02,1.120080202817916870e-01,9.041551500558853149e-02,-1.515308320522308350e-01,-7.938268780708312988e-02,2.161286473274230957e-01,-4.545197635889053345e-02,7.114226929843425751e-03,1.456820517778396606e-01,-1.562324464321136475e-01,9.251650422811508179e-03,1.500957645475864410e-03,-5.312982201576232910e-02,1.824609786272048950e-01,-2.027467638254165649e-01,-2.345522306859493256e-02,-6.569030135869979858e-02,2.636976838111877441e-01,-3.857759013772010803e-02,1.343918740749359131e-01,-3.813508152961730957e-02,1.887158304452896118e-01,-1.176395341753959656e-01,2.191534638404846191e-02,-5.822400003671646118e-02,-1.683923415839672089e-02,1.667036861181259155e-01,-8.845193684101104736e-02,1.403267085552215576e-01,4.549058526754379272e-02,-1.466370522975921631e-01,-1.104301139712333679e-01,-4.722717031836509705e-02,1.163911595940589905e-01,-1.142805069684982300e-01,-2.207732945680618286e-01,5.287733301520347595e-02,5.489754676818847656e-02,-9.534038603305816650e-02,1.491906940937042236e-01,-1.172617003321647644e-01,-8.478173054754734039e-03,2.789933234453201294e-02,4.562776908278465271e-02,2.337813377380371094e-02,1.573456823825836182e-01,9.327457845211029053e-02,7.512108888477087021e-03,2.610658854246139526e-02,1.213397365063428879e-02,9.805844724178314209e-02,1.699210144579410553e-02,1.761749759316444397e-02,1.675420105457305908e-01,1.186901479959487915e-01,-1.154775694012641907e-01,-1.735859215259552002e-01,5.516370385885238647e-02,5.046099051833152771e-02,-1.876720786094665527e-01,1.622182279825210571e-01,-2.208966761827468872e-03,1.922740936279296875e-01,-1.475804299116134644e-02,-1.122583448886871338e-02,-1.237212121486663818e-01,-3.077973611652851105e-02,-3.810688387602567673e-03,-3.654388338327407837e-02,-8.552139252424240112e-02,5.069084838032722473e-02,-8.488690853118896484e-02,6.326647102832794189e-02,-5.004887655377388000e-02
2.780547440052032471e-01,8.317076601088047028e-03,8.005881309509277344e-02,1.623162627220153809e-02,1.244071945548057556e-01,9.126906841993331909e-02,-2.634656131267547607e-01,1.336280852556228638e-01,-1.271087229251861572e-01,-4.937531054019927979e-02,2.550154626369476318e-01,8.978476375341415405e-02,-1.565834432840347290e-01,-1.556954085826873779e-01,1.381176430732011795e-02,-1.286253929138183594e-01,1.910617053508758545e-01,1.183313429355621338e-01,-1.854458749294281006e-01,-5.304228067398071289e-01,1.339413970708847046e-01,-7.537230849266052246e-02,-1.809104830026626587e-01,4.012405127286911011e-02,1.529711931943893433e-01,-7.513111829757690430e-02,-8.331835269927978516e-02,-8.562190085649490356e-02,-1.936880499124526978e-01,1.276383697986602783e-01,7.681895047426223755e-02,3.085772097110748291e-01,7.415315601974725723e-03,1.444692015647888184e-01,2.162487059831619263e-01,1.430779695510864258e-01,-1.030322462320327759e-01,5.318656936287879944e-02,3.140940368175506592e-01,2.034531086683273315e-01,-1.838535964488983154e-01,2.360828071832656860e-01,1.468966007232666016e-01,-9.536333382129669189e-02,7.838921248912811279e-02,4.139991104602813721e-02,-1.545286178588867188e-01,1.036843731999397278e-01,1.152404844760894775e-01,1.427487283945083618e-01,-3.640279769897460938e-01,-2.521260380744934082e-01,1.574073433876037598e-01,3.791150078177452087e-02,-2.853420376777648926e-02,-7.901938259601593018e-02,-2.090920060873031616e-01,2.122097611427307129e-01,2.082532793283462524e-01,-2.006163746118545532e-01,2.310676425695419312e-01,5.196246132254600525e-02,4.249626770615577698e-02,-1.768471449613571167e-01,1.106341779232025146e-01,-9.437465667724609375e-02,1.190783604979515076e-01,6.739875674247741699e-02,-1.340529322624206543e-01,-9.369308501482009888e-02,1.630205959081649780e-01,-1.375938206911087036e-01,-4.133174940943717957e-02,2.151185423135757446e-01,1.861808598041534424e-01,-9.222693741321563721e-02,-1.141243502497673035e-01,-3.525777906179428101e-02,-1.240680366754531860e-01,-1.866995990276336670e-01,-1.943614929914474487e-01,1.796349585056304932e-01,-9.899464249610900879e-02,1.498311012983322144e-01,-2.033745348453521729e-01,3.146836757659912109e-01,-1.432770788669586182e-01,-9.802490472793579102e-02,-1.478349715471267700e-01,7.264549285173416138e-02,3.740151971578598022e-02,1.264037191867828369e-01,5.061930418014526367e-02,1.611824929714202881e-01,8.397537469863891602e-02,8.870922774076461792e-02,1.230432242155075073e-01,-3.049097396433353424e-02,-2.064305543899536133e-01,3.409845232963562012e-01,3.597420454025268555e-01,-2.806260585784912109e-01,7.512464374303817749e-02,1.260730475187301636e-01,1.929176151752471924e-01,-8.210771530866622925e-02,-1.720071136951446533e-01,-1.289824545383453369e-01,-6.595611572265625000e-02,1.454596221446990967e-01,2.262627333402633667e-01,4.557306766510009766e-01,-3.057964444160461426e-01,9.555326402187347412e-02,-1.295266747474670410e-01,-1.664332151412963867e-01,1.439199894666671753e-01,-5.811049416661262512e-02,1.445787101984024048e-01,4.864653572440147400e-03
2.092288285493850708e-01,9.262614697217941284e-02,-7.322440855205059052e-03,2.895423769950866699e-01,-2.514253137633204460e-03,-6.572958827018737793e-02,3.303956091403961182e-01,-1.946610063314437866e-01,-1.544112265110015869e-01,3.089771270751953125e-01,6.298344582319259644e-02,-4.065079689025878906e-01,2.159524410963058472e-01,6.886120140552520752e-02,-4.922794699668884277e-01,1.320580989122390747e-01,-1.315765529870986938e-01,-2.907195687294006348e-01,-6.169979274272918701e-02,1.294358223676681519e-01,1.540638785809278488e-02,4.066280648112297058e-02,-3.583027794957160950e-02,3.470855057239532471e-01,-1.147114634513854980e-01,1.881245374679565430e-01,2.358936145901679993e-02,-1.497267484664916992e-01,-5.673129856586456299e-02,-1.515781432390213013e-01,-1.414596140384674072e-01,-4.685872048139572144e-02,3.211944364011287689e-03,9.502285718917846680e-02,-2.502092346549034119e-02,2.880780696868896484e-01,3.238869458436965942e-02,1.722780466079711914e-01,2.479849196970462799e-02,-2.284856438636779785e-01,5.726890638470649719e-02,-3.011123239994049072e-01,1.817581355571746826e-01,8.664321899414062500e-02,-5.064580217003822327e-02,-2.106022238731384277e-01,-2.301026731729507446e-01,2.322465740144252777e-02,2.218394540250301361e-02,1.468899995088577271e-01,3.022949695587158203e-01,-2.745441198348999023e-01,7.207407802343368530e-02,-5.852579697966575623e-02,-3.750451281666755676e-02,3.571194112300872803e-01,-2.503297924995422363e-01,5.253389850258827209e-02,3.148286342620849609e-01,2.553189918398857117e-02,1.028108745813369751e-01,-7.140716910362243652e-02,-4.867727681994438171e-02,-1.091435775160789490e-01,6.641910970211029053e-02,-3.805365413427352905e-02,1.915720999240875244e-01,3.987564891576766968e-02,2.778079174458980560e-02,4.019374772906303406e-02,-2.114043086767196655e-01,-2.827803492546081543e-01,1.231651753187179565e-02,3.492908179759979248e-01,-6.321571767330169678e-02,-6.305017974227666855e-03,-3.204119578003883362e-02,1.754067987203598022e-01,2.099396288394927979e-01,-1.234029307961463928e-01,3.353255242109298706e-02,3.515608143061399460e-03,-3.344050049781799316e-02,-6.232782267034053802e-03,-5.010024085640907288e-02,-3.585941195487976074e-01,-4.603562876582145691e-02,-1.213604733347892761e-01,5.306048989295959473e-01,9.450907260179519653e-02,2.070220187306404114e-02,-1.650702655315399170e-01,7.568332366645336151e-04,2.527010142803192139e-01,-2.482388764619827271e-01,-2.439345568418502808e-01,-1.520969346165657043e-02,3.846603259444236755e-02,-2.943766489624977112e-02,-3.438390791416168213e-01,2.633952535688877106e-02,-1.265027970075607300e-01,8.688190579414367676e-02,1.081850007176399231e-01,-1.241841465234756470e-01,-2.000420987606048584e-01,-1.435382366180419922e-01,-1.934589445590972900e-02,4.625556990504264832e-02,1.913927942514419556e-01,-1.653228886425495148e-02,-2.576022744178771973e-01,-9.007195383310317993e-02,3.062335550785064697e-01,3.257938893511891365e-03,-3.219974413514137268e-02,5.503981187939643860e-02,8.084697648882865906e-03,-1.808592677116394043e-01,5.653399601578712463e-02
1.026287525892257690e-01,-1.027244105935096741e-01,-8.701941370964050293e-02,-7.457583397626876831e-02,1.045474782586097717e-01,8.318965323269367218e-03,-7.375410944223403931e-02,1.019353643059730530e-01,6.274300813674926758e-02,-3.643828257918357849e-02,-8.537204563617706299e-02,1.535342037677764893e-01,-1.029673591256141663e-01,-4.138745367527008057e-02,1.527125537395477295e-01,-6.093495339155197144e-02,-4.424653947353363037e-02,-1.061945185065269470e-01,1.546999090351164341e-03,1.913256198167800903e-01,4.990828409790992737e-02,2.934166043996810913e-02,-5.731650441884994507e-02,-1.130498871207237244e-01,1.031256467103958130e-01,-1.372644603252410889e-01,-2.166168987751007080e-01,2.268865332007408142e-02,4.087062552571296692e-02,4.711038991808891296e-02,2.569216676056385040e-02,1.318283975124359131e-01,-2.741871587932109833e-02,-2.245112694799900055e-02,-1.448708176612854004e-01,-2.719104886054992676e-01,1.252368837594985962e-01,1.398575212806463242e-02,-1.235288158059120178e-01,3.847993165254592896e-02,-1.599363833665847778e-01,4.854722321033477783e-02,1.810680031776428223e-01,2.845587767660617828e-02,6.724968552589416504e-02,1.307799816131591797e-01,1.395861208438873291e-01,1.425147205591201782e-01,1.668769121170043945e-01,6.782220304012298584e-02,-2.395709455013275146e-01,-9.865340776741504669e-03,-1.681265980005264282e-01,-1.828205883502960205e-01,-3.051438629627227783e-01,-1.649515479803085327e-01,1.731166392564773560e-01,-1.102489531040191650e-01,2.015760540962219238e-01,1.666097790002822876e-01,5.250974744558334351e-02,1.878967583179473877e-01,1.380864679813385010e-01,-1.100168153643608093e-01,2.103236317634582520e-01,1.645576655864715576e-01,-1.404714887030422688e-03,2.116624414920806885e-01,2.413726225495338440e-02,5.130074545741081238e-02,-3.684508055448532104e-02,1.387460976839065552e-01,7.838594913482666016e-02,-8.862579613924026489e-02,-2.825134433805942535e-03,1.169504970312118530e-01,-1.197317689657211304e-01,2.177142500877380371e-01,-3.280920386314392090e-01,1.823498308658599854e-02,-1.564447432756423950e-01,6.012015417218208313e-02,-7.637660205364227295e-02,-1.251299977302551270e-01,-1.089018210768699646e-01,1.591652631759643555e-01,-1.870553046464920044e-01,-9.515418112277984619e-02,-2.036523967981338501e-01,1.876272559165954590e-01,-6.331472843885421753e-02,-1.238225325942039490e-01,8.436296880245208740e-02,-1.282090246677398682e-01,1.617613732814788818e-01,2.178720533847808838e-01,3.794683516025543213e-02,-6.956005468964576721e-03,2.278978191316127777e-02,1.473352462053298950e-01,-2.699045091867446899e-02,-1.851073205471038818e-01,-2.244848161935806274e-01,-1.318939845077693462e-03,1.550942659378051758e-01,-9.261489659547805786e-02,-8.963668346405029297e-02,-2.202965132892131805e-02,-5.394505709409713745e-02,-2.787263505160808563e-02,-1.248175185173749924e-02,-1.975787431001663208e-01,1.915792673826217651e-01,-3.156393170356750488e-01,-1.901685893535614014e-01,-2.649962529540061951e-02,-2.095037698745727539e-01,1.280567198991775513e-01,-1.456560753285884857e-02,-2.675428688526153564e-01
1.301723122596740723e-01,-1.076718866825103760e-01,-1.524827908724546432e-02,2.337691932916641235e-01,-1.831254176795482635e-02,-1.327817887067794800e-02,-3.600700795650482178e-01,1.978549659252166748e-01,1.152559649199247360e-02,4.136894643306732178e-02,1.155169904232025146e-01,-1.006071828305721283e-02,-9.661592543125152588e-02,-9.312023967504501343e-02,1.984715610742568970e-01,-4.215183109045028687e-02,9.381086379289627075e-02,-5.734237283468246460e-02,9.486959129571914673e-02,-5.981303378939628601e-02,-7.663010805845260620e-02,-1.298236548900604248e-01,-1.665269732475280762e-01,-4.087988734245300293e-01,4.813090339303016663e-02,-2.033196985721588135e-01,-8.774074167013168335e-02,-2.904738187789916992e-01,9.617619961500167847e-02,1.467973291873931885e-01,-3.998657315969467163e-02,-1.269864588975906372e-01,-1.804986596107482910e-01,-1.143309473991394043e-01,8.154729008674621582e-02,-2.971354126930236816e-01,-2.384954541921615601e-01,-7.908794283866882324e-02,3.339269757270812988e-01,1.439355015754699707e-01,-8.833398669958114624e-02,1.951942034065723419e-02,-5.715427547693252563e-02,8.310372382402420044e-02,2.856968343257904053e-01,-2.165674567222595215e-01,1.842267811298370361e-01,-6.810134649276733398e-02,1.634703576564788818e-01,-1.188557296991348267e-01,-3.036855757236480713e-01,6.027620658278465271e-02,-5.206521600484848022e-02,-5.534737184643745422e-02,3.003378026187419891e-02,-2.465631440281867981e-02,9.357846528291702271e-02,4.176724702119827271e-02,-1.237532496452331543e-02,2.576738595962524414e-01,1.070672497153282166e-01,-4.570528864860534668e-02,1.045585125684738159e-01,1.319106072187423706e-01,3.426452279090881348e-01,-2.370957732200622559e-01,4.796080756932497025e-03,4.749623686075210571e-02,-1.768974512815475464e-01,1.924707740545272827e-02,1.929678767919540405e-01,-1.118465811014175415e-01,-4.815464466810226440e-02,-1.861395984888076782e-01,6.036556884646415710e-02,6.884249299764633179e-02,-1.171291321516036987e-01,-1.188392788171768188e-01,2.572939097881317139e-01,-2.832416594028472900e-01,-4.711281955242156982e-01,-3.878234624862670898e-01,8.779153972864151001e-02,1.283979564905166626e-01,-5.915017798542976379e-02,2.773442268371582031e-01,-3.220581412315368652e-01,1.338271796703338623e-01,3.427472338080406189e-02,3.018226027488708496e-01,3.092850744724273682e-01,3.446370065212249756e-01,2.518388032913208008e-01,-4.551146551966667175e-02,9.793130308389663696e-02,6.930520758032798767e-03,1.594087779521942139e-01,9.776172786951065063e-02,2.371850050985813141e-02,-2.221400886774063110e-01,2.124974317848682404e-02,6.222939118742942810e-02,1.391366869211196899e-01,-1.281840354204177856e-01,7.560848444700241089e-02,-1.757383793592453003e-01,3.215544521808624268e-01,9.543819725513458252e-02,7.585670799016952515e-02,-4.394157603383064270e-02,1.704657077789306641e-02,-1.006051898002624512e-01,-1.026892513036727905e-01,1.352409422397613525e-01,1.310911476612091064e-01,-7.967910170555114746e-02,1.700726151466369629e-01,-1.188261881470680237e-01,1.549835205078125000e-01,8.347004652023315430e-02
-2.070491760969161987e-01,1.331085562705993652e-01,1.308057159185409546e-01,-1.438294257968664169e-02,3.020488098263740540e-02,-8.771808445453643799e-02,3.994479402899742126e-02,4.937675595283508301e-02,4.669612273573875427e-03,9.678670018911361694e-02,-3.528288006782531738e-02,1.087294071912765503e-01,1.242712810635566711e-01,-1.079950928688049316e-01,1.943727396428585052e-02,-1.737351417541503906e-01,-2.314960956573486328e-02,2.160457223653793335e-01,1.506687104701995850e-01,-2.590470314025878906e-01,1.894891113042831421e-01,1.290408074855804443e-01,7.133486866950988770e-02,1.136917322874069214e-01,5.368430912494659424e-02,-9.192932397127151489e-02,9.301830083131790161e-02,-1.728800311684608459e-02,2.051150426268577576e-02,1.022637188434600830e-01,-2.716266550123691559e-02,-6.650533527135848999e-02,-1.586597412824630737e-02,1.410959195345640182e-02,-1.291693001985549927e-01,-6.240468472242355347e-02,1.595829427242279053e-02,-1.646787822246551514e-01,-8.992213010787963867e-02,7.181151956319808960e-02,6.693542748689651489e-02,-1.121653616428375244e-01,5.939265247434377670e-03,4.304825142025947571e-02,-5.477178841829299927e-02,-7.229752093553543091e-02,-8.859513700008392334e-02,-9.600453078746795654e-02,2.027358710765838623e-01,-8.445825427770614624e-02,1.088586524128913879e-01,-9.069708734750747681e-02,1.609803736209869385e-02,-4.978446289896965027e-02,-1.063208561390638351e-02,-1.099085900932550430e-02,-1.236314028501510620e-01,7.140830159187316895e-02,-1.583974361419677734e-01,-1.973007917404174805e-01,3.250794112682342529e-02,-1.823199167847633362e-02,-2.668835036456584930e-02,-1.575772762298583984e-01,3.124971874058246613e-02,-5.689708143472671509e-02,-1.022253558039665222e-01,4.725650325417518616e-02,-2.202288247644901276e-02,-1.219292953610420227e-01,-1.404109001159667969e-01,2.859321795403957367e-02,6.995428353548049927e-02,1.488907188177108765e-01,7.778719812631607056e-02,-1.531234830617904663e-01,1.740248948335647583e-01,1.446216106414794922e-01,-1.612953096628189087e-01,-1.189928874373435974e-01,2.013463228940963745e-01,-7.015577703714370728e-02,1.574054062366485596e-01,1.531629562377929688e-01,-1.136113237589597702e-02,-6.110740825533866882e-02,-2.300388924777507782e-02,-1.586816906929016113e-01,-1.146930754184722900e-01,1.435000002384185791e-01,-1.029848754405975342e-01,-5.099567398428916931e-02,3.044106531888246536e-03,-1.142980530858039856e-01,-1.212315633893013000e-01,2.774060517549514771e-02,-8.033269643783569336e-02,1.128617972135543823e-01,5.874879658222198486e-02,1.876298338174819946e-01,-2.217093408107757568e-01,1.073829084634780884e-01,1.916380412876605988e-02,-4.499359056353569031e-02,-1.302795559167861938e-01,8.322271704673767090e-02,-4.996529966592788696e-02,-1.722871661186218262e-01,-4.756027087569236755e-02,1.000891439616680145e-02,-4.062765836715698242e-02,1.706553846597671509e-01,6.255973130464553833e-02,7.332846871577203274e-04,-5.664877593517303467e-02,-5.651123076677322388e-02,-1.872513741254806519e-01,-8.174946159124374390e-02,-3.431624174118041992e-02,-6.190175656229257584e-03
2.578289993107318878e-02,-1.014372520148754120e-02,3.841732442378997803e-02,4.421046003699302673e-02,-1.545056886970996857e-02,-4.864896461367607117e-02,3.329207375645637512e-02,5.736612528562545776e-02,5.859266221523284912e-02,-3.934454545378684998e-02,2.489532902836799622e-02,7.589632272720336914e-02,9.604638442397117615e-03,-3.794926404953002930e-02,-1.078661382198333740e-01,-2.915372513234615326e-02,-3.955376334488391876e-03,-2.517363987863063812e-02,3.349937126040458679e-02,4.060441628098487854e-02,-4.455838352441787720e-02,-6.511677522212266922e-03,1.517779231071472168e-01,-7.518950104713439941e-02,5.653627589344978333e-02,7.678956724703311920e-03,-2.037683129310607910e-02,-1.311167627573013306e-01,-1.891963183879852295e-02,4.583595693111419678e-02,-9.600534290075302124e-02,-2.280159667134284973e-02,-6.544232834130525589e-03,-4.596833884716033936e-02,-4.606301710009574890e-02,4.795986786484718323e-02,-4.544738680124282837e-03,-5.050069885328412056e-04,-1.756012067198753357e-02,-3.278248384594917297e-02,1.626737415790557861e-02,-2.490798709914088249e-03,-1.158277876675128937e-02,-5.238194018602371216e-02,-4.628832917660474777e-03,-1.545285582542419434e-01,6.339619308710098267e-02,-2.284887991845607758e-02,6.378839164972305298e-02,-9.564369171857833862e-02,-2.655249321833252907e-03,-1.931600086390972137e-02,5.236773192882537842e-02,-4.122787714004516602e-02,-1.112676933407783508e-01,-3.220020979642868042e-02,-9.121016599237918854e-03,7.483171299099922180e-03,7.527323067188262939e-02,4.439109563827514648e-02,-5.950555577874183655e-02,-7.657247781753540039e-02,-7.592976838350296021e-02,-1.158495061099529266e-02,-6.109793111681938171e-02,-3.929482027888298035e-02,4.324670508503913879e-02,-2.061895132064819336e-01,-6.723798811435699463e-03,-1.146539896726608276e-01,7.708102464675903320e-02,4.141437634825706482e-02,-3.950601443648338318e-02,5.587388202548027039e-02,-7.469819486141204834e-02,-6.440859753638505936e-03,-4.121577739715576172e-02,-3.071699105203151703e-02,-1.106042712926864624e-01,6.496662646532058716e-02,4.687355831265449524e-02,-1.331006642431020737e-02,3.255366906523704529e-02,7.144434750080108643e-02,-1.978803984820842743e-02,-5.946654826402664185e-02,-2.092600055038928986e-02,-1.239395067095756531e-01,-7.627901434898376465e-02,8.206751197576522827e-02,-1.595170944929122925e-01,-6.989527028053998947e-04,7.160422205924987793e-02,4.867051169276237488e-02,-1.375332921743392944e-01,7.977350801229476929e-02,-1.187282428145408630e-02,-4.524837061762809753e-02,1.448442228138446808e-02,7.793713361024856567e-02,-4.073635209351778030e-03,3.513738885521888733e-02,8.913209289312362671e-02,3.838720545172691345e-02,-5.386348813772201538e-02,5.163725838065147400e-02,-8.664606511592864990e-02,3.134746477007865906e-02,4.827223252505064011e-03,7.988849282264709473e-02,7.601729035377502441e-02,1.123990770429372787e-02,-4.307780414819717407e-02,-1.573944389820098877e-01,8.310902863740921021e-02,1.912432350218296051e-02,-6.095245480537414551e-02,-7.107806205749511719e-02,-9.741543233394622803e-02,2.563300356268882751e-02
8.813845366239547729e-02,4.486417770385742188e-02,-3.322062641382217407e-02,-1.509082317352294922e-01,3.548940876498818398e-03,1.519477181136608124e-02,-1.891356334090232849e-02,-7.277420163154602051e-02,1.982101984322071075e-02,-7.792434841394424438e-02,-1.104026138782501221e-01,1.061760168522596359e-02,4.099740460515022278e-02,-3.968627378344535828e-02,-5.009787902235984802e-02,2.030311897397041321e-02,3.987409174442291260e-02,2.005092613399028778e-02,-2.866488695144653320e-02,8.095861971378326416e-02,2.187043800950050354e-02,3.056948073208332062e-02,6.256159394979476929e-02,8.936496451497077942e-04,8.170115947723388672e-02,7.234022021293640137e-02,-1.577184945344924927e-01,1.304552108049392700e-01,1.182199940085411072e-01,5.026616901159286499e-02,2.240246906876564026e-02,3.218193352222442627e-02,1.233129063621163368e-03,6.830777227878570557e-02,2.280109934508800507e-02,-3.939219936728477478e-02,3.860015422105789185e-02,-3.009042516350746155e-02,-1.938487775623798370e-02,7.363338023424148560e-02,-1.426659822463989258e-01,-1.112409774214029312e-02,-5.894381925463676453e-02,6.939524319022893906e-03,2.266975864768028259e-02,6.086612120270729065e-02,7.852068543434143066e-02,-1.816179603338241577e-02,-5.782741587609052658e-03,4.835762828588485718e-02,-2.723713591694831848e-02,-1.540142018347978592e-02,-1.100246384739875793e-01,4.703973978757858276e-02,7.817453704774379730e-03,-7.241224497556686401e-02,-2.486640401184558868e-02,-2.189696207642555237e-02,1.063757985830307007e-01,5.221148207783699036e-02,-1.761239580810070038e-02,2.284185960888862610e-02,-1.986973732709884644e-02,-3.011846914887428284e-02,7.261345162987709045e-03,-6.439084559679031372e-02,-1.332113891839981079e-01,-1.268198639154434204e-01,1.822549663484096527e-02,7.278244011104106903e-03,3.675788268446922302e-02,5.739455670118331909e-02,2.404975146055221558e-02,1.062585785984992981e-02,-1.868912577629089355e-01,1.992699876427650452e-02,-3.642935305833816528e-03,6.480414420366287231e-02,3.943551331758499146e-02,1.854651048779487610e-02,1.187663227319717407e-01,-1.021732483059167862e-02,2.967310696840286255e-02,2.476091263815760612e-03,1.461852043867111206e-01,-3.466681763529777527e-02,-3.709812089800834656e-02,1.150950416922569275e-02,-1.614572554826736450e-01,-4.042442888021469116e-02,2.014632103964686394e-03,-6.195066380314528942e-04,6.670475751161575317e-02,-8.208982646465301514e-02,-6.314939260482788086e-02,5.991408973932266235e-02,-1.435109414160251617e-02,-2.620620653033256531e-02,4.544853873085230589e-04,-9.930805861949920654e-02,6.707224994897842407e-02,2.096864953637123108e-02,-2.419419772922992706e-02,-4.159856587648391724e-02,-6.537095457315444946e-02,7.098797708749771118e-02,-6.165587157011032104e-02,-5.603389069437980652e-02,2.702949009835720062e-02,-1.436582580208778381e-02,-9.693339467048645020e-02,-1.377869118005037308e-02,-3.718109056353569031e-02,1.989451497793197632e-01,8.998864889144897461e-02,2.004689164459705353e-02,-8.788106590509414673e-02,1.819089613854885101e-02,-7.231928408145904541e-02,9.639685600996017456e-02
6.180161237716674805e-02,6.317114084959030151e-02,1.526343822479248047e-01,4.755438119173049927e-02,2.443436235189437866e-01,-2.130839275196194649e-03,-9.327948838472366333e-02,-7.284243404865264893e-02,1.689670979976654053e-01,1.136048417538404465e-02,-9.599935263395309448e-02,8.325167000293731689e-02,-1.375837810337543488e-02,-1.090076193213462830e-01,8.023446798324584961e-02,1.170370802283287048e-01,-4.656821116805076599e-02,2.311528287827968597e-02,-7.504988461732864380e-02,-8.093774318695068359e-03,-7.541704177856445312e-02,-3.636818379163742065e-02,1.239273175597190857e-01,1.091734915971755981e-01,-1.373779680579900742e-02,1.268930882215499878e-01,-9.204879461321979761e-06,-1.239975392818450928e-01,-2.420840552076697350e-03,8.676288276910781860e-02,9.031542390584945679e-02,-6.127706542611122131e-02,-1.324147880077362061e-01,4.573434963822364807e-02,-3.748020157217979431e-02,1.554265767335891724e-01,-4.819627106189727783e-02,-1.024472415447235107e-01,2.899386920034885406e-02,5.888741835951805115e-02,7.506503164768218994e-02,-5.456520617008209229e-02,-1.299137324094772339e-01,8.481289260089397430e-03,8.998806774616241455e-02,1.473366096615791321e-02,6.396213918924331665e-02,1.194056496024131775e-01,1.544933617115020752e-01,9.139443933963775635e-02,-2.150426618754863739e-02,-8.523552864789962769e-02,-6.916099693626165390e-03,-6.791552901268005371e-02,1.148358434438705444e-01,3.597292304039001465e-02,-1.153555884957313538e-01,1.360742747783660889e-01,1.094422712922096252e-01,-1.783735603094100952e-01,1.525040268898010254e-01,-1.443452015519142151e-02,-9.900559671223163605e-03,-1.166979223489761353e-01,1.035373434424400330e-01,-6.109103560447692871e-02,-1.635901331901550293e-01,2.078911848366260529e-02,-8.720387518405914307e-02,8.770584315061569214e-02,2.415981329977512360e-02,-1.582361571490764618e-02,-1.583461314439773560e-01,1.681050844490528107e-02,1.116139888763427734e-01,-8.133139461278915405e-02,6.187624856829643250e-02,6.608696281909942627e-02,1.600732952356338501e-01,-1.416468024253845215e-01,-4.160602018237113953e-02,1.316632926464080811e-01,1.379224509000778198e-01,-9.780019521713256836e-02,4.875502735376358032e-02,-2.271921001374721527e-02,1.035105250775814056e-02,-4.715323448181152344e-02,9.099806100130081177e-02,1.448610275983810425e-01,1.440368741750717163e-01,-7.685204595327377319e-02,-2.244215272367000580e-02,-2.034622877836227417e-01,2.651968738064169884e-03,-1.089897304773330688e-01,1.032276526093482971e-01,9.338375180959701538e-02,-3.748039528727531433e-02,2.093596756458282471e-02,-8.356980234384536743e-02,9.403759241104125977e-02,1.823598146438598633e-02,3.848877921700477600e-02,-3.392225876450538635e-02,1.384772360324859619e-01,-5.484713613986968994e-02,-1.418807804584503174e-01,-7.905346155166625977e-02,-7.779113203287124634e-02,-2.865975722670555115e-02,1.351467967033386230e-01,-5.337473377585411072e-02,-5.676149576902389526e-02,1.273341178894042969e-01,-1.236870661377906799e-01,-5.247738584876060486e-02,-2.690760046243667603e-02,3.440919518470764160e-02,-8.725614845752716064e-02
-2.147656679153442383e-02,-7.223834097385406494e-02,7.888083159923553467e-02,-1.671280264854431152e-01,2.535381820052862167e-03,-2.272707037627696991e-02,-2.103832177817821503e-02,-1.272310689091682434e-02,-2.947891503572463989e-02,7.238785922527313232e-02,-1.413233429193496704e-01,3.132949396967887878e-02,-9.577226638793945312e-02,5.963468179106712341e-02,-7.268626987934112549e-02,-1.418057922273874283e-02,7.216913253068923950e-02,2.333071455359458923e-02,-4.178201779723167419e-02,6.370685994625091553e-03,2.602078951895236969e-02,-7.763217389583587646e-02,2.033229358494281769e-02,-4.478260129690170288e-02,1.532304733991622925e-01,2.901145815849304199e-02,3.910199925303459167e-02,-5.517571046948432922e-02,-5.247036367654800415e-02,-3.905523940920829773e-02,8.493810892105102539e-03,1.345206499099731445e-01,6.988985463976860046e-03,-3.116773813962936401e-02,-1.059668958187103271e-01,-5.629302933812141418e-02,-8.166112005710601807e-03,-5.155439022928476334e-03,3.264711704105138779e-03,6.150063592940568924e-03,-1.381742209196090698e-01,-1.970295561477541924e-03,-3.041276475414633751e-03,-1.648993603885173798e-02,-3.017021575942635536e-03,3.753194585442543030e-02,7.098733633756637573e-02,8.117336779832839966e-03,-4.235122352838516235e-02,-5.742628127336502075e-03,-9.806697256863117218e-03,8.360248059034347534e-02,9.075942449271678925e-03,-6.060330662876367569e-03,1.940050511620938778e-03,-8.160803467035293579e-02,-1.117674335837364197e-01,-1.307235360145568848e-01,8.953650295734405518e-02,1.276391185820102692e-02,9.842037409543991089e-02,-1.255750954151153564e-01,-3.204519674181938171e-02,-1.822411641478538513e-02,1.563701033592224121e-01,1.604792661964893341e-02,1.704391986131668091e-01,-1.260387152433395386e-01,7.249654084444046021e-02,-2.763562835752964020e-02,-1.701917644822970033e-04,-1.143898442387580872e-02,-7.973543251864612103e-04,1.126544475555419922e-01,1.053499132394790649e-01,-2.051162719726562500e-02,-8.140749484300613403e-02,-4.874032735824584961e-02,5.395838990807533264e-02,-7.926427572965621948e-02,7.515696436166763306e-02,-8.909793198108673096e-02,1.860580407083034515e-03,1.207468733191490173e-01,1.090112850069999695e-01,-9.772807359695434570e-02,2.702250704169273376e-02,9.477065503597259521e-02,1.085751503705978394e-01,-5.382231902331113815e-03,-2.045707404613494873e-02,-3.626165911555290222e-03,-8.280073851346969604e-02,1.105288136750459671e-02,-1.281717442907392979e-03,-1.617369651794433594e-01,6.327223032712936401e-02,3.878905624151229858e-02,4.413713142275810242e-02,2.026499062776565552e-02,6.397970020771026611e-02,-3.850699961185455322e-02,-2.672505378723144531e-02,-5.121792666614055634e-03,-3.368608281016349792e-02,1.083558239042758942e-02,6.248503923416137695e-02,-4.668937996029853821e-02,-1.692520268261432648e-02,-8.784441649913787842e-02,1.000837981700897217e-01,-1.609568484127521515e-02,-6.313946563750505447e-03,-5.118895694613456726e-02,-3.943549469113349915e-02,-7.566557824611663818e-02,-1.919307857751846313e-01,3.021241165697574615e-03,-2.211545407772064209e-02,1.062202733010053635e-02
1.189722493290901184e-02,6.051991507411003113e-02,6.539936363697052002e-02,-1.182162463665008545e-01,-2.555340342223644257e-02,-4.528157785534858704e-02,3.543032705783843994e-02,6.275495141744613647e-02,3.967432677745819092e-02,7.594921439886093140e-02,1.932002417743206024e-02,6.383304297924041748e-02,-9.338209033012390137e-02,-4.732106626033782959e-02,-1.351316422224044800e-01,-2.975486591458320618e-02,-4.253804683685302734e-02,-1.294492371380329132e-02,5.989187955856323242e-02,5.466832965612411499e-02,-2.419877424836158752e-02,-1.396220773458480835e-01,-1.500701904296875000e-02,-1.494943499565124512e-01,-3.973279893398284912e-02,-1.126573607325553894e-02,8.202316612005233765e-02,-4.071088880300521851e-02,-6.901078671216964722e-02,3.662517061457037926e-03,1.032300069928169250e-01,2.386537566781044006e-02,-3.715804964303970337e-02,-5.505779013037681580e-02,1.140264980494976044e-02,1.862403303384780884e-01,-3.534251078963279724e-02,-1.603268459439277649e-02,1.756724528968334198e-02,-6.070398539304733276e-02,1.550184041261672974e-01,3.176021855324506760e-03,1.735455542802810669e-02,-2.083347365260124207e-02,5.260665784589946270e-05,7.928593456745147705e-02,9.045594185590744019e-02,1.785504072904586792e-02,5.970244482159614563e-02,-1.097998544573783875e-01,8.532662689685821533e-02,5.738228559494018555e-02,1.367859393358230591e-01,6.216908618807792664e-02,-1.999862678349018097e-02,5.572202429175376892e-02,-1.413069516420364380e-01,-7.178738713264465332e-02,6.060329079627990723e-02,-1.113085355609655380e-02,6.266637146472930908e-02,1.055389922112226486e-02,5.083714425563812256e-02,2.166740596294403076e-02,9.050757437944412231e-02,5.500542744994163513e-02,-7.551673054695129395e-02,-5.444161966443061829e-02,3.894549980759620667e-02,5.960651114583015442e-02,7.407037168741226196e-02,8.138737827539443970e-02,3.787804394960403442e-02,-8.693999052047729492e-02,-8.457552641630172729e-02,-5.949559062719345093e-02,-2.559068845584988594e-03,-2.526325173676013947e-02,3.322488442063331604e-02,-4.327459260821342468e-02,-6.858827918767929077e-02,-4.791938140988349915e-02,-2.577517926692962646e-02,-8.273163810372352600e-03,1.184414029121398926e-01,8.085908740758895874e-02,-2.740826644003391266e-02,-3.781072096899151802e-03,5.781464651226997375e-02,-3.660229966044425964e-03,6.275668740272521973e-02,1.343684550374746323e-02,8.092437684535980225e-02,-3.245806694030761719e-02,1.371569186449050903e-01,-4.037315398454666138e-02,4.831562191247940063e-02,1.800931617617607117e-02,-2.987333759665489197e-02,5.052432417869567871e-03,9.732641279697418213e-02,3.172940015792846680e-02,-9.868604689836502075e-02,-4.259249195456504822e-02,-6.028936803340911865e-02,1.026970446109771729e-01,-6.358828395605087280e-02,2.442151308059692383e-03,7.859381847083568573e-03,7.329919934272766113e-02,1.110209971666336060e-01,3.351444378495216370e-02,2.614424005150794983e-02,-5.649886652827262878e-02,4.062463529407978058e-03,4.980954900383949280e-02,-2.826554514467716217e-02,-1.072892099618911743e-01,1.383433341979980469e-01,-7.016753405332565308e-02
1.296543702483177185e-02,1.507985144853591919e-01,2.643971890211105347e-02,8.344923704862594604e-02,2.180868685245513916e-01,-5.410113930702209473e-02,-9.093562513589859009e-02,-4.827254265546798706e-02,1.120134070515632629e-01,-8.879654109477996826e-03,-2.068705111742019653e-02,-1.370426471112295985e-04,-4.014215990900993347e-02,7.334487140178680420e-02,9.634120017290115356e-02,-1.850927323102951050e-01,-1.948743760585784912e-01,1.253612637519836426e-01,-7.197178155183792114e-02,2.621318697929382324e-01,2.186386846005916595e-02,1.226465255022048950e-01,-4.794111847877502441e-02,1.036805585026741028e-01,1.131427884101867676e-01,5.339186266064643860e-02,1.192043274641036987e-01,4.030042141675949097e-02,3.173450753092765808e-02,2.286136150360107422e-01,9.384116157889366150e-03,-3.809776902198791504e-02,-5.900004878640174866e-02,-4.370388388633728027e-02,-6.994402408599853516e-02,1.658297330141067505e-01,1.176699921488761902e-01,-8.734482526779174805e-02,3.690566495060920715e-02,-6.038116989657282829e-04,1.341263502836227417e-01,-1.754453927278518677e-01,1.749139726161956787e-01,-1.086750403046607971e-01,-2.250731289386749268e-01,1.313207000494003296e-01,-4.573455080389976501e-02,-8.106563240289688110e-03,1.999782174825668335e-01,1.378448158502578735e-01,-4.218487814068794250e-02,2.068674713373184204e-01,3.848684206604957581e-02,3.386070206761360168e-02,1.376578658819198608e-01,5.048403516411781311e-02,8.468072861433029175e-02,-7.879144698381423950e-02,1.057028211653232574e-02,-7.016164809465408325e-02,-9.529535472393035889e-02,-1.054018586874008179e-01,7.042405009269714355e-02,-1.840926334261894226e-02,-3.495906665921211243e-02,-5.680851265788078308e-02,4.887827858328819275e-02,-1.746413707733154297e-01,6.015023589134216309e-02,1.603323593735694885e-02,1.193214114755392075e-02,1.409197300672531128e-01,-1.990896165370941162e-01,-3.114292584359645844e-02,5.416914075613021851e-02,-2.329597026109695435e-01,2.122540026903152466e-02,3.385057300329208374e-02,1.719212532043457031e-01,-1.948264092206954956e-01,-1.548247486352920532e-01,1.806809157133102417e-01,7.545658946037292480e-02,-1.417431682348251343e-01,-2.021942660212516785e-02,-1.216560602188110352e-01,1.722823083400726318e-01,-3.374933823943138123e-02,-1.378209330141544342e-02,9.046351164579391479e-02,1.672279536724090576e-01,-7.498089969158172607e-02,4.318343847990036011e-02,-7.003114372491836548e-02,-6.864766776561737061e-02,1.477756202220916748e-01,1.211268231272697449e-01,4.746122658252716064e-02,2.552602253854274750e-02,-8.498018980026245117e-02,-1.358925849199295044e-01,-6.844034790992736816e-02,-7.432864606380462646e-02,1.456942558288574219e-01,-5.720455572009086609e-02,1.291580945253372192e-01,-1.117486059665679932e-01,-1.310572177171707153e-01,-1.674052476882934570e-01,-1.196450963616371155e-01,-8.860242366790771484e-02,-1.685840338468551636e-01,-8.534251153469085693e-02,8.843009918928146362e-02,1.179533302783966064e-01,-3.079281374812126160e-02,8.288554847240447998e-02,1.876371949911117554e-01,-1.213292311877012253e-02,1.599180884659290314e-02
1.160510107874870300e-01,-6.559070944786071777e-02,3.418767452239990234e-02,5.339673906564712524e-02,-1.459133811295032501e-02,-4.503496456891298294e-03,1.372370962053537369e-02,-8.537744730710983276e-02,4.463912919163703918e-03,9.963143616914749146e-02,4.822755232453346252e-03,-5.827618017792701721e-02,5.930182058364152908e-03,7.043169438838958740e-02,8.265847340226173401e-03,-1.933377608656883240e-02,-4.465846717357635498e-02,-8.125095628201961517e-03,1.757433451712131500e-02,-7.242005318403244019e-02,-1.743238419294357300e-02,-2.831689082086086273e-02,-5.083493888378143311e-02,-2.066483795642852783e-01,-5.497892573475837708e-02,-6.033712625503540039e-02,9.609246253967285156e-02,-8.160801976919174194e-02,-3.649025037884712219e-02,-6.936425715684890747e-02,-8.771308511495590210e-02,8.877061307430267334e-02,3.316385298967361450e-02,-1.761427894234657288e-02,-8.794392645359039307e-02,-1.273212581872940063e-01,-4.293183237314224243e-02,-3.173437714576721191e-02,-9.108173660933971405e-03,3.650793433189392090e-02,1.005881801247596741e-01,2.025332488119602203e-02,-2.044766023755073547e-02,1.064431481063365936e-02,-4.931278899312019348e-02,4.810763895511627197e-02,8.547140657901763916e-02,-1.828913390636444092e-02,-3.937111049890518188e-02,-4.995198175311088562e-02,-3.951494395732879639e-02,8.973765373229980469e-02,1.523491442203521729e-01,3.922973945736885071e-02,1.246509477496147156e-01,-6.916823238134384155e-02,3.942771628499031067e-02,4.172676801681518555e-02,8.805974572896957397e-02,-8.346463739871978760e-02,-5.348952021449804306e-03,-2.170558460056781769e-02,-2.355904132127761841e-02,1.416389551013708115e-02,-9.997530281543731689e-02,6.664848886430263519e-03,1.191303804516792297e-01,3.698113560676574707e-02,3.102006390690803528e-02,-1.532967016100883484e-02,-8.165451139211654663e-02,2.543180249631404877e-03,5.318850278854370117e-02,1.984463632106781006e-02,1.459939479827880859e-01,1.607774943113327026e-02,5.719975382089614868e-02,9.297931194305419922e-02,1.989061199128627777e-02,-1.895668730139732361e-02,-7.618633657693862915e-02,-8.425527811050415039e-02,-2.021359838545322418e-02,-1.115056406706571579e-02,1.832358166575431824e-02,1.061100512742996216e-01,1.211993489414453506e-02,1.185601800680160522e-01,7.474031299352645874e-02,3.565987944602966309e-02,9.514441341161727905e-02,2.752293273806571960e-02,-6.951082497835159302e-02,-3.478663787245750427e-02,-1.531378552317619324e-02,-7.012479007244110107e-02,1.572398841381072998e-02,1.016277540475130081e-02,-2.164694294333457947e-02,-9.999860078096389771e-03,-7.398058474063873291e-02,-8.601073920726776123e-02,1.055100485682487488e-01,7.562225311994552612e-02,-3.904195502400398254e-02,-1.498839631676673889e-02,6.593995541334152222e-02,-8.067212998867034912e-02,-1.165210269391536713e-02,5.973124876618385315e-02,9.823308140039443970e-02,4.054654017090797424e-02,1.320396065711975098e-01,-9.986770153045654297e-02,-3.722501546144485474e-02,-4.168315976858139038e-02,1.323930621147155762e-01,-8.228880167007446289e-02,6.211811560206115246e-04,-1.436603665351867676e-01
-8.164833486080169678e-02,-1.117449477314949036e-01,-3.345025330781936646e-02,-9.202618151903152466e-02,-1.851979047060012817e-01,6.626988947391510010e-02,-6.649478524923324585e-02,1.672399193048477173e-01,-1.134581714868545532e-01,3.458985313773155212e-02,-7.279392331838607788e-02,-1.051159799098968506e-01,-2.059077471494674683e-02,-8.642461150884628296e-02,2.473615482449531555e-02,1.209984123706817627e-01,-3.001727350056171417e-02,-4.039587825536727905e-02,-1.328021436929702759e-01,-9.497574716806411743e-02,3.260895982384681702e-02,-3.087137639522552490e-02,1.394391208887100220e-01,1.133596822619438171e-01,5.033391341567039490e-02,-6.943637132644653320e-02,3.186457231640815735e-02,7.860537618398666382e-02,-2.163656204938888550e-01,9.334536641836166382e-02,1.612904220819473267e-01,5.040175840258598328e-02,-1.687552034854888916e-01,1.243503242731094360e-01,-2.513823807239532471e-01,2.887071371078491211e-01,2.596973478794097900e-01,1.287104934453964233e-01,-1.833544224500656128e-01,-1.403985768556594849e-01,9.975020587444305420e-02,1.319965999573469162e-02,-2.997030038386583328e-03,-3.889694064855575562e-02,-1.906445808708667755e-02,5.710237473249435425e-02,-5.609820038080215454e-02,-8.540082722902297974e-02,-9.001697599887847900e-02,-1.114260926842689514e-01,8.273726701736450195e-02,-2.082646489143371582e-01,-7.157698273658752441e-02,-1.844251900911331177e-01,-7.044390775263309479e-03,-8.052017539739608765e-02,1.374107226729393005e-02,1.050518155097961426e-01,-1.305813342332839966e-01,-9.822820872068405151e-02,9.381260722875595093e-02,3.333300584927201271e-03,6.679429113864898682e-02,-5.697873979806900024e-02,-6.745922565460205078e-02,2.468112111091613770e-01,-1.060708165168762207e-01,-2.531210891902446747e-02,9.185606241226196289e-02,2.196794934570789337e-02,-1.362281590700149536e-01,-1.393270790576934814e-01,7.902203500270843506e-02,5.483968183398246765e-02,-1.780721358954906464e-02,9.070657193660736084e-02,1.904536336660385132e-01,1.761908829212188721e-01,1.004400700330734253e-01,-4.425243288278579712e-02,8.458168245851993561e-03,1.555833518505096436e-01,-5.299227312207221985e-03,6.958296895027160645e-02,6.138563901185989380e-02,-1.248910501599311829e-01,7.761704921722412109e-02,5.204921588301658630e-03,8.389953523874282837e-02,-1.220934987068176270e-01,-1.797596663236618042e-01,-1.710268482565879822e-02,-1.158761009573936462e-01,-7.339842617511749268e-02,-7.191609125584363937e-03,-6.148164346814155579e-02,1.342433989048004150e-01,-6.194278970360755920e-02,1.206486951559782028e-02,-4.692651797086000443e-03,-1.492691934108734131e-01,1.985994279384613037e-01,-1.598510742187500000e-01,1.424625962972640991e-01,-6.639313697814941406e-02,-2.552395872771739960e-02,1.065672934055328369e-01,1.675926297903060913e-01,-5.180757492780685425e-02,1.035128757357597351e-01,-8.739185333251953125e-02,2.867208793759346008e-02,1.006118953227996826e-01,-9.464121423661708832e-03,-9.251173585653305054e-02,-2.459774538874626160e-02,-4.897614195942878723e-02,-6.619621813297271729e-02,-1.515522450208663940e-01,-1.108035147190093994e-01
1.443347483873367310e-01,3.625656291842460632e-02,1.730924355797469616e-03,-5.383257195353507996e-02,8.629671297967433929e-03,-3.708559088408946991e-03,-6.496048718690872192e-02,-1.245597377419471741e-01,1.597631908953189850e-02,9.870197623968124390e-02,1.330533921718597412e-01,3.022945672273635864e-02,-3.155141836032271385e-03,8.616730570793151855e-03,-7.155827432870864868e-02,1.103484164923429489e-02,1.178773306310176849e-02,-1.500628772191703320e-03,-2.929068170487880707e-03,2.022504620254039764e-02,9.494706988334655762e-03,-4.780037328600883484e-02,-7.465542107820510864e-02,-1.141120567917823792e-01,-6.106802076101303101e-02,4.517759382724761963e-02,-8.263792842626571655e-02,-2.177393995225429535e-02,7.169345021247863770e-02,-6.373047828674316406e-02,3.155896812677383423e-02,-5.338526889681816101e-02,-2.990933507680892944e-02,6.235468760132789612e-02,3.588828444480895996e-02,1.671759039163589478e-02,2.371381781995296478e-02,-9.263325482606887817e-02,1.370497047901153564e-02,-1.725444756448268890e-02,4.975066334009170532e-02,-1.163404528051614761e-02,3.008325211703777313e-02,5.325693264603614807e-02,-5.274059716612100601e-03,-5.552662536501884460e-02,4.252143949270248413e-02,2.578522637486457825e-02,-2.482565306127071381e-02,-6.592774391174316406e-02,3.291179984807968140e-02,-4.674103856086730957e-02,-4.280666261911392212e-02,4.584711790084838867e-02,8.187172561883926392e-02,-9.177859127521514893e-02,1.741866618394851685e-01,3.500923141837120056e-02,2.419333159923553467e-02,-1.652807369828224182e-02,-3.706365823745727539e-02,4.332768544554710388e-02,4.412525147199630737e-02,-4.102396313101053238e-03,5.952235311269760132e-02,-2.991038141772150993e-03,1.283154785633087158e-01,5.957001820206642151e-02,-1.729085110127925873e-02,1.242837756872177124e-01,-7.390061765909194946e-02,5.068327486515045166e-02,1.189364418387413025e-01,1.576660871505737305e-01,1.859323307871818542e-02,3.067605383694171906e-02,7.361663132905960083e-02,-2.672288753092288971e-02,1.168759092688560486e-01,-1.071854773908853531e-02,-1.351894587278366089e-01,6.486822664737701416e-02,-3.311306610703468323e-02,-5.105887353420257568e-02,2.170367352664470673e-02,-2.149541117250919342e-02,9.582162834703922272e-03,6.305925548076629639e-02,5.031740292906761169e-02,-5.811304599046707153e-02,-9.091364219784736633e-03,-1.657032966613769531e-02,1.671623252332210541e-02,4.752534627914428711e-02,-1.762472093105316162e-01,8.500980585813522339e-02,-1.047683507204055786e-02,1.840763539075851440e-02,-8.165431767702102661e-02,-1.342276670038700104e-02,-7.862896472215652466e-02,-6.276573240756988525e-02,-5.588284227997064590e-03,-5.133984144777059555e-03,9.245190024375915527e-02,-4.616181552410125732e-02,-2.220393344759941101e-02,-7.271502166986465454e-02,-1.823305524885654449e-02,-9.538452723063528538e-04,1.310042571276426315e-02,-5.268225073814392090e-02,3.925856202840805054e-02,-9.342923760414123535e-02,-2.251433022320270538e-02,3.583659604191780090e-02,1.013638153672218323e-01,7.329169660806655884e-02,7.116028666496276855e-02,9.755563735961914062e-02
-6.195993628352880478e-03,-2.622267976403236389e-02,1.029529944062232971e-01,-5.994556471705436707e-02,3.341640112921595573e-03,-6.000937521457672119e-02,2.196416072547435760e-02,1.125315874814987183e-01,-1.757576013915240765e-03,1.117771789431571960e-01,-2.478403598070144653e-02,4.311430826783180237e-02,4.529605433344841003e-02,-1.298197638243436813e-02,1.059001907706260681e-01,-4.401674494147300720e-02,2.569565735757350922e-02,-1.764914765954017639e-02,3.288608044385910034e-02,-1.024250090122222900e-01,1.705293171107769012e-02,5.264111980795860291e-02,7.413130253553390503e-02,-2.961897663772106171e-02,1.946596615016460419e-02,2.113783359527587891e-02,-4.004885256290435791e-02,8.100067824125289917e-02,7.107128947973251343e-02,-3.725068271160125732e-02,1.152692809700965881e-01,6.147117167711257935e-02,1.305215526372194290e-02,6.523882597684860229e-02,3.850806131958961487e-02,2.416489645838737488e-02,1.503444276750087738e-02,7.863532751798629761e-03,8.920530788600444794e-03,6.972193717956542969e-02,6.896609067916870117e-02,1.366295479238033295e-02,9.569483250379562378e-02,-2.667899010702967644e-03,-1.257107965648174286e-02,-8.555442094802856445e-02,3.727233409881591797e-02,4.918435215950012207e-02,6.023548915982246399e-02,1.095874514430761337e-02,7.879109680652618408e-02,1.012732908129692078e-01,6.711614131927490234e-02,-9.521838277578353882e-02,4.842131957411766052e-02,7.162693887948989868e-02,3.263121470808982849e-02,1.730327494442462921e-02,-1.274917870759963989e-01,3.398927673697471619e-02,-1.603039354085922241e-02,2.736242488026618958e-02,3.367855970282107592e-04,-3.922669216990470886e-02,-6.333135068416595459e-02,-5.317328870296478271e-02,-3.948419820517301559e-03,2.392350137233734131e-02,-1.437806989997625351e-02,7.189853489398956299e-02,4.661102220416069031e-02,-2.281191386282444000e-02,-6.254285573959350586e-02,6.595633924007415771e-02,1.394050661474466324e-02,5.257271602749824524e-02,3.030205378308892250e-03,-4.576188325881958008e-02,3.202218189835548401e-02,8.349833637475967407e-02,-6.616922467947006226e-02,-5.106435716152191162e-02,-1.373149361461400986e-02,-3.459441661834716797e-02,-1.005544792860746384e-02,-5.211866460740566254e-03,6.675474345684051514e-02,-6.333048641681671143e-02,-5.131114646792411804e-02,-5.757348611950874329e-03,-4.807017371058464050e-02,-1.277274359017610550e-02,4.076509922742843628e-02,3.371031209826469421e-02,-2.467782935127615929e-03,1.831029355525970459e-02,-2.040178142488002777e-02,2.375490032136440277e-02,-5.250458139926195145e-03,-8.980908989906311035e-02,9.121965616941452026e-03,7.910162955522537231e-02,2.443238161504268646e-02,5.082523077726364136e-02,2.820413373410701752e-02,9.613227844238281250e-02,-8.249621838331222534e-02,2.358112297952175140e-02,-1.109435688704252243e-02,3.047763742506504059e-02,7.633123546838760376e-02,2.009745240211486816e-01,-5.419127643108367920e-02,1.968685388565063477e-01,-2.983261272311210632e-02,1.908259280025959015e-02,3.109238669276237488e-02,1.271119434386491776e-02,-5.626814067363739014e-02,5.258379876613616943e-02
3.538744524121284485e-02,-1.101174112409353256e-02,-2.560435421764850616e-02,-2.998286485671997070e-02,-3.577794646844267845e-03,1.364044286310672760e-02,1.201478093862533569e-01,-1.204620525240898132e-01,-4.044067580252885818e-03,1.729579642415046692e-02,1.091741770505905151e-01,-1.282201521098613739e-02,-1.249688938260078430e-01,5.281509459018707275e-02,2.859498374164104462e-02,8.007353171706199646e-03,3.318026289343833923e-02,-2.432126086205244064e-03,-2.311774902045726776e-02,2.141724899411201477e-02,5.638509616255760193e-02,-4.479441046714782715e-02,-2.381370589137077332e-02,7.868722081184387207e-02,-9.019394218921661377e-02,-9.437435306608676910e-03,4.276711028069257736e-03,5.435366556048393250e-02,1.163521483540534973e-01,3.201217204332351685e-02,-2.407231181859970093e-02,-6.174084846861660480e-04,2.245401032269001007e-02,6.399732083082199097e-02,2.557206153869628906e-02,-1.383634805679321289e-01,1.233669649809598923e-02,4.094755649566650391e-02,1.309135346673429012e-03,-7.452370971441268921e-02,8.198992908000946045e-02,1.259232498705387115e-02,1.390418130904436111e-02,9.854270145297050476e-03,1.775342598557472229e-02,7.654181867837905884e-02,-1.185481771826744080e-01,-1.759239286184310913e-02,-5.870993249118328094e-03,6.535145640373229980e-02,-1.338812112808227539e-01,8.506172150373458862e-02,-1.465649306774139404e-01,3.547361493110656738e-02,-1.194766238331794739e-01,-4.172567278146743774e-02,-4.518373310565948486e-02,1.397113353013992310e-01,-7.598316669464111328e-02,-2.864196896553039551e-02,-2.660235017538070679e-02,-4.742430610349401832e-05,-1.184495911002159119e-02,-1.377040520310401917e-02,-5.182155594229698181e-02,8.612153120338916779e-03,-6.963557098060846329e-03,7.681906968355178833e-02,-4.908704012632369995e-02,-1.660986542701721191e-01,-1.526572555303573608e-02,2.846467308700084686e-02,1.405179593712091446e-02,-1.455605477094650269e-01,9.814199805259704590e-02,9.339810349047183990e-03,4.130778461694717407e-02,8.813855797052383423e-02,-3.869695216417312622e-02,-4.733028262853622437e-02,-1.312315743416547775e-02,6.574475765228271484e-02,-8.894787169992923737e-03,-3.276323433965444565e-03,-2.617045491933822632e-02,-1.383105814456939697e-01,1.105324272066354752e-02,1.600075699388980865e-02,3.504719585180282593e-03,9.914602153003215790e-03,7.616109400987625122e-02,2.428761124610900879e-02,-5.014503374695777893e-03,6.727303564548492432e-02,3.723439201712608337e-02,5.856980383396148682e-02,1.302771084010601044e-02,1.012840867042541504e-02,2.698888815939426422e-02,-3.779380768537521362e-02,5.535586737096309662e-03,-9.038097411394119263e-02,5.525545775890350342e-02,1.810595206916332245e-02,-1.213456876575946808e-02,-5.568281188607215881e-02,1.079500932246446609e-02,7.034969329833984375e-02,1.349154673516750336e-02,-9.639951586723327637e-02,-3.494077175855636597e-02,4.086307063698768616e-02,-1.054516877047717571e-03,-1.263386160135269165e-01,-3.665760532021522522e-02,-6.605684012174606323e-02,-5.906245112419128418e-02,-3.353397129103541374e-03,-6.552490592002868652e-02,6.869449745863676071e-03
-7.347855251282453537e-03,-1.649430245161056519e-01,-6.441213935613632202e-02,2.698636427521705627e-02,-1.050041019916534424e-01,-5.461291223764419556e-02,6.748314946889877319e-02,-8.353845030069351196e-02,-4.705798625946044922e-02,-9.948370605707168579e-02,-2.011293545365333557e-02,-7.345327734947204590e-02,-1.264537125825881958e-01,-4.738673195242881775e-02,1.506167203187942505e-01,-5.066452175378799438e-02,-3.812201693654060364e-02,-1.429330091923475266e-02,4.988783970475196838e-03,6.938028335571289062e-02,-1.966622173786163330e-01,-1.154706031084060669e-01,8.015953749418258667e-02,1.627599298954010010e-01,-1.070979535579681396e-01,-7.315139472484588623e-02,-1.834641247987747192e-01,-1.224592551589012146e-01,-5.453144386410713196e-02,-4.289700090885162354e-02,1.627401262521743774e-01,-1.231359094381332397e-01,1.647531390190124512e-01,1.007749736309051514e-01,-1.043986380100250244e-01,-5.179616063833236694e-02,-1.038725301623344421e-02,1.397204548120498657e-01,1.223614141345024109e-01,-1.241211965680122375e-01,2.767600491642951965e-02,4.229228477925062180e-03,-1.431781500577926636e-01,1.494481116533279419e-01,-1.400181055068969727e-01,2.587885260581970215e-01,3.530864790081977844e-02,1.258494555950164795e-01,-6.873626261949539185e-02,3.691633418202400208e-02,5.361923202872276306e-02,5.066502094268798828e-02,-3.020286373794078827e-02,1.724210381507873535e-01,-8.424862474203109741e-02,5.350795388221740723e-02,-9.386452287435531616e-02,3.594393655657768250e-02,1.261114329099655151e-01,1.566161960363388062e-01,2.399690076708793640e-02,9.688583016395568848e-02,-5.843495205044746399e-02,1.590952128171920776e-01,-2.340381266549229622e-03,9.053224325180053711e-02,1.535519808530807495e-01,-1.543374806642532349e-01,3.990910574793815613e-02,1.603044867515563965e-01,-1.110957786440849304e-01,2.640970647335052490e-01,-6.149448454380035400e-02,-1.197255998849868774e-01,2.680796980857849121e-01,-7.842712104320526123e-02,-1.399098336696624756e-01,1.484224200248718262e-01,1.124782115221023560e-01,-7.632352411746978760e-02,6.561396270990371704e-02,9.956875443458557129e-02,2.085642889142036438e-03,4.896047711372375488e-02,3.815843537449836731e-02,1.844964362680912018e-02,8.111133426427841187e-02,9.467441588640213013e-03,1.878501847386360168e-02,1.011623442173004150e-02,-1.861757934093475342e-01,3.903030231595039368e-02,-1.474998146295547485e-01,2.248670905828475952e-01,6.201566010713577271e-02,-7.360420376062393188e-02,-1.886703521013259888e-01,-1.378866434097290039e-01,-4.994397610425949097e-02,1.188248097896575928e-01,9.673286974430084229e-02,-3.086890876293182373e-01,-1.780354976654052734e-01,-8.789905905723571777e-02,-2.181832306087017059e-02,-1.480300575494766235e-01,-2.602711915969848633e-01,2.212709560990333557e-02,3.628653287887573242e-02,1.651877537369728088e-03,3.672445192933082581e-02,7.829889655113220215e-02,1.177797168493270874e-01,9.053888171911239624e-02,9.790080785751342773e-02,3.797181695699691772e-02,-6.416699290275573730e-02,-9.762646257877349854e-02,1.636300534009933472e-01,8.300773054361343384e-02
1.069688610732555389e-02,-9.893254190683364868e-02,-1.496391594409942627e-01,-1.069965064525604248e-01,-1.533097326755523682e-01,1.189988702535629272e-01,-2.202289924025535583e-02,-8.361638337373733521e-02,-4.671937599778175354e-02,3.592014685273170471e-02,1.924341358244419098e-02,7.943742722272872925e-02,-2.488301834091544151e-03,-1.813039928674697876e-01,-1.431002318859100342e-01,2.933628261089324951e-01,1.936217844486236572e-01,4.168011620640754700e-02,-2.077248692512512207e-01,2.154886722564697266e-01,-2.180953323841094971e-02,7.475492358207702637e-02,-1.951751112937927246e-01,-1.112099140882492065e-01,2.189528346061706543e-01,-2.441198565065860748e-02,8.536597341299057007e-02,-6.869640946388244629e-02,-6.978622078895568848e-02,-8.510187268257141113e-02,2.579508908092975616e-02,2.251082099974155426e-02,1.275996714830398560e-01,-7.191421091556549072e-02,-1.140870004892349243e-01,-1.218497976660728455e-01,8.106567710638046265e-02,2.105240225791931152e-01,-2.885480225086212158e-02,-1.119819208979606628e-01,-4.247746616601943970e-02,8.128603547811508179e-02,3.241880610585212708e-02,1.532844156026840210e-01,1.704687774181365967e-01,-2.052602320909500122e-01,-1.002412810921669006e-01,-1.690331846475601196e-02,-3.819264471530914307e-02,9.027525037527084351e-02,-1.571947894990444183e-02,-1.058196052908897400e-01,1.276226490736007690e-01,-5.570993945002555847e-02,3.790646418929100037e-02,-5.524320155382156372e-02,1.759270429611206055e-01,3.257072344422340393e-02,2.157183140516281128e-01,7.369545102119445801e-02,1.221079528331756592e-01,-5.569727160036563873e-03,-1.828382760286331177e-01,1.000720411539077759e-01,3.270801156759262085e-02,-6.720698624849319458e-02,-5.602824315428733826e-02,5.163679365068674088e-03,-1.315373647958040237e-02,5.390955880284309387e-02,-1.038640812039375305e-01,-5.490567907691001892e-02,1.753241568803787231e-01,1.509966142475605011e-02,5.311174690723419189e-02,-2.599607966840267181e-02,-8.893182128667831421e-02,1.603090763092041016e-01,-9.529434144496917725e-02,-2.602473646402359009e-02,-1.038541272282600403e-01,-1.991293281316757202e-01,-1.383582502603530884e-01,4.063619300723075867e-03,7.493407279253005981e-02,-2.387176901102066040e-01,-3.766955435276031494e-02,-6.600486487150192261e-02,9.014623612165451050e-02,9.729728102684020996e-02,-2.005901932716369629e-01,1.611518301069736481e-02,-1.681798100471496582e-01,9.141910821199417114e-02,2.080849707126617432e-01,1.940879374742507935e-01,-4.018049687147140503e-02,-4.322762042284011841e-02,-1.581902056932449341e-01,-1.612520515918731689e-01,1.432161498814821243e-02,7.318823784589767456e-02,1.624731123447418213e-01,-2.278749942779541016e-01,2.156512439250946045e-01,-7.035398390144109726e-03,-2.845823764801025391e-02,2.175948023796081543e-01,5.136064812541007996e-02,3.579902648925781250e-02,-7.725863158702850342e-02,-1.774973794817924500e-02,-3.435786068439483643e-02,-2.663884498178958893e-02,2.105578314512968063e-03,2.001420855522155762e-01,1.451662927865982056e-01,-7.546322047710418701e-02,-9.393746033310890198e-03,4.500807076692581177e-02
-5.143357068300247192e-02,-2.063567377626895905e-02,6.927591562271118164e-02,4.634964093565940857e-02,-4.143808409571647644e-02,7.899811118841171265e-02,1.662386953830718994e-01,-2.088646739721298218e-01,2.162672951817512512e-02,7.690642029047012329e-03,-6.744392216205596924e-02,-1.861496865749359131e-01,-1.111786216497421265e-01,2.079536765813827515e-01,8.408721536397933960e-02,-1.043327376246452332e-01,-2.184282988309860229e-01,2.237351685762405396e-01,1.003653407096862793e-01,8.067003637552261353e-02,3.324740100651979446e-03,1.576758772134780884e-01,1.431600600481033325e-01,-1.099706068634986877e-01,-1.894920468330383301e-01,5.453946441411972046e-02,-1.664962060749530792e-02,-1.242167502641677856e-01,-6.073937937617301941e-02,1.290469467639923096e-01,-4.164570197463035583e-02,1.825667321681976318e-01,3.151634335517883301e-02,6.513829529285430908e-02,3.034136071801185608e-02,-8.989235758781433105e-02,-1.739851236343383789e-01,-5.743550136685371399e-02,2.492837235331535339e-02,-9.934270381927490234e-02,1.415416598320007324e-02,-8.744172751903533936e-02,-8.865126967430114746e-02,-9.832316637039184570e-02,-1.366942226886749268e-01,-2.493442967534065247e-02,1.747764050960540771e-01,1.370718628168106079e-01,2.040852308273315430e-01,1.742483675479888916e-01,-2.023577392101287842e-01,-3.833378851413726807e-02,1.488257944583892822e-01,-1.847956562414765358e-03,-1.608117222785949707e-01,9.122390300035476685e-02,1.265755444765090942e-01,-7.452953606843948364e-02,-1.113353073596954346e-01,-1.453434973955154419e-01,-8.583401143550872803e-02,1.835969537496566772e-01,1.775768697261810303e-01,-1.970402002334594727e-01,9.707169234752655029e-02,-3.747155144810676575e-02,-6.760335713624954224e-02,-1.332020163536071777e-01,-7.506587356328964233e-02,-3.219640627503395081e-02,1.577732414007186890e-01,8.472479134798049927e-02,9.560259431600570679e-02,-7.675246451981365681e-04,4.017107188701629639e-02,-2.321226447820663452e-01,-1.356001645326614380e-01,-8.489495515823364258e-02,1.126080974936485291e-01,-9.565438143908977509e-03,-6.282444298267364502e-02,2.305840700864791870e-01,1.798698157072067261e-01,3.481492400169372559e-02,9.698547422885894775e-02,3.653080016374588013e-02,2.453028596937656403e-02,-9.037561714649200439e-03,-5.743979662656784058e-02,6.440885365009307861e-02,9.174626320600509644e-02,1.215602606534957886e-01,-8.719903975725173950e-02,6.612190604209899902e-02,-1.674546152353286743e-01,-7.420072704553604126e-02,1.219313144683837891e-01,-6.612166762351989746e-02,1.966178566217422485e-01,-9.208481013774871826e-02,3.347568958997726440e-02,1.551285237073898315e-01,-1.237604618072509766e-01,6.668846309185028076e-02,-1.189480125904083252e-01,6.602065265178680420e-02,-1.023175343871116638e-01,-1.334858834743499756e-01,6.262218952178955078e-02,-1.949181109666824341e-01,-6.541738752275705338e-03,-1.416957527399063110e-01,2.475206367671489716e-02,-1.274902522563934326e-01,9.389867633581161499e-02,-1.743392497301101685e-01,-1.634490936994552612e-01,1.730842143297195435e-01,-5.902593582868576050e-02,8.927205950021743774e-02
1.811570972204208374e-01,-1.312812268733978271e-01,9.841240197420120239e-02,-7.558629661798477173e-02,-2.177515439689159393e-02,1.010106503963470459e-01,-9.572631120681762695e-02,1.941424161195755005e-01,-1.263793855905532837e-01,-2.854375913739204407e-02,9.348689764738082886e-02,3.830734267830848694e-02,5.477194860577583313e-02,8.199757337570190430e-02,-1.283884644508361816e-01,1.621628254652023315e-01,1.093475520610809326e-01,-1.662954390048980713e-01,-1.145541816949844360e-01,1.077127605676651001e-01,-1.281851083040237427e-01,-1.130778193473815918e-01,-9.769999980926513672e-02,1.612545102834701538e-01,6.053894758224487305e-03,-1.963157504796981812e-01,-2.319191694259643555e-01,-6.296165287494659424e-02,-1.672278530895709991e-02,2.883568592369556427e-02,7.843122817575931549e-03,-2.581730298697948456e-02,1.648557931184768677e-01,1.368527263402938843e-01,2.827135659754276276e-02,-2.211789228022098541e-02,-8.907200396060943604e-02,1.744387894868850708e-01,1.529432386159896851e-01,2.702473402023315430e-01,1.890480518341064453e-01,-1.391745507717132568e-01,-1.941551119089126587e-01,-8.039566874504089355e-02,-6.173316761851310730e-02,1.400732696056365967e-01,-1.459492444992065430e-01,3.209486138075590134e-03,-1.098379567265510559e-01,6.303605437278747559e-02,-7.306034862995147705e-02,9.807302802801132202e-02,-1.313286721706390381e-01,1.532628685235977173e-01,5.528202280402183533e-02,7.431757450103759766e-02,-6.122920289635658264e-02,-1.392053216695785522e-01,-7.044173777103424072e-02,-5.316395685076713562e-02,8.317653834819793701e-02,-2.192167639732360840e-01,-1.292379051446914673e-01,1.669614315032958984e-01,1.254431158304214478e-01,5.245617032051086426e-02,1.467823865823447704e-03,-1.147635281085968018e-01,1.046150922775268555e-01,2.544572353363037109e-01,-1.213469579815864563e-01,4.902518913149833679e-02,-4.538327921181917191e-03,-9.907393902540206909e-02,1.469879895448684692e-01,8.857610821723937988e-02,-1.768788322806358337e-02,1.105712540447711945e-02,-1.171365007758140564e-01,1.924671530723571777e-01,4.235154390335083008e-02,-4.002548381686210632e-02,-1.003158017992973328e-01,1.529436558485031128e-01,-1.396136134862899780e-01,2.373864203691482544e-01,-1.153688062913715839e-03,4.504193493630737066e-04,-1.576661467552185059e-01,3.123234212398529053e-02,-8.289115130901336670e-02,8.063083887100219727e-02,2.442995011806488037e-01,7.914967834949493408e-02,-1.388791799545288086e-01,-5.691461637616157532e-02,-6.216649711132049561e-02,-1.139086410403251648e-01,-4.056338593363761902e-02,1.645555049180984497e-01,9.653957188129425049e-02,-1.681488938629627228e-02,-1.165929362177848816e-01,2.458386681973934174e-02,-1.395779401063919067e-01,6.100254133343696594e-02,1.129063591361045837e-01,6.917105615139007568e-02,1.644502580165863037e-01,-1.010133028030395508e-01,2.308097779750823975e-01,2.393913120031356812e-01,-1.056357473134994507e-01,-3.898370265960693359e-02,1.022333726286888123e-01,-8.865667134523391724e-02,-1.242062002420425415e-01,-6.781408190727233887e-02,1.933123171329498291e-01,7.521301507949829102e-02
-7.900626398622989655e-03,-6.451804935932159424e-02,-5.737869441509246826e-02,6.568525731563568115e-02,-1.911144703626632690e-02,-8.226201869547367096e-03,-1.452618092298507690e-01,3.678766638040542603e-02,2.475879713892936707e-02,-6.820083409547805786e-02,-8.102854341268539429e-02,-1.244805157184600830e-01,-1.139957755804061890e-01,9.798830747604370117e-02,6.588808447122573853e-02,-4.504173621535301208e-02,-6.477506458759307861e-02,2.364904619753360748e-02,3.670151904225349426e-02,1.332424879074096680e-01,-3.530540689826011658e-02,8.053822070360183716e-02,3.486684337258338928e-02,6.723440438508987427e-02,-6.212782487273216248e-02,-7.282880693674087524e-02,5.494435504078865051e-02,-3.314944356679916382e-02,5.274933576583862305e-02,-7.741294801235198975e-02,-4.235373064875602722e-02,1.606215536594390869e-01,-6.346994638442993164e-02,1.189074665307998657e-02,-5.461182072758674622e-02,-2.771119959652423859e-02,-5.397220142185688019e-03,-6.415276229381561279e-02,1.547980494797229767e-02,-4.381655156612396240e-02,-2.743538934737443924e-03,2.859896048903465271e-02,5.332525074481964111e-02,7.702447939664125443e-03,-3.518149256706237793e-02,1.036258488893508911e-01,8.133464306592941284e-02,-7.092669256962835789e-04,3.152471326757222414e-04,-4.171939194202423096e-02,1.073663085699081421e-01,-2.174197696149349213e-02,5.858202278614044189e-02,-1.217781659215688705e-02,3.975947201251983643e-02,-2.129167318344116211e-02,-5.803030729293823242e-02,-3.493885695934295654e-02,3.415001183748245239e-02,-2.576263993978500366e-02,5.853531137108802795e-02,-8.730891346931457520e-02,1.294461935758590698e-01,-4.773020045831799507e-04,6.651581078767776489e-02,-2.716896496713161469e-02,2.089860662817955017e-02,1.916566397994756699e-03,6.172926723957061768e-02,-3.980450704693794250e-02,2.193094789981842041e-02,-1.857037544250488281e-01,-4.303969908505678177e-03,1.351246833801269531e-01,1.070344522595405579e-01,-5.072598159313201904e-02,-5.323137738741934299e-04,-8.881809562444686890e-02,5.141653865575790405e-02,-3.312904760241508484e-02,2.052666619420051575e-02,-6.895748525857925415e-02,-3.012572415173053741e-02,-1.164112612605094910e-01,9.865767508745193481e-02,-1.043529063463211060e-01,6.236346065998077393e-02,-2.248496375977993011e-02,-4.771010484546422958e-03,2.731095813214778900e-02,-8.491692692041397095e-02,-2.014251053333282471e-02,1.426122337579727173e-01,4.179049655795097351e-02,-1.193590238690376282e-01,7.836891710758209229e-02,-9.054099209606647491e-03,5.769320949912071228e-02,-4.931948706507682800e-02,2.353009022772312164e-02,5.441452935338020325e-02,3.562228754162788391e-02,-9.753419458866119385e-02,5.986981093883514404e-02,1.157036647200584412e-01,4.375135060399770737e-03,-3.110473975539207458e-02,7.130172848701477051e-02,-2.910233102738857269e-02,-8.648265153169631958e-03,5.656195804476737976e-02,5.571286380290985107e-02,1.217102408409118652e-01,6.956971436738967896e-02,2.630322938784956932e-03,2.764845266938209534e-02,7.404765486717224121e-02,-1.023657023906707764e-01,5.094483960419893265e-03,1.245085820555686951e-01
