-2.9219690672686460253
-2.8511538409264089999
2.4361481918442451367
2.7442921503505810499
-2.0989332652076435615
2.8146146701011591773
1.6126021241568173625
-2.0668548653078402388
2.1596277736229207989
-1.1112648722926026235
2.6138298019868648758
-1.698155904096641633
-1.1228928187661915139
1.1398929258974606071
-1.1731525362950181446
-2.1933400810590661933
2.1004414045995938309
1.7444312573240143838
1.5408113885053000836
-2.3853326037528552739
-1.4997376099919610404
-1.9011814051180353502
-1.9244173671856841246
-1.509499204294471042
2.1585022597713003911
1.3228103698715618641
-1.7074394286939660326
1.5224606241693210418
-0.61335193301449586478
-1.7800520001277491122
1.0131254293926557075
-1.4400710823967100005
-0.96618744245258003644
-0.15472026368769406512
-0.14437125621229390804
-0.36324085938428740672
0.022977448814643735425
0.12489783211246263672
-1.3450333891169063971
-0.86825130370258696288
0.22166267848864165679
-0.1367217692880932367
-0.11135265120707728281
0.081734713966070335345
0.27175672943505069235
0.10838813689446774591
0.099337700346427013076
0.0022901594444507998929
0.0022483366783975669394
-0.084491267515205414895
-0.61141711780755580996
0.14436275125138728348
-0.11143631312029235458
0.15617942952148250457
0.061414971925206875147
0.29256504156029300434
-0.83982882184515172952
-0.11354935182398025184
-0.058503255074566093419
1.7657315613950845812
-0.46573830899691165408
-0.82779389741175479767
-1.345488522465644543
0.64195728497818782543
-0.82944800757610004371
1.1146937847034672497
-0.70001904899333056154
-1.5954910443648697704
-1.3856787325122894572
1.2193010977645961646
1.5321084521533125944
-1.8710788389084462846
1.270144557147429909
1.7216430851012505254
-0.83249624981025638348
-1.3333623291389846699
-0.96800012877625862817
-1.4482578587339749454
1.3970793058970105704
2.1617802306562348136
1.9449666284156410523
-1.1048194178637720242
1.0323685261550512582
5.2012437305428793621
-2.8304526211630487431
-1.2076137740956822686
-2.3981389048311494427
2.2569305120722988889
1.2485753169576250254
3.1465245049755083961
-2.4299039063995628851
1.9499826186797781791
-3.122276042064232815
2.9142200228763370795
2.1012207263485920272
2.2379062543895029691
2.7850521164573871502
-2.9399310154295767994
1.9347853755424120337
-3.5658795723696257163
