-1.158656179904937744e-01
-1.157650649547576904e-01
-7.827208936214447021e-02
-5.809431523084640503e-02
5.017220973968505859e-02
-9.790525585412979126e-02
7.014689594507217407e-02
8.260888606309890747e-02
-3.372699394822120667e-02
-5.570513010025024414e-02
7.286910712718963623e-02
1.666292846202850342e-01
-1.828206330537796021e-01
-2.468490749597549438e-01
1.237525790929794312e-02
-1.239208132028579712e-01
-1.084579750895500183e-01
1.659492701292037964e-01
4.163283854722976685e-03
2.295271605253219604e-01
-1.353312134742736816e-01
3.392871022224426270e-01
2.428147569298744202e-02
-7.858851552009582520e-02
1.929910480976104736e-01
3.684078902006149292e-02
1.914658695459365845e-01
1.139784455299377441e-01
9.562245011329650879e-02
-2.434885352849960327e-01
-1.071602031588554382e-01
1.508494168519973755e-01
-8.360362052917480469e-02
2.414080649614334106e-01
5.475909635424613953e-02
-8.596351742744445801e-02
-1.831993460655212402e-01
1.205644197762012482e-02
2.126824110746383667e-01
1.712076365947723389e-01
1.154844090342521667e-01
-1.125094220042228699e-01
-5.596674606204032898e-02
-1.751963943243026733e-01
-8.351570367813110352e-02
-2.914386391639709473e-01
-1.033454909920692444e-01
-6.444177031517028809e-02
1.444175839424133301e-01
-6.090148538351058960e-02
-7.326318323612213135e-02
-4.327010363340377808e-02
1.602311432361602783e-01
-1.712531149387359619e-01
-1.605210304260253906e-01
-2.634385041892528534e-02
1.482969969511032104e-01
2.465418130159378052e-01
-7.990481331944465637e-03
-2.565013468265533447e-01
-4.247931763529777527e-02
-8.671893179416656494e-02
3.137363120913505554e-02
-6.508505344390869141e-02
2.661139667034149170e-01
-1.198710128664970398e-01
-3.610735014081001282e-02
-8.943574130535125732e-02
-1.046593207865953445e-02
-7.977851480245590210e-02
-4.549980163574218750e-02
1.106154844164848328e-01
-4.761410877108573914e-02
-9.273350238800048828e-02
-5.377566441893577576e-02
-1.550009250640869141e-01
2.117021679878234863e-01
1.133858263492584229e-01
1.337418854236602783e-01
-2.523554563522338867e-01
-1.355259567499160767e-01
6.027919799089431763e-02
-1.649879477918148041e-02
1.497184634208679199e-01
1.966486126184463501e-01
-7.937552034854888916e-02
-2.001015394926071167e-01
-1.140988096594810486e-01
-1.308221220970153809e-01
7.320671528577804565e-02
-2.285948991775512695e-01
-2.734270133078098297e-02
-5.161508172750473022e-02
2.043052911758422852e-01
-1.346757262945175171e-01
3.782351315021514893e-02
-1.021928340196609497e-01
1.138821095228195190e-01
4.174011573195457458e-02
7.636801153421401978e-02
1.585282087326049805e-01
1.097789332270622253e-01
-9.510421752929687500e-02
-1.442420184612274170e-01
1.374816000461578369e-01
1.547090709209442139e-01
1.509645134210586548e-01
-2.342671751976013184e-01
1.022058650851249695e-01
-9.001903980970382690e-02
-1.579946279525756836e-01
-1.390693783760070801e-01
-5.649432539939880371e-02
1.617576777935028076e-01
-9.318917989730834961e-02
-3.077472560107707977e-02
-1.496367622166872025e-02
-8.484601229429244995e-02
1.227510869503021240e-01
1.587877720594406128e-01
