8.544587530195713043e-03
-8.283236995339393616e-03
1.206525322049856186e-02
3.315818728879094124e-03
5.129741621203720570e-04
-1.114997576223686337e-04
2.492387546226382256e-03
-1.836164039559662342e-03
-2.144696889445185661e-03
9.136791923083364964e-04
-2.742995042353868484e-03
2.186412923038005829e-03
4.005078691989183426e-03
-2.004758222028613091e-03
2.147667808458209038e-03
-9.734191931784152985e-03
-3.098915913142263889e-04
-4.671403439715504646e-04
-3.696762141771614552e-04
-2.652402268722653389e-03
5.558643606491386890e-04
-8.253832347691059113e-03
1.415314618498086929e-03
-2.324591187061741948e-04
9.291828610002994537e-04
-8.151363581418991089e-04
8.078638347797095776e-04
4.985818173736333847e-03
-5.794183351099491119e-03
1.462753582745790482e-02
-2.805650910886470228e-05
2.323957160115242004e-03
1.521944883279502392e-03
-2.343679079785943031e-03
1.202999427914619446e-02
1.161271124146878719e-03
-2.098158467561006546e-03
-5.686280783265829086e-03
-5.567207466810941696e-03
1.741560059599578381e-03
2.714226720854640007e-03
1.035007555037736893e-02
-3.655842272564768791e-03
-1.769063808023929596e-02
-2.405108651146292686e-03
-3.160423133522272110e-03
1.528609893284738064e-03
7.601608056575059891e-03
3.335610963404178619e-03
-5.328391212970018387e-03
-2.633833792060613632e-03
3.093081177212297916e-04
5.349346902221441269e-04
-5.748113151639699936e-03
6.882098503410816193e-03
-1.201802049763500690e-03
-1.068529672920703888e-03
-4.792861640453338623e-03
-3.517877077683806419e-03
1.382583752274513245e-02
2.614547964185476303e-03
-8.788252016529440880e-04
5.872630979865789413e-03
5.770065472461283207e-04
-2.645252738147974014e-03
-1.209449488669633865e-02
-2.522138180211186409e-03
4.791460465639829636e-03
-1.587310992181301117e-02
-7.153884507715702057e-03
6.515210843645036221e-04
2.609874820336699486e-03
-3.406123258173465729e-03
1.094516017474234104e-03
8.773617446422576904e-03
-2.550063189119100571e-03
-2.157146111130714417e-03
-1.591215142980217934e-03
-1.056728512048721313e-02
1.603231532499194145e-03
1.075527630746364594e-03
4.579875152558088303e-03
-1.508040004409849644e-03
-2.252416452392935753e-03
3.856886643916368484e-03
-1.265331055037677288e-03
3.181525971740484238e-03
2.694499198696576059e-05
1.123858522623777390e-02
1.121128094382584095e-03
5.243353080004453659e-04
-6.834373925812542439e-04
-4.720489494502544403e-03
-1.259111566469073296e-03
-3.411455545574426651e-03
-1.413639984093606472e-03
-7.295591291040182114e-03
1.407423871569335461e-03
1.142120105214416981e-03
3.983421716839075089e-03
-9.833702817559242249e-03
2.592603862285614014e-02
-9.443766437470912933e-03
6.877041887491941452e-04
-7.277100346982479095e-03
1.027365447953343391e-03
-2.497844165191054344e-03
9.165768278762698174e-04
4.351260140538215637e-03
1.154441735707223415e-03
-3.634105436503887177e-03
-3.821781603619456291e-03
1.175359575427137315e-04
1.743966480717062950e-03
-2.141291275620460510e-03
-7.461756467819213867e-04
1.605669385753571987e-03
6.096760742366313934e-03
-1.688005868345499039e-04
1.103344722650945187e-03
