-1.166610717773437500e-01,-2.607432305812835693e-01,-7.002129405736923218e-02,1.742620766162872314e-02,-1.610091328620910645e-01,-2.794176042079925537e-01,2.749907672405242920e-01,8.141859769821166992e-01,5.733086466789245605e-01,1.655354201793670654e-01,1.738631427288055420e-01,2.281351983547210693e-01,6.966637074947357178e-02,-2.759058177471160889e-01,-2.734208703041076660e-01,8.246174454689025879e-02,-2.658904492855072021e-01,-5.415302584879100323e-04,-3.488095104694366455e-01,-2.274768948554992676e-01,2.347922176122665405e-01,-1.292793303728103638e-01,-1.845773011445999146e-01,-7.923636585474014282e-02,-2.072905004024505615e-01,-3.488685190677642822e-02,8.711456507444381714e-02,-6.226337701082229614e-02,-7.803053408861160278e-02,-1.461117565631866455e-01
3.006785809993743896e-01,-5.249809622764587402e-01,-8.857242763042449951e-02,-6.130923032760620117e-01,-3.063210546970367432e-01,-1.374427080154418945e-01,-7.467798888683319092e-02,1.580844998359680176e+00,4.290811121463775635e-01,5.335803627967834473e-01,2.854925394058227539e-01,2.019180506467819214e-01,-3.776581585407257080e-02,-3.448349535465240479e-01,1.971986442804336548e-01,-2.666230201721191406e-01,1.526739597320556641e-01,-1.303724199533462524e-01,-1.803503483533859253e-01,-1.076156735420227051e+00,7.596584502607584000e-03,-4.302490055561065674e-01,2.914139926433563232e-01,-2.215804457664489746e-01,2.933575510978698730e-01,-1.642343848943710327e-01,1.707103848457336426e-01,8.962085098028182983e-02,1.502308994531631470e-01,5.816658139228820801e-01
-3.436821103096008301e-01,-2.517794072628021240e-01,-3.524285927414894104e-02,-5.737348273396492004e-02,7.645489275455474854e-02,4.297238290309906006e-01,1.876676827669143677e-01,-4.480484058149158955e-04,5.158418416976928711e-01,-3.425479233264923096e-01,2.977654635906219482e-01,5.541896447539329529e-02,-2.385313808917999268e-01,-3.739766834769397974e-04,-3.928454518318176270e-01,1.005609929561614990e-01,1.849435716867446899e-01,1.997977048158645630e-01,4.143483936786651611e-03,5.995630025863647461e-01,-3.197998106479644775e-01,1.746093928813934326e-01,-1.780574321746826172e-01,1.044168770313262939e-01,6.116451695561408997e-03,-1.536928266286849976e-01,-2.821032106876373291e-01,-4.042317867279052734e-01,-3.907972276210784912e-01,-6.229687333106994629e-01
4.587710201740264893e-01,5.837970376014709473e-01,-2.873195111751556396e-01,7.105118632316589355e-01,-7.805657386779785156e-02,-3.175718784332275391e-01,-1.061279475688934326e-01,4.572010040283203125e-02,-2.943395078182220459e-01,-3.091994524002075195e-01,1.962489336729049683e-01,-2.148544341325759888e-01,1.129076164215803146e-02,7.091054320335388184e-01,5.534470453858375549e-02,2.887936234474182129e-01,-2.391235530376434326e-01,-6.312571167945861816e-01,-1.412163823843002319e-01,6.306927800178527832e-01,2.994206249713897705e-01,-8.399973623454570770e-03,8.583557605743408203e-02,3.040511906147003174e-01,-2.731797695159912109e-01,6.446819007396697998e-02,4.274584352970123291e-01,1.049536317586898804e-01,1.647743768990039825e-02,-1.125159934163093567e-01
5.066956281661987305e-01,-2.887820266187191010e-02,1.649578213691711426e-01,-2.100490927696228027e-01,-6.305623333901166916e-03,2.232362926006317139e-01,-3.209683299064636230e-01,1.355810880661010742e+00,9.572200775146484375e-01,8.618838340044021606e-02,2.713990509510040283e-01,-1.841347515583038330e-01,2.253828644752502441e-01,-5.288068652153015137e-01,1.889818161725997925e-01,1.104663163423538208e-01,1.027128472924232483e-01,-1.901095062494277954e-01,-2.001715302467346191e-01,-3.773865401744842529e-01,-1.784980893135070801e-01,-4.189087450504302979e-01,-9.095019847154617310e-02,4.333702474832534790e-02,-1.060201302170753479e-01,9.895163774490356445e-02,-1.639620065689086914e-01,1.748065650463104248e-01,-4.155042171478271484e-01,-1.891034990549087524e-01
5.137640833854675293e-01,1.223737895488739014e-01,1.403123438358306885e-01,4.729051887989044189e-01,-6.226609926670789719e-03,-2.364355027675628662e-01,2.411566227674484253e-01,-8.274509310722351074e-01,-5.278939604759216309e-01,-3.881123960018157959e-01,-2.731602787971496582e-01,4.389033615589141846e-01,1.827411651611328125e-01,4.953069090843200684e-01,-8.612420409917831421e-02,4.006824195384979248e-01,-2.816811800003051758e-01,1.405341923236846924e-01,9.885634481906890869e-02,9.139765053987503052e-02,-2.192134559154510498e-01,2.416335195302963257e-01,-4.783790186047554016e-02,5.372506976127624512e-01,-3.892345428466796875e-01,-9.168380871415138245e-03,-9.642153233289718628e-02,-2.106538563966751099e-01,-4.506117403507232666e-01,1.852616667747497559e-01
2.707588672637939453e-01,-5.999807715415954590e-01,-2.573435306549072266e-01,2.459602802991867065e-01,-7.915756851434707642e-02,3.150878548622131348e-01,4.044576585292816162e-01,2.629370391368865967e-01,1.051721721887588501e-01,-8.831639587879180908e-02,1.057174354791641235e-01,-2.218960374593734741e-01,-3.674863874912261963e-01,3.616235684603452682e-03,-5.607464313507080078e-01,4.087392985820770264e-01,-2.081602662801742554e-01,-8.237876892089843750e-01,-5.895021557807922363e-01,6.377808451652526855e-01,3.311786353588104248e-01,-3.375313878059387207e-01,2.565311193466186523e-01,-2.788420999422669411e-03,4.552740156650543213e-01,3.204741179943084717e-01,1.145180165767669678e-01,-1.126310229301452637e-01,-2.024543881416320801e-01,1.673758029937744141e-01
2.623298466205596924e-01,-4.617376998066902161e-02,1.505801081657409668e-01,-1.114049274474382401e-02,1.802928000688552856e-01,2.065414935350418091e-01,2.550423145294189453e-01,7.595568299293518066e-01,5.288037657737731934e-01,9.928733706474304199e-01,4.791249036788940430e-01,5.128182172775268555e-01,-4.099069535732269287e-01,-2.353699505329132080e-02,2.884919010102748871e-02,-5.656995177268981934e-01,3.610583543777465820e-01,3.472186923027038574e-01,-2.763781137764453888e-02,-1.243100881576538086e+00,-2.851991951465606689e-01,-4.936614632606506348e-01,1.427076309919357300e-01,1.029447391629219055e-01,1.855545759201049805e+00,-3.917543292045593262e-01,2.303678542375564575e-01,-1.572688698768615723e+00,-2.459966093301773071e-01,1.287436366081237793e+00
1.803838610649108887e-01,-8.586119860410690308e-03,-6.123406291007995605e-01,-3.090384006500244141e-01,-1.021630018949508667e-01,2.466605603694915771e-02,3.044280409812927246e-01,1.448190569877624512e+00,1.782724261283874512e-01,2.471964061260223389e-01,-1.513298600912094116e-02,1.990395039319992065e-01,-9.506858885288238525e-02,9.199529141187667847e-02,-1.211559399962425232e-01,1.353098452091217041e-01,3.327630758285522461e-01,2.823365926742553711e-01,-1.704544723033905029e-01,-3.348286151885986328e-01,2.692289352416992188e-01,-2.206301987171173096e-01,-1.817718148231506348e-01,5.546659827232360840e-01,-2.412566989660263062e-01,-8.164091408252716064e-02,-9.053309261798858643e-02,-1.038379147648811340e-01,-9.145906567573547363e-02,1.510192751884460449e-01
5.525338649749755859e-02,-7.824552059173583984e-02,1.075859516859054565e-01,-1.281755715608596802e-01,1.670983806252479553e-02,-7.117058336734771729e-02,-8.177351206541061401e-02,8.414377570152282715e-01,4.125011712312698364e-02,-2.782595455646514893e-01,-8.818045258522033691e-02,1.909265816211700439e-01,-3.284907341003417969e-01,-1.932079046964645386e-01,1.510503739118576050e-01,1.530245691537857056e-01,2.005268186330795288e-01,-9.994675219058990479e-02,-6.833784282207489014e-02,1.048823073506355286e-01,2.145116776227951050e-01,-6.726642698049545288e-02,6.287082284688949585e-02,-2.278322353959083557e-02,-2.971916794776916504e-01,-2.338132858276367188e-01,4.158415496349334717e-01,8.762181550264358521e-02,-3.935126662254333496e-01,-1.414993107318878174e-01
5.937955901026725769e-02,-5.537259578704833984e-01,2.541693449020385742e-01,-6.688202023506164551e-01,-2.050761282444000244e-01,-5.207198262214660645e-01,1.135019063949584961e-01,7.865136265754699707e-01,7.977250814437866211e-01,-1.052487492561340332e-01,8.918046951293945312e-02,9.004132151603698730e-01,-6.211809441447257996e-02,-4.531685411930084229e-01,6.114704534411430359e-02,1.199240144342184067e-02,-1.608114689588546753e-01,8.155668526887893677e-02,2.410658895969390869e-01,-8.311234116554260254e-01,3.926790952682495117e-01,-3.525749444961547852e-01,-1.477377265691757202e-01,-4.532006010413169861e-02,3.194947838783264160e-01,-3.490985035896301270e-01,-1.402579098939895630e-01,-1.111059263348579407e-01,9.180099517107009888e-02,1.101086616516113281e+00
-1.179211586713790894e-01,9.798675030469894409e-02,2.973700463771820068e-01,6.901007890701293945e-01,2.050733380019664764e-02,1.096524074673652649e-01,2.878404557704925537e-01,-1.006935119628906250e+00,-4.559405744075775146e-01,-5.563653111457824707e-01,-5.426328182220458984e-01,-4.076795578002929688e-01,1.398094147443771362e-01,-9.083820506930351257e-03,4.079687222838401794e-02,3.262562677264213562e-02,-2.976109087467193604e-01,-6.928472965955734253e-02,5.193923711776733398e-01,1.269731968641281128e-01,6.008506417274475098e-01,-8.409755676984786987e-02,2.101998329162597656e-01,-2.554482519626617432e-01,-8.270086050033569336e-01,1.990789026021957397e-01,-1.723826229572296143e-01,8.945134282112121582e-01,1.675744801759719849e-01,-6.914879679679870605e-01
5.556769967079162598e-01,2.597993314266204834e-01,3.111904859542846680e-01,5.256124138832092285e-01,3.455764949321746826e-01,-2.517490983009338379e-01,-5.252092480659484863e-01,1.170883059501647949e+00,2.709489464759826660e-01,-1.326369345188140869e-01,3.482393622398376465e-01,-1.023344695568084717e-01,1.912151873111724854e-01,8.900976181030273438e-02,1.690599508583545685e-02,-9.545607864856719971e-02,3.660709857940673828e-01,-1.603493541479110718e-01,-1.127883344888687134e-01,1.459785103797912598e-01,1.652205288410186768e-01,4.584821760654449463e-01,-1.411543041467666626e-01,-8.063904941082000732e-02,1.778486520051956177e-01,-1.281785070896148682e-01,-3.558972477912902832e-02,-2.776492238044738770e-01,-3.985713422298431396e-01,-1.860736161470413208e-01
1.678627729415893555e-01,-1.629965752363204956e-01,-1.279343664646148682e-01,-7.902258075773715973e-03,2.233841419219970703e-01,-9.239300489425659180e-01,-4.947109222412109375e-01,-9.839647263288497925e-02,4.503917992115020752e-01,1.191083669662475586e+00,2.791112661361694336e-02,3.998911678791046143e-01,-9.027755856513977051e-01,-4.055171310901641846e-01,7.334220409393310547e-01,1.127352844923734665e-02,4.797137081623077393e-01,-4.114960134029388428e-01,1.512664929032325745e-02,-3.055516779422760010e-01,-5.153001472353935242e-02,-2.489088326692581177e-01,-3.257559537887573242e-01,3.856760859489440918e-01,9.298815131187438965e-01,-7.088263034820556641e-01,1.298634558916091919e-01,-3.417633771896362305e-01,-2.245402894914150238e-02,1.550141930580139160e+00
-7.493530958890914917e-02,1.282354593276977539e-01,9.480573982000350952e-02,2.685200870037078857e-01,-1.129809021949768066e-01,1.903024315834045410e-01,7.961457967758178711e-02,-1.263437509536743164e+00,-2.284037619829177856e-01,-9.949812293052673340e-02,-8.796714246273040771e-02,1.234921514987945557e-01,1.708780825138092041e-01,3.727125748991966248e-02,-3.150888979434967041e-01,2.633956968784332275e-01,-2.714885175228118896e-01,2.644238471984863281e-01,-2.968311309814453125e-01,8.177158981561660767e-02,-3.841578587889671326e-02,-1.752205491065979004e-01,-2.196513861417770386e-02,-2.078309655189514160e-01,2.124492675065994263e-01,1.359769105911254883e-01,1.323986519128084183e-02,2.098817974328994751e-01,-1.054273918271064758e-01,-1.640902757644653320e-01
-2.052886039018630981e-01,2.519294321537017822e-01,-1.950923055410385132e-01,-2.220086753368377686e-02,-6.642372161149978638e-02,-3.713211789727210999e-02,-2.354406416416168213e-01,-4.741513170301914215e-03,-4.560397267341613770e-01,-6.107653379440307617e-01,-3.349432647228240967e-01,-3.393964469432830811e-01,6.869694590568542480e-01,1.081487014889717102e-01,5.321042984724044800e-02,9.126126766204833984e-01,6.489506363868713379e-02,-1.251970827579498291e-01,3.137438744306564331e-02,1.231446146965026855e+00,9.295770525932312012e-02,7.343271374702453613e-01,1.035903468728065491e-01,1.422996539622545242e-02,-1.176181674003601074e+00,-1.325735598802566528e-01,-5.912576615810394287e-02,7.807574272155761719e-01,3.893862962722778320e-01,-6.345410943031311035e-01
-6.124060153961181641e-01,-7.632555067539215088e-02,-3.268109261989593506e-02,-5.602341517806053162e-02,-4.347714185714721680e-01,-1.688432544469833374e-01,-7.107762247323989868e-02,-8.830173015594482422e-01,-1.066341400146484375e+00,-4.240087792277336121e-02,2.571124136447906494e-01,2.850554883480072021e-01,2.821321189403533936e-01,3.998649865388870239e-02,-6.329423189163208008e-01,3.683059662580490112e-02,-2.776433527469635010e-01,1.469143480062484741e-01,-4.411037564277648926e-01,1.299009770154953003e-01,-3.366962969303131104e-01,4.005558788776397705e-01,6.338137388229370117e-02,-3.456676304340362549e-01,1.383686661720275879e-01,-3.117450177669525146e-01,2.058183252811431885e-01,4.180181771516799927e-02,-2.446874529123306274e-01,3.072293698787689209e-01
1.051182076334953308e-01,1.936322450637817383e-01,1.304681897163391113e-01,6.560420393943786621e-01,5.154215171933174133e-02,9.591595269739627838e-03,1.436235159635543823e-01,-6.030060052871704102e-01,1.948037929832935333e-02,-2.086598426103591919e-01,2.654609382152557373e-01,-1.082441955804824829e-01,1.903253793716430664e-01,2.405463345348834991e-02,-8.296400308609008789e-01,-5.438997745513916016e-01,1.570744663476943970e-01,1.026301160454750061e-01,-5.012896656990051270e-01,-5.892196893692016602e-01,-2.271109223365783691e-01,-2.254528850317001343e-01,-1.841381490230560303e-01,-3.164469897747039795e-01,1.136498451232910156e+00,4.573173522949218750e-01,8.511181175708770752e-02,-4.488938748836517334e-01,1.613141745328903198e-01,6.037589907646179199e-01
-4.684741795063018799e-01,-9.242045879364013672e-02,1.600626856088638306e-01,1.015080213546752930e+00,-7.028448581695556641e-02,5.912969633936882019e-02,-7.505511492490768433e-02,-5.205549299716949463e-02,2.824936807155609131e-02,-4.381815195083618164e-01,-1.294769048690795898e-01,-5.266702771186828613e-01,5.329121947288513184e-01,3.849574029445648193e-01,-1.657597124576568604e-01,2.864657938480377197e-01,-6.368368268013000488e-01,-5.398625042289495468e-03,9.560292959213256836e-02,5.308098793029785156e-01,1.008698269724845886e-01,1.157896891236305237e-01,-6.122552752494812012e-01,8.639074862003326416e-02,-2.160830795764923096e-01,4.375293850898742676e-01,2.513561584055423737e-02,1.748724281787872314e-01,-8.377513289451599121e-02,-8.410555720329284668e-01
-2.215445637702941895e-01,-4.603577554225921631e-01,1.337186396121978760e-01,-3.994859457015991211e-01,2.618579193949699402e-02,-4.089151024818420410e-01,3.297407627105712891e-01,7.345846891403198242e-01,2.666659839451313019e-02,-2.093361020088195801e-01,-1.570996046066284180e-01,5.669096112251281738e-01,-3.239820003509521484e-01,2.614036500453948975e-01,-2.976150810718536377e-01,1.654351800680160522e-01,4.618638157844543457e-01,3.624983876943588257e-02,-2.852311134338378906e-01,-2.814247906208038330e-01,-2.230157256126403809e-01,1.774637401103973389e-01,2.027407586574554443e-01,-2.251661270856857300e-01,9.105587005615234375e-02,-3.399965167045593262e-01,-1.222400441765785217e-01,-6.182057410478591919e-02,3.090306818485260010e-01,4.515435993671417236e-01
3.840113282203674316e-01,6.593245863914489746e-01,-9.206530451774597168e-02,1.955271139740943909e-02,-8.460454642772674561e-03,-2.872834205627441406e-01,-4.974619448184967041e-01,-8.701999187469482422e-01,3.951273113489151001e-02,-4.569035768508911133e-01,3.821725845336914062e-01,-4.688731431961059570e-01,-3.330990374088287354e-01,-1.107590422034263611e-01,-2.230472117662429810e-01,1.060786377638578415e-02,-2.124909758567810059e-01,-1.615793406963348389e-01,4.406057298183441162e-01,1.514951884746551514e-01,-5.971502065658569336e-01,4.778029918670654297e-01,-2.886669337749481201e-01,-2.290635257959365845e-01,3.276256844401359558e-02,-2.632019817829132080e-01,-3.833441436290740967e-01,1.285689175128936768e-01,3.509911298751831055e-01,-2.052940875291824341e-01
-5.653562545776367188e-01,-5.108438730239868164e-01,2.181673049926757812e-01,-7.589489221572875977e-01,-8.084931969642639160e-02,1.161362975835800171e-01,2.875107228755950928e-01,2.221698611974716187e-01,5.533670186996459961e-01,4.091128110885620117e-01,1.456689387559890747e-01,7.385422587394714355e-01,4.913966655731201172e-01,1.598972678184509277e-01,2.400964349508285522e-01,1.631508767604827881e-01,2.793932557106018066e-01,9.383372962474822998e-02,-7.223828881978988647e-02,-4.879823029041290283e-01,4.065963625907897949e-01,-1.634838990867137909e-02,2.475227564573287964e-01,-1.922449767589569092e-01,1.270891074091196060e-02,-2.705865800380706787e-01,-1.001010835170745850e-01,-4.242319241166114807e-02,2.560780942440032959e-01,3.659432232379913330e-01
3.535564243793487549e-01,1.206978410482406616e-02,-2.130136787891387939e-01,8.998955488204956055e-01,4.157523512840270996e-01,2.889559566974639893e-01,3.468405827879905701e-02,-1.271321415901184082e+00,-8.907539248466491699e-01,-3.112489283084869385e-01,-9.213626384735107422e-01,1.811142712831497192e-01,1.843390613794326782e-01,4.749853909015655518e-01,6.761234998703002930e-01,9.683535248041152954e-02,3.406701683998107910e-01,-5.963741540908813477e-01,-2.631255239248275757e-02,2.060139924287796021e-02,5.856676697731018066e-01,1.465309113264083862e-01,8.203729987144470215e-02,6.891732215881347656e-01,4.209146276116371155e-02,-3.485035300254821777e-01,3.345045447349548340e-01,-2.699494957923889160e-01,-6.499217152595520020e-01,-2.116179913282394409e-01
-3.836221992969512939e-01,-2.048225253820419312e-01,-7.698365300893783569e-02,-8.290545940399169922e-01,1.956399679183959961e-01,2.591054886579513550e-02,-1.059786230325698853e-01,2.916923165321350098e-01,1.205372571945190430e+00,4.871714115142822266e-01,-3.700073063373565674e-02,1.318338513374328613e-01,5.552065372467041016e-01,-4.705727472901344299e-02,2.032936513423919678e-01,1.319772284477949142e-02,1.914926767349243164e-01,-2.848547399044036865e-01,8.120344877243041992e-01,-6.533351540565490723e-02,3.028140664100646973e-01,-4.103356599807739258e-01,-1.083980575203895569e-01,3.266406059265136719e-01,-4.069936275482177734e-01,4.254657924175262451e-01,2.781587541103363037e-01,-1.234163194894790649e-01,1.826711297035217285e-01,-5.417833924293518066e-01
7.356824874877929688e-01,2.563866078853607178e-01,-2.440577186644077301e-02,-3.923172354698181152e-01,-1.257148478180170059e-02,1.288814693689346313e-01,-1.688466519117355347e-01,1.098795294761657715e+00,9.239248931407928467e-02,-4.358374476432800293e-01,5.489344522356987000e-02,-1.120390072464942932e-01,5.672978758811950684e-01,-1.087886914610862732e-01,-3.505965173244476318e-01,2.226020097732543945e-01,-1.494159698486328125e-01,6.498898863792419434e-01,8.785812556743621826e-02,-5.000447630882263184e-01,3.850562870502471924e-01,1.931239217519760132e-01,-3.441721796989440918e-01,1.873726844787597656e-01,4.045575559139251709e-01,1.119611859321594238e-01,-5.654166340827941895e-01,-1.373106241226196289e-01,-1.189105585217475891e-01,-2.848058938980102539e-01
-1.692552715539932251e-01,1.997077763080596924e-01,5.067304149270057678e-02,-2.452971339225769043e-01,4.078131541609764099e-02,-6.816956996917724609e-01,2.436586022377014160e-01,-5.996992588043212891e-01,-2.295227050781250000e-01,-3.489031493663787842e-01,3.569626212120056152e-01,1.605336070060729980e-01,2.390149980783462524e-01,3.950280249118804932e-01,2.351147532463073730e-01,3.681577444076538086e-01,2.737032771110534668e-01,1.202901080250740051e-01,3.512602150440216064e-01,8.729001283645629883e-01,-3.287811577320098877e-01,2.611885666847229004e-01,-4.892666935920715332e-01,7.323539257049560547e-02,-3.989107012748718262e-01,-2.361173480749130249e-01,-2.020112574100494385e-01,3.124785423278808594e-01,3.288105428218841553e-01,-2.169437408447265625e-01
-4.175250530242919922e-01,-1.332172453403472900e-01,3.580696582794189453e-01,7.455672621726989746e-01,7.153403479605913162e-03,-1.537318229675292969e-01,9.473406523466110229e-02,9.230990409851074219e-01,2.812144458293914795e-01,2.371235787868499756e-01,1.436097770929336548e-01,-2.101221382617950439e-01,1.673931628465652466e-01,-7.619528770446777344e-01,-6.075226888060569763e-02,-5.658442154526710510e-02,-4.197460114955902100e-01,-5.010750517249107361e-02,-5.424828529357910156e-01,-8.441485166549682617e-01,1.240738853812217712e-01,4.063493106514215469e-03,-4.483629465103149414e-01,-4.133187532424926758e-01,4.656898379325866699e-01,-1.068507879972457886e-01,-2.598193585872650146e-01,1.853544265031814575e-01,3.221727609634399414e-01,3.089835643768310547e-01
3.272528052330017090e-01,8.536734431982040405e-02,-5.329371243715286255e-02,1.192609742283821106e-01,-7.086509466171264648e-02,1.056708693504333496e-01,-1.564460694789886475e-01,-1.928476691246032715e+00,-6.860524415969848633e-01,2.999838292598724365e-01,-4.789936542510986328e-02,4.044555425643920898e-01,-2.367439717054367065e-01,8.505305647850036621e-02,9.695176780223846436e-02,5.549889206886291504e-01,-3.549842238426208496e-01,-2.863112390041351318e-01,1.505858749151229858e-01,3.068642616271972656e-01,3.941422328352928162e-02,-9.640690684318542480e-02,-2.451900541782379150e-01,7.104539871215820312e-02,-1.020889580249786377e-01,2.476716637611389160e-01,1.818189322948455811e-01,1.461006933823227882e-03,-4.372028708457946777e-01,-1.536578964442014694e-02
-4.031932055950164795e-01,4.089516296517103910e-04,3.428355753421783447e-01,2.799232900142669678e-01,-9.011874347925186157e-02,5.228494852781295776e-02,3.257185816764831543e-01,-9.440886974334716797e-01,-4.764694869518280029e-01,-1.312218159437179565e-01,-5.746536850929260254e-01,1.307762712240219116e-01,6.490009427070617676e-01,4.942429438233375549e-02,2.936230599880218506e-01,3.676874041557312012e-01,-1.533567011356353760e-01,3.410329520702362061e-01,1.855301558971405029e-01,-8.342526108026504517e-02,2.749311625957489014e-01,3.565707802772521973e-01,4.368190169334411621e-01,-1.242780983448028564e-01,-2.294704169034957886e-01,2.095088660717010498e-01,6.920479983091354370e-02,3.900977373123168945e-01,-1.102375835180282593e-01,-5.980329513549804688e-01
-6.902331113815307617e-01,2.942928373813629150e-01,-1.032823994755744934e-01,3.303445875644683838e-01,-1.777480542659759521e-01,-6.875870376825332642e-02,-4.950326383113861084e-01,-1.731027364730834961e+00,2.033091485500335693e-01,1.586312204599380493e-01,-1.080009713768959045e-01,4.284739792346954346e-01,-1.421314328908920288e-01,-1.068988814949989319e-02,2.128518372774124146e-01,-2.169277369976043701e-01,3.193606734275817871e-01,5.958158969879150391e-01,8.864397555589675903e-02,-2.246793061494827271e-01,-1.211169660091400146e-01,1.548816710710525513e-01,-8.137344568967819214e-02,1.056130155920982361e-01,-5.669308900833129883e-01,3.224365115165710449e-01,3.527349792420864105e-03,1.983534693717956543e-01,5.606690645217895508e-01,1.183899268507957458e-01
