2.4186132120852428251,1.4597370158208293756,-1.151868864167539197,-0.57721164905060695638,-0.65578106153766291264,1.1391880964228358053,-2.2310584684334724415,-1.2071486773781332502,-1.9678290050495113039,1.3266804706201420494,1.3517714786604320132,-0.66591821373244741711,-0.7941014588624032422,1.2678381691039313228,-0.56723870936343778748,0.91825035723866377246,2.1877871138003315288,-0.92464200058214984779,0.56141950591500622281,-0.8203538391302690469,-0.95152011399161018357,-1.2986793735497454971,-0.48791253431657138906,-2.0030594966282060376,-0.95699757636893290069,-0.60192889917917480336,-0.96283009541803787901,1.870803178072278472,1.864240482056535031,0.46147380251049774369,0.51814629969440151314,0.94723978143615561454,-1.302428663964358746,2.4952417951647052341,-1.1479646447629034967,1.75880306680604237,2.0538808112736934852,-0.65360849493000583443,-0.34891709725796826724,-2.0334160234629057307,-2.4498555718759997823,2.0705993466766652311,3.1720673184239700504,1.6290038430076432263,-2.5613708751903070393,1.6032938715985316502,1.5666259184389306203,2.2828128241974692259,-0.90863830210731322268,0.72262203367549926458,-0.41484095354044692172,-3.0595207394920094224,2.5802486709607963533,-1.9299995163399921161,-2.7026896544756624507,-1.9303463138249810083,0.70369158552202759616,-3.3295627242490981601,4.3968816234573946389,-0.94677286136789462478,-1.059173461519558046,-0.25039675425558671762,1.8281727756225591985,1.191132783447578225,-1.8664001236362757208,1.6039080784517909528,1.0857101189783178175,0.82114994890402559502,0.84085512349162272461,-1.3119282038666801871,1.2037813356076287885,-1.4125650685676660601,-1.2503911920782309064,0.57502945492907631131,-1.8198612486622545159,-0.55066542720759892315,1.2451898304811985785,0.86889819272466317646,-1.1483192804058162118,0.9400679337584951778,-0.26570369576647362431,-0.30884516902168956953,-1.5735923810281027269,4.5429663196803646841,0.5266096545492497949,-1.1416416787316099324,0.40290823997047708893,1.2881749890905207501,1.2623612814585347675,0.72110478537292144185,0.97028114521106401114,-1.5076941299701156485,-2.3358911898339793645,-2.0598826940935746066,-2.0585769211319120409,2.5069901353866228533,-1.4742589793937939113,1.1836078620442447296,-1.1992443636705032439,0.28590011920001862089
