-6.083230488002300262e-03
-4.313642057240940630e-05
-3.007927164435386658e-02
1.944836042821407318e-02
1.256533898413181305e-02
-3.848242014646530151e-02
1.638861256651580334e-03
-1.369709987193346024e-02
-6.268573342822492123e-04
7.954557426273822784e-03
-1.753087155520915985e-02
1.073902100324630737e-02
4.383987747132778168e-03
1.173412613570690155e-02
-4.281084518879652023e-03
4.284823313355445862e-02
2.704534446820616722e-03
-7.304492406547069550e-03
-2.316080592572689056e-02
6.630140356719493866e-03
2.297964412719011307e-03
-5.027066450566053391e-03
-9.996673092246055603e-03
-8.212133310735225677e-03
1.654260233044624329e-02
-7.070676889270544052e-03
-7.398596499115228653e-03
-1.234703697264194489e-03
-6.686412729322910309e-03
-5.566116888076066971e-03
5.131475045345723629e-04
4.973080009222030640e-03
-2.961502410471439362e-03
1.235791016370058060e-03
-3.675795160233974457e-03
8.598504588007926941e-03
4.929800983518362045e-03
1.883855089545249939e-02
-2.931806445121765137e-02
-7.240701466798782349e-03
-1.252119988203048706e-02
-4.205241799354553223e-02
-3.150715678930282593e-02
2.600773610174655914e-02
3.424383467063307762e-03
-9.349529282189905643e-04
3.566230647265911102e-03
1.500784792006015778e-02
2.504307776689529419e-03
-1.936360262334346771e-02
-8.685883134603500366e-03
-1.589367911219596863e-02
-1.568253710865974426e-02
-1.438066922128200531e-02
6.843766313977539539e-04
-9.677116759121417999e-03
9.653083980083465576e-03
7.308579515665769577e-04
-1.740971766412258148e-02
-6.665403954684734344e-03
1.212540548294782639e-02
2.479070052504539490e-02
-6.817483343183994293e-03
3.236128389835357666e-02
-5.645907731377519667e-05
1.144425198435783386e-02
-7.520529907196760178e-03
-1.145508233457803726e-02
-3.044611215591430664e-02
2.467125887051224709e-03
-2.632863447070121765e-02
2.290660049766302109e-03
8.876172825694084167e-03
-1.552999857813119888e-02
1.829548738896846771e-03
1.133199967443943024e-02
1.143404189497232437e-02
7.420667447149753571e-03
1.169582363218069077e-02
1.276532188057899475e-02
-1.053387182764708996e-03
-1.396151632070541382e-02
-8.120846934616565704e-03
-1.242102775722742081e-02
-1.306279678829014301e-03
7.017085328698158264e-03
1.014640461653470993e-02
-1.047104480676352978e-03
-6.141303107142448425e-03
4.572591185569763184e-02
-1.026180200278759003e-02
-3.581005334854125977e-02
7.301202509552240372e-03
2.405361039564013481e-03
6.869483739137649536e-03
1.323181949555873871e-02
-4.464634228497743607e-03
-4.090531263500452042e-03
1.579499244689941406e-02
1.367573067545890808e-02
4.534678999334573746e-03
2.237820066511631012e-02
2.775123808532953262e-03
-1.307843340327963233e-04
-1.007228344678878784e-02
-4.828609991818666458e-03
8.456069976091384888e-03
1.654133386909961700e-02
-2.790132910013198853e-02
-1.014267746359109879e-02
7.334623951464891434e-03
6.477768532931804657e-03
6.908687762916088104e-03
-9.067009203135967255e-03
-2.464407682418823242e-02
1.223551854491233826e-02
4.084114916622638702e-03
1.311755646020174026e-02
-7.580787874758243561e-03
1.386510441079735756e-03
