6.640921346843242645e-03,1.163708567619323730e-01,-4.749618470668792725e-02,-1.413130760192871094e-01,-3.533842414617538452e-02,1.249012276530265808e-01,-9.607795625925064087e-02,-2.611537277698516846e-01,-1.176319420337677002e-01,6.469727307558059692e-02,-4.905776306986808777e-02,1.396392881870269775e-01,1.577831208705902100e-01,1.437730938196182251e-01,2.428956925868988037e-01
2.096046693623065948e-02,1.460031233727931976e-02,1.563336513936519623e-02,-6.662566214799880981e-02,1.429043412208557129e-01,1.427646875381469727e-01,-1.110451892018318176e-01,1.234119199216365814e-02,-1.117117404937744141e-01,5.795181170105934143e-02,1.443526800721883774e-02,3.349702060222625732e-02,-1.490800082683563232e-02,4.965527914464473724e-03,7.556593418121337891e-02
1.765957623720169067e-01,1.368370652198791504e-01,2.122112177312374115e-02,2.148644030094146729e-01,-9.698689728975296021e-02,-7.566223293542861938e-02,-2.067496329545974731e-01,-1.401088088750839233e-01,-4.006692022085189819e-02,2.430217573419213295e-03,1.199455782771110535e-01,3.940653800964355469e-02,-9.369329363107681274e-02,2.430690824985504150e-01,-1.352568417787551880e-01
-1.212280020117759705e-01,1.143796592950820923e-01,2.092853039503097534e-01,1.331550627946853638e-01,-2.705758810043334961e-02,-2.956776181235909462e-03,-2.385389506816864014e-01,-2.435646802186965942e-01,-1.431495100259780884e-01,-7.334779016673564911e-03,2.708433568477630615e-01,-5.517153441905975342e-02,1.831448525190353394e-01,-1.062494888901710510e-01,1.432532817125320435e-01
5.929615721106529236e-02,-2.003215998411178589e-01,-6.137124821543693542e-02,-1.991541236639022827e-01,-1.715698689222335815e-01,1.990222930908203125e-01,1.529434472322463989e-01,1.530887633562088013e-01,6.281144171953201294e-02,1.046310290694236755e-01,-3.127406537532806396e-02,-2.609544396400451660e-01,1.179633513092994690e-01,-1.726376712322235107e-01,1.380134075880050659e-01
1.792803704738616943e-01,-1.068890467286109924e-01,1.097546219825744629e-01,-1.668270528316497803e-01,1.416734457015991211e-01,1.215579137206077576e-01,-2.455202192068099976e-01,-2.577964030206203461e-02,8.248551934957504272e-02,-6.791398674249649048e-02,1.330144852399826050e-01,-4.133471474051475525e-02,5.351423844695091248e-02,-1.562777310609817505e-01,1.843658536672592163e-01
-1.212618947029113770e-01,-1.627976745367050171e-01,-2.512745559215545654e-02,-2.029375582933425903e-01,-1.937514096498489380e-01,-2.500386675819754601e-03,2.720935642719268799e-01,2.302819192409515381e-01,1.016451939940452576e-01,-1.181016713380813599e-01,-1.025531440973281860e-01,-1.881338655948638916e-01,1.756222248077392578e-01,1.378597319126129150e-02,1.645696163177490234e-01
1.490011066198348999e-01,-1.717280447483062744e-01,-1.712449640035629272e-01,5.694869905710220337e-02,-8.480295538902282715e-02,1.929106116294860840e-01,-1.370292305946350098e-01,2.662834525108337402e-01,1.359156817197799683e-01,-4.795422777533531189e-02,-2.011518478393554688e-01,1.191354319453239441e-01,-1.610945612192153931e-01,-1.504119485616683960e-01,3.828552365303039551e-02
8.107020705938339233e-02,-2.096367180347442627e-01,-1.175465956330299377e-01,-7.918116636574268341e-03,-2.935823984444141388e-03,2.437360025942325592e-02,2.094092518091201782e-01,2.197392284870147705e-01,-6.564536597579717636e-03,2.514363229274749756e-01,1.878787726163864136e-01,-2.412665486335754395e-01,-1.390258520841598511e-01,-1.736861616373062134e-01,-3.681053640320897102e-03
-4.492384847253561020e-03,1.534159574657678604e-02,1.037431415170431137e-02,2.344819344580173492e-02,5.372086074203252792e-03,2.104126289486885071e-02,1.312614977359771729e-02,-2.662852592766284943e-02,-5.061610415577888489e-02,4.812128841876983643e-02,4.054624587297439575e-03,4.598155617713928223e-03,1.768397912383079529e-02,1.327138766646385193e-02,1.417839620262384415e-02
-6.423468142747879028e-02,-1.318387221544981003e-02,-7.371311634778976440e-02,-2.018480151891708374e-01,2.614548616111278534e-02,2.486725598573684692e-01,1.292023509740829468e-01,6.742383539676666260e-02,1.650252491235733032e-01,5.278572067618370056e-02,-1.709093600511550903e-01,-1.888995468616485596e-01,-2.880795858800411224e-03,-1.936013847589492798e-01,5.091940984129905701e-02
-1.064804419875144958e-01,1.622393727302551270e-01,5.154149606823921204e-02,-8.262503147125244141e-02,-9.214027225971221924e-02,-2.633917033672332764e-01,1.829296648502349854e-01,-1.543929427862167358e-01,2.331958413124084473e-01,-1.640012711286544800e-01,-5.259009450674057007e-02,-8.923351764678955078e-02,1.032230108976364136e-01,3.476050123572349548e-02,-1.145914271473884583e-01
1.066805701702833176e-02,3.242912143468856812e-02,5.597455799579620361e-02,5.324777960777282715e-02,-2.132878638803958893e-03,4.658960178494453430e-02,5.346779152750968933e-02,-1.092895120382308960e-01,-4.928011819720268250e-02,1.257269233465194702e-01,1.751113915815949440e-03,3.509246930480003357e-02,6.082952022552490234e-02,3.401843085885047913e-02,1.779869385063648224e-02
4.362677782773971558e-02,-2.096494659781455994e-02,1.490929629653692245e-02,1.979962736368179321e-01,-2.435214221477508545e-01,2.352647185325622559e-01,-2.187670916318893433e-01,3.307133540511131287e-02,1.950612217187881470e-01,1.382167786359786987e-01,1.510933935642242432e-01,2.205587923526763916e-02,-8.067581802606582642e-03,7.061477005481719971e-02,-1.150025352835655212e-01
2.338354848325252533e-02,-7.697967439889907837e-02,-4.501968994736671448e-02,9.947214275598526001e-03,8.562099188566207886e-02,1.317507773637771606e-01,1.194767057895660400e-01,2.442243322730064392e-02,1.486472785472869873e-01,-2.334832996129989624e-01,-2.551035284996032715e-01,5.718248710036277771e-02,5.066954065114259720e-03,-2.036149948835372925e-01,1.865293830633163452e-01
-1.677140742540359497e-01,2.064251154661178589e-01,5.557116866111755371e-02,1.551395505666732788e-01,-6.852544844150543213e-03,-1.133195087313652039e-01,2.016356289386749268e-01,-1.304936707019805908e-01,-1.327522546052932739e-01,3.247351571917533875e-02,-2.187787890434265137e-01,2.520586848258972168e-01,2.255595661699771881e-02,2.074604034423828125e-01,-1.047328934073448181e-01
8.807788044214248657e-02,1.252553761005401611e-01,9.894387423992156982e-02,-1.944477297365665436e-02,5.307931825518608093e-02,-1.711424589157104492e-01,-2.540234625339508057e-01,-8.603249676525592804e-03,-1.346735507249832153e-01,-1.209709048271179199e-01,-1.261164695024490356e-01,2.268438339233398438e-01,1.562185585498809814e-01,1.946551352739334106e-01,1.646003872156143188e-01
1.129166111350059509e-01,3.066873177886009216e-02,-5.608224868774414062e-02,1.210723444819450378e-01,-6.957280635833740234e-02,-1.875346451997756958e-01,1.311158877797424793e-03,2.217822670936584473e-01,2.421586774289608002e-02,-1.097681298851966858e-01,-2.244787514209747314e-01,1.185133960098028183e-02,1.780670881271362305e-02,-8.682453632354736328e-02,-1.680483072996139526e-01
1.313442587852478027e-01,-1.292016357183456421e-01,3.367772325873374939e-02,6.160870194435119629e-02,-7.409131526947021484e-02,-1.458062678575515747e-01,2.223609685897827148e-01,-1.785773783922195435e-01,-1.311137080192565918e-01,1.226056292653083801e-01,-1.786131709814071655e-01,1.685473471879959106e-01,7.168582174926996231e-03,6.030402611941099167e-03,7.363429665565490723e-02
-1.439841389656066895e-01,1.433497071266174316e-01,4.502393305301666260e-02,-8.774879574775695801e-02,-1.087858825922012329e-01,-1.676254719495773315e-01,-5.747825279831886292e-02,-2.688324823975563049e-02,5.072013288736343384e-02,-2.875668182969093323e-02,1.863062381744384766e-02,-2.214387618005275726e-02,1.747995242476463318e-02,-4.040307924151420593e-02,-5.153374373912811279e-02
4.394908621907234192e-02,2.195007205009460449e-01,-3.788289800286293030e-02,-1.327463239431381226e-01,2.420475035905838013e-01,-1.557606011629104614e-01,3.408402903005480766e-03,-6.677212566137313843e-02,-1.463891714811325073e-01,1.062295772135257721e-02,-1.080419984646141529e-03,2.265459597110748291e-01,-6.849391013383865356e-02,-3.357701003551483154e-03,2.469834834337234497e-01
-1.724548786878585815e-01,1.222152560949325562e-01,-1.781969703733921051e-02,9.910872578620910645e-02,-5.430554226040840149e-02,1.203385647386312485e-02,-1.013802886009216309e-01,-1.415706574916839600e-01,-1.111288443207740784e-01,-2.064698934555053711e-01,-1.579346060752868652e-01,-1.108144074678421021e-01,2.243298441171646118e-01,8.926349878311157227e-02,-1.860252320766448975e-01
6.539627909660339355e-02,-7.926312088966369629e-02,-8.919640630483627319e-02,-1.648810803890228271e-01,1.979824900627136230e-01,-1.270665079355239868e-01,1.710961908102035522e-01,7.899945974349975586e-02,1.320446431636810303e-01,9.090203791856765747e-02,-9.259205311536788940e-02,1.018144115805625916e-01,-6.958521157503128052e-02,-1.146882176399230957e-01,-1.416423022747039795e-01
5.706714838743209839e-02,-1.147519126534461975e-01,3.604873269796371460e-02,9.342662990093231201e-02,1.038294211030006409e-01,2.625718414783477783e-01,-1.868828982114791870e-01,-1.406615972518920898e-02,-1.551801711320877075e-01,-2.393901944160461426e-01,1.969093829393386841e-02,7.034323364496231079e-02,-1.260468512773513794e-01,1.761423498392105103e-01,1.721424609422683716e-01
-1.711149513721466064e-01,6.123103201389312744e-02,1.598375439643859863e-01,-2.102114707231521606e-01,-7.104346156120300293e-02,-2.376106977462768555e-01,2.540708482265472412e-01,3.479519858956336975e-02,-1.084491088986396790e-01,-8.914251625537872314e-02,-1.262745559215545654e-01,-9.406258352100849152e-03,-1.508249789476394653e-01,1.455207616090774536e-01,9.875471889972686768e-02
-2.312147803604602814e-02,6.118432804942131042e-02,-3.210024908185005188e-02,9.885231405496597290e-02,-1.644422709941864014e-01,-1.306998729705810547e-01,1.763700544834136963e-01,-5.885598808526992798e-02,1.755445599555969238e-01,-1.452906280755996704e-01,-5.117042362689971924e-02,-5.106514692306518555e-02,5.161060392856597900e-02,-8.174203336238861084e-02,1.029565632343292236e-01
-4.841331974603235722e-05,1.121558062732219696e-02,-1.524774730205535889e-02,-8.632589131593704224e-02,1.203351989388465881e-01,-1.617676466703414917e-01,4.669735426432453096e-05,4.846246913075447083e-02,-2.081464976072311401e-01,-5.602343380451202393e-02,-4.867661371827125549e-02,6.087671034038066864e-03,-1.319667324423789978e-02,-5.285628885030746460e-02,7.265119254589080811e-02
-1.753940433263778687e-01,-1.454030442982912064e-02,2.488215267658233643e-02,-5.045079812407493591e-02,1.163325384259223938e-01,-5.796658247709274292e-02,1.436615139245986938e-01,-3.164005279541015625e-02,1.512701064348220825e-01,-2.245369255542755127e-01,3.213908895850181580e-02,-5.716262757778167725e-02,3.575570508837699890e-02,-3.771563246846199036e-02,-8.311706781387329102e-02
-1.840667575597763062e-01,-1.485047042369842529e-01,-2.070392370223999023e-01,1.242541894316673279e-01,-7.596098631620407104e-02,2.142954058945178986e-02,1.840218901634216309e-01,2.794957160949707031e-01,1.470789611339569092e-01,1.989372968673706055e-01,-1.950349658727645874e-02,8.605928719043731689e-02,-2.050237804651260376e-01,-1.813754290342330933e-01,-2.249643951654434204e-01
3.730527311563491821e-02,-1.668396294116973877e-01,-2.913616364821791649e-03,-7.205083966255187988e-02,8.337977528572082520e-02,1.417662650346755981e-01,2.705905735492706299e-01,1.954206675291061401e-01,-8.637069910764694214e-02,2.320494204759597778e-01,-1.312638074159622192e-01,7.064843177795410156e-02,-1.266976594924926758e-01,-2.273714542388916016e-02,7.237524539232254028e-02
-1.263597607612609863e-01,-9.616317600011825562e-02,-6.939219683408737183e-02,1.518278121948242188e-01,1.005853563547134399e-01,6.704574078321456909e-02,-6.422336399555206299e-02,4.055777564644813538e-02,-3.078110516071319580e-01,1.469907164573669434e-01,1.705626100301742554e-01,1.919582486152648926e-01,-2.791596949100494385e-02,-1.003975197672843933e-01,1.327515989542007446e-01
4.936229065060615540e-02,-1.578444093465805054e-01,7.768012583255767822e-02,-6.170833483338356018e-02,1.627185344696044922e-01,-2.158788144588470459e-01,1.637910008430480957e-01,-4.261602088809013367e-02,-4.325191676616668701e-02,-1.752273142337799072e-01,-1.100152507424354553e-01,1.055631041526794434e-01,2.264846989419311285e-04,-2.376661077141761780e-02,-2.826682850718498230e-02
-2.196683920919895172e-02,6.772173196077346802e-02,8.828495442867279053e-02,1.878367364406585693e-01,-1.344666928052902222e-01,1.308630555868148804e-01,-2.121849805116653442e-01,-3.324386104941368103e-02,-2.123941183090209961e-01,-5.938106030225753784e-02,-1.783228218555450439e-01,2.461683601140975952e-01,4.600461199879646301e-02,2.233206182718276978e-01,6.086904183030128479e-02
-9.193275868892669678e-02,-4.433080554008483887e-02,-1.916960254311561584e-02,-4.314544424414634705e-02,-7.487593591213226318e-02,1.489074621349573135e-02,6.038688495755195618e-02,6.001032516360282898e-02,-1.986932605504989624e-01,8.325330913066864014e-02,-1.663217991590499878e-01,-1.641491800546646118e-02,-2.297984249889850616e-02,-1.357881277799606323e-01,1.101582944393157959e-01
4.615029320120811462e-02,-2.017730325460433960e-01,6.735620647668838501e-02,-1.401477213948965073e-02,4.591781646013259888e-02,-8.327846229076385498e-02,1.730262935161590576e-01,1.534954905509948730e-01,1.023876518011093140e-01,-1.629756577312946320e-02,-3.853644058108329773e-02,-1.038170531392097473e-01,4.561332240700721741e-02,-4.769331216812133789e-02,-2.399149388074874878e-01
-1.822451874613761902e-02,2.396153844892978668e-02,5.084470286965370178e-02,-1.315520238131284714e-02,-2.294625714421272278e-02,1.304564177989959717e-01,-8.174412697553634644e-02,-7.317231595516204834e-02,1.107436344027519226e-01,5.123424902558326721e-02,-2.822560630738735199e-02,6.194511055946350098e-02,1.622995547950267792e-02,5.599026381969451904e-02,-9.443043917417526245e-02
-6.205656100064516068e-03,4.617100954055786133e-02,7.810056209564208984e-02,3.652885928750038147e-02,1.481161452829837799e-02,4.828414320945739746e-02,4.931386932730674744e-02,-1.431205272674560547e-01,4.072597995400428772e-02,3.018606267869472504e-02,-7.107516285032033920e-03,4.902708157896995544e-02,7.393278926610946655e-02,4.801762104034423828e-02,6.625481881201267242e-03
-3.639426454901695251e-02,-5.090569611638784409e-04,-2.049076743423938751e-02,8.227444253861904144e-03,3.651323541998863220e-02,-4.122647270560264587e-02,9.694599360227584839e-02,3.101768344640731812e-02,-1.594160050153732300e-01,6.354876607656478882e-02,-1.835617050528526306e-02,-1.313450466841459274e-02,-1.554054487496614456e-02,3.004433820024132729e-03,3.562660887837409973e-02
-1.559909880161285400e-01,2.331851571798324585e-01,-1.658461242914199829e-01,-6.925220787525177002e-02,-3.542425702107721008e-06,-1.265112012624740601e-01,1.825968474149703979e-01,-5.956874042749404907e-02,5.285274609923362732e-02,-1.817166656255722046e-01,-3.124208450317382812e-01,2.681063674390316010e-02,1.173840761184692383e-01,1.754241250455379486e-02,-4.578348016366362572e-04
-5.872054025530815125e-02,-1.010467261075973511e-01,-1.648539118468761444e-02,-1.722734980285167694e-02,2.039675973355770111e-02,-2.312313616275787354e-01,2.287731766700744629e-01,3.870501369237899780e-02,-4.567455872893333435e-02,4.203691333532333374e-02,-3.811107203364372253e-02,3.896238654851913452e-02,-2.623814903199672699e-02,-1.195570677518844604e-01,-5.523541569709777832e-02
7.688032835721969604e-02,-2.324907779693603516e-01,9.487510472536087036e-02,-1.382750570774078369e-01,9.364634752273559570e-03,1.442354470491409302e-01,-6.757917255163192749e-02,-3.395804390311241150e-02,-2.423505187034606934e-01,2.542402148246765137e-01,5.316921696066856384e-02,-1.217871829867362976e-01,-1.847632043063640594e-02,-9.985871613025665283e-02,7.893026620149612427e-02
-1.998125761747360229e-02,1.023350507020950317e-01,-4.863242432475090027e-02,1.388475745916366577e-01,5.550371110439300537e-02,-1.901237666606903076e-01,-1.147913048043847084e-03,-1.802875250577926636e-01,-8.780880272388458252e-02,1.717375069856643677e-01,1.979931443929672241e-01,1.545899659395217896e-01,2.395582199096679688e-02,-3.688072040677070618e-02,-3.002519533038139343e-02
2.983678877353668213e-01,-7.496204972267150879e-02,-2.598091028630733490e-02,1.753482818603515625e-01,1.045625284314155579e-01,-2.230350524187088013e-01,1.105063408613204956e-01,-1.153084263205528259e-01,-2.436339110136032104e-01,-1.550578624010086060e-01,-5.708533152937889099e-02,4.278849810361862183e-03,1.173546537756919861e-01,6.453327834606170654e-02,1.310857683420181274e-01
7.219912856817245483e-02,1.005147174000740051e-01,-8.714608848094940186e-02,-1.839075833559036255e-01,3.538996726274490356e-02,6.714568287134170532e-02,1.174222305417060852e-01,1.595414578914642334e-01,2.133643776178359985e-01,5.144370347261428833e-02,-1.183324977755546570e-01,-1.016932427883148193e-01,3.172389417886734009e-02,-1.163888946175575256e-01,1.145918890833854675e-01
-6.363073736429214478e-02,2.181033939123153687e-01,1.688795387744903564e-01,1.919504702091217041e-01,-1.181446686387062073e-01,1.137653365731239319e-01,-2.516584098339080811e-01,-1.864255368709564209e-01,-1.675009280443191528e-01,7.746590673923492432e-02,1.230919659137725830e-01,7.245042920112609863e-02,-2.543793804943561554e-02,-7.558510452508926392e-02,1.956313997507095337e-01
2.043027579784393311e-01,-2.083019018173217773e-01,8.757499605417251587e-02,-7.555603235960006714e-02,6.462091207504272461e-02,1.787605881690979004e-01,2.820110321044921875e-02,9.189668111503124237e-03,1.845116466283798218e-01,1.143322139978408813e-01,4.127498343586921692e-02,3.533798828721046448e-02,-6.955544650554656982e-02,-6.525790691375732422e-02,6.654483824968338013e-02
7.592105865478515625e-02,9.196158498525619507e-03,-2.121278084814548492e-02,1.286915391683578491e-01,1.504145283252000809e-02,1.291189938783645630e-01,-4.916916415095329285e-02,-1.118978932499885559e-01,-2.346273511648178101e-01,1.991097331047058105e-01,-2.032142132520675659e-01,1.867094486951828003e-01,8.690575510263442993e-02,1.260346323251724243e-01,-9.819407016038894653e-02
7.685922831296920776e-02,8.567413687705993652e-02,-4.871387779712677002e-02,3.706537187099456787e-03,1.103540509939193726e-01,-9.190609306097030640e-02,-2.477481663227081299e-01,4.436863213777542114e-02,-9.162759780883789062e-02,1.180670857429504395e-01,1.978064030408859253e-01,4.114637896418571472e-02,3.802676871418952942e-02,5.613881722092628479e-02,-1.654112637042999268e-01
-1.666520982980728149e-01,2.262736707925796509e-01,3.932707943022251129e-03,-7.363668829202651978e-02,-2.204519510269165039e-01,-1.875353753566741943e-01,-1.278372015804052353e-02,5.696473643183708191e-02,1.793178617954254150e-01,-1.431734412908554077e-01,1.301478296518325806e-01,-1.067924126982688904e-01,-1.045102626085281372e-01,-5.994529463350772858e-03,1.295539587736129761e-01
5.719114094972610474e-02,7.147708535194396973e-02,7.478225976228713989e-02,1.303122639656066895e-01,3.789390996098518372e-02,-2.963352575898170471e-02,-1.817074418067932129e-01,-2.155708968639373779e-01,-2.394713461399078369e-01,1.815446466207504272e-01,1.477929055690765381e-01,1.641473360359668732e-02,1.598063707351684570e-01,-1.152777811512351036e-03,-7.611081004142761230e-02
-3.099972754716873169e-02,3.305965289473533630e-02,4.366096109151840210e-02,3.608573973178863525e-02,-2.249128930270671844e-02,-2.767000533640384674e-02,7.859177887439727783e-02,-9.319420903921127319e-02,9.287742525339126587e-02,-3.038060665130615234e-02,2.532722137402743101e-04,1.734517142176628113e-02,5.036254227161407471e-02,1.824817433953285217e-02,-2.243031375110149384e-02
-2.341858483850955963e-02,1.503519415855407715e-01,8.673584088683128357e-03,2.085146158933639526e-01,-2.478174567222595215e-01,-1.954543441534042358e-01,1.699478477239608765e-01,-1.137528717517852783e-01,-6.657590717077255249e-02,-3.873706981539726257e-02,-6.904107332229614258e-02,2.676152251660823822e-02,6.083960458636283875e-02,1.109885647892951965e-01,1.035296320915222168e-01
5.386744067072868347e-02,6.334402412176132202e-02,-1.300971806049346924e-01,-1.478336900472640991e-01,-1.617630124092102051e-01,-5.139225721359252930e-02,4.823162406682968140e-02,1.520378887653350830e-01,4.508385434746742249e-02,-3.771378472447395325e-02,-1.688440144062042236e-01,-2.310933545231819153e-02,-1.815024018287658691e-01,8.680273592472076416e-02,1.206413358449935913e-01
-1.914761215448379517e-02,-5.141139402985572815e-02,1.005562990903854370e-01,2.182404100894927979e-01,-4.416730999946594238e-02,1.215604171156883240e-01,3.131389990448951721e-02,-1.992525458335876465e-01,-5.356820300221443176e-02,-4.259021952748298645e-02,1.029719859361648560e-01,-3.818362951278686523e-02,7.966815680265426636e-02,1.463383734226226807e-01,-9.477198123931884766e-03
3.502824902534484863e-02,7.811552844941616058e-03,3.398910537362098694e-02,3.341418132185935974e-02,5.235549807548522949e-02,7.697165012359619141e-02,3.120182827115058899e-02,-3.081840276718139648e-02,-1.153582856059074402e-01,7.226970046758651733e-02,-1.482918411493301392e-01,1.759382188320159912e-01,-3.104581497609615326e-02,8.927145600318908691e-02,3.734494745731353760e-02
-2.153582900064066052e-04,-1.225441843271255493e-01,1.160779297351837158e-01,1.165805757045745850e-01,-1.486319005489349365e-01,2.423163875937461853e-02,-2.406508773565292358e-01,5.287891253829002380e-02,-2.736959755420684814e-01,-1.820729076862335205e-01,-1.130468174815177917e-01,2.162045091390609741e-01,2.387248724699020386e-01,1.033125743269920349e-01,2.009774446487426758e-01
-9.315183013677597046e-02,-1.375226080417633057e-01,-8.205611258745193481e-02,-8.130642771720886230e-02,-6.606253236532211304e-02,-1.498313844203948975e-01,7.693946361541748047e-02,2.170608192682266235e-01,1.087418869137763977e-01,-2.025686651468276978e-01,-8.695539832115173340e-02,1.113556250929832458e-01,1.953350752592086792e-02,3.367848321795463562e-02,5.600534752011299133e-02
-1.676739156246185303e-01,-1.442179922014474869e-02,-4.240419343113899231e-02,2.521658875048160553e-02,-1.304816827178001404e-02,3.669780865311622620e-02,-5.467484518885612488e-02,9.072615951299667358e-02,-1.735000759363174438e-01,-1.365304179489612579e-02,-1.521466858685016632e-02,-4.943642020225524902e-02,-1.437329594045877457e-02,-9.707316011190414429e-02,9.836489334702491760e-03
3.604694455862045288e-02,-2.614887058734893799e-02,2.483626455068588257e-02,4.460859578102827072e-03,-4.822240024805068970e-02,-3.588606789708137512e-02,2.944562584161758423e-02,-4.120895266532897949e-02,1.183350682258605957e-01,-4.114190489053726196e-02,6.324373185634613037e-03,-6.152964662760496140e-03,2.059941552579402924e-02,-8.621606975793838501e-03,-1.801603473722934723e-02
1.500454097986221313e-01,1.609328947961330414e-02,-3.418416529893875122e-02,-8.852561563253402710e-02,4.753699526190757751e-02,1.746749132871627808e-01,-3.149768710136413574e-02,3.000071272253990173e-02,1.926598250865936279e-01,3.558527305722236633e-02,2.630230784416198730e-02,-1.034125685691833496e-01,6.457972526550292969e-02,-9.852279722690582275e-02,1.349937617778778076e-01
-1.333180963993072510e-01,-9.542130865156650543e-03,1.555096209049224854e-01,6.888738274574279785e-02,1.452966034412384033e-01,-1.585733890533447266e-02,-2.209969609975814819e-01,-1.719278991222381592e-01,-9.380875527858734131e-02,-1.164837032556533813e-01,2.488408982753753662e-01,4.900809749960899353e-02,2.619152367115020752e-01,-2.170888707041740417e-03,-7.977818697690963745e-02
1.271514743566513062e-01,2.671985328197479248e-02,5.066037550568580627e-02,-3.043992817401885986e-02,2.056298404932022095e-02,1.161565482616424561e-01,-2.856554388999938965e-01,-4.295648634433746338e-02,9.874723106622695923e-02,-4.301999881863594055e-02,-2.579372934997081757e-02,1.471795737743377686e-01,-3.611474111676216125e-02,1.521949619054794312e-01,-1.007743701338768005e-01
1.909661851823329926e-02,-3.315323591232299805e-02,7.963865995407104492e-03,-1.917921192944049835e-02,1.264944951981306076e-02,-5.160934105515480042e-02,3.634749352931976318e-02,5.706245545297861099e-03,-1.002271752804517746e-02,-5.910333245992660522e-03,1.275681075640022755e-03,-5.259516183286905289e-03,-8.809367194771766663e-03,1.014454662799835205e-02,-2.139094099402427673e-02
3.593238443136215210e-02,4.890465736389160156e-02,-6.884731352329254150e-02,1.056453511118888855e-01,1.724389642477035522e-01,6.671442091464996338e-02,-1.964063793420791626e-01,2.775018848478794098e-02,-1.975494027137756348e-01,-6.111268326640129089e-02,1.405248045921325684e-01,-2.455544658005237579e-02,3.320903331041336060e-02,-1.564759314060211182e-01,2.036078274250030518e-01
-8.354609459638595581e-02,-4.936792701482772827e-02,6.747352890670299530e-03,-5.443638935685157776e-02,-8.974186144769191742e-03,8.719213306903839111e-02,-1.490163356065750122e-01,3.392284363508224487e-02,1.287534739822149277e-02,-1.196331158280372620e-01,-1.521944850683212280e-01,7.648789137601852417e-02,-2.083409391343593597e-02,-7.986178994178771973e-02,-3.188992291688919067e-02
1.619503200054168701e-01,-1.632995605468750000e-01,1.670616716146469116e-01,-2.705642580986022949e-02,1.290183216333389282e-01,6.311273574829101562e-02,-2.179025709629058838e-01,-1.578798890113830566e-01,8.924178779125213623e-02,-9.401762485504150391e-02,1.553486883640289307e-01,7.921671867370605469e-02,8.974638581275939941e-02,-1.332418918609619141e-01,1.032351702451705933e-01
6.934913992881774902e-02,-1.365344133228063583e-02,-6.177792325615882874e-03,3.339328977745026350e-04,-9.635882452130317688e-03,-8.074390888214111328e-02,1.444746926426887512e-02,-1.627948833629488945e-03,1.355378776788711548e-01,-8.674947172403335571e-02,8.018954098224639893e-02,-3.520466387271881104e-02,1.491929776966571808e-02,-6.811523437500000000e-02,6.232429668307304382e-02
-1.301977187395095825e-01,8.227854967117309570e-02,2.981020323932170868e-02,1.011458113789558411e-01,1.497883498668670654e-01,-1.436964869499206543e-01,-3.184446692466735840e-02,1.457267701625823975e-01,-2.661393582820892334e-01,9.180720895528793335e-03,2.098678797483444214e-01,5.676235631108283997e-02,-1.046800613403320312e-01,2.245562225580215454e-01,-1.541472077369689941e-01
7.156569510698318481e-02,-4.092939198017120361e-03,1.683300361037254333e-02,8.081382513046264648e-02,-1.400108784437179565e-01,-4.363794624805450439e-02,-4.317437112331390381e-02,-4.718552157282829285e-02,6.094589829444885254e-02,5.445773154497146606e-02,5.393179599195718765e-03,2.674890309572219849e-02,1.852630637586116791e-02,7.228153198957443237e-02,-1.058117151260375977e-01
9.615156799554824829e-02,2.418618835508823395e-02,-4.888898134231567383e-02,-1.614934206008911133e-01,1.503485292196273804e-01,7.423321902751922607e-02,-2.080285698175430298e-01,1.252726167440414429e-01,1.066421438008546829e-02,4.093584045767784119e-02,9.490153193473815918e-02,1.767036132514476776e-02,-7.308564335107803345e-02,-1.207726374268531799e-01,1.417977809906005859e-01
-1.731917113065719604e-01,3.414126113057136536e-02,9.459684044122695923e-02,2.618558108806610107e-01,4.156514257192611694e-02,-4.080568999052047729e-02,-8.276247233152389526e-02,7.289249449968338013e-03,-2.508688867092132568e-01,-1.945422589778900146e-01,-1.431341469287872314e-01,2.560850381851196289e-01,1.913965940475463867e-01,6.775707006454467773e-02,-1.024080067873001099e-02
-1.532637178897857666e-01,6.665949523448944092e-02,-9.393022209405899048e-02,1.961587071418762207e-01,-1.424743831157684326e-01,-6.349443458020687103e-03,1.209919303655624390e-01,1.299041062593460083e-01,1.290498860180377960e-02,-1.493840366601943970e-01,-1.782096773386001587e-01,-5.351062491536140442e-02,1.008742228150367737e-01,5.183424428105354309e-02,-1.339148283004760742e-01
3.938935697078704834e-03,1.230636704713106155e-02,2.048544399440288544e-02,4.613686352968215942e-02,-1.911256648600101471e-02,-4.337710514664649963e-02,9.984139353036880493e-02,-4.722056910395622253e-02,-9.384702891111373901e-02,5.782308429479598999e-02,-5.444559082388877869e-02,3.146341070532798767e-02,2.475668489933013916e-02,2.274332009255886078e-02,3.448234498500823975e-02
1.785889267921447754e-01,-1.442000642418861389e-02,5.747121572494506836e-02,2.153896242380142212e-01,-1.013417467474937439e-01,1.989741325378417969e-01,-2.078169733285903931e-01,-2.094102650880813599e-01,-2.730714380741119385e-01,1.676972061395645142e-01,2.168089896440505981e-02,-6.787227839231491089e-02,1.301615238189697266e-01,6.549685262143611908e-03,1.639883369207382202e-01
1.215805262327194214e-01,5.602773278951644897e-02,1.067648455500602722e-01,3.350529447197914124e-02,1.275903880596160889e-01,-3.472569584846496582e-02,-8.333856239914894104e-03,-1.863324195146560669e-01,-2.976517081260681152e-01,4.174951463937759399e-02,-4.757345095276832581e-02,-1.242517773061990738e-02,1.711957156658172607e-02,9.395030140876770020e-02,1.028769984841346741e-01
-1.550596393644809723e-02,-4.987967014312744141e-02,-2.243153564631938934e-02,1.000458076596260071e-01,-1.971965730190277100e-01,9.783950448036193848e-02,1.137562096118927002e-01,2.787034213542938232e-02,1.842200458049774170e-01,1.347742974758148193e-01,1.927179992198944092e-01,-2.461157739162445068e-01,7.757586240768432617e-02,-8.212950080633163452e-02,-7.204012479633092880e-03
-1.169769763946533203e-01,1.607357710599899292e-01,-1.319923996925354004e-01,1.950442790985107422e-01,-1.267627179622650146e-01,-1.551128625869750977e-01,-7.154936343431472778e-02,6.604377925395965576e-02,-7.565748691558837891e-02,-1.785666793584823608e-01,-1.267160624265670776e-01,2.100840806961059570e-01,-1.654558926820755005e-01,1.471833586692810059e-01,-7.243159413337707520e-02
-2.202819846570491791e-02,1.170422211289405823e-01,-1.786506175994873047e-01,1.935913711786270142e-01,-7.946496456861495972e-02,1.116466224193572998e-01,-2.364545166492462158e-01,-1.948305815458297729e-01,-2.009808272123336792e-01,5.593728646636009216e-02,-2.920649386942386627e-02,1.880825161933898926e-01,-1.306897103786468506e-01,4.109352827072143555e-02,4.059555381536483765e-02
1.887106001377105713e-01,-2.001621127128601074e-01,8.516224473714828491e-02,-2.196196317672729492e-01,1.367897987365722656e-01,2.896491885185241699e-01,-4.617170989513397217e-02,1.583463046699762344e-03,2.141348868608474731e-01,-1.657164990901947021e-01,-2.552296221256256104e-01,-1.707085072994232178e-01,5.369250196963548660e-03,1.178180128335952759e-01,-2.468294501304626465e-01
3.042460419237613678e-03,9.291958808898925781e-02,-2.268350124359130859e-02,5.530403554439544678e-02,1.331987977027893066e-01,-1.097102761268615723e-01,7.428978383541107178e-02,-2.817529067397117615e-02,2.501074597239494324e-02,2.817088551819324493e-02,2.427161633968353271e-01,-1.379170827567577362e-02,-4.024842008948326111e-02,1.950926482677459717e-01,-1.270869374275207520e-01
-1.191968619823455811e-01,6.434631347656250000e-02,5.452358722686767578e-02,2.543382942676544189e-01,-7.625228911638259888e-02,-1.119157001376152039e-01,1.859387904405593872e-01,-2.360837459564208984e-01,2.529105544090270996e-01,-2.418010532855987549e-01,3.539975732564926147e-02,1.371666043996810913e-01,5.396022275090217590e-02,1.778552532196044922e-01,-1.444562822580337524e-01
7.637453824281692505e-02,-5.356240645051002502e-02,-3.534512594342231750e-02,-3.796508070081472397e-03,-4.074718803167343140e-02,4.518256336450576782e-02,-1.407717913389205933e-01,9.588018804788589478e-02,-1.212497130036354065e-01,1.138850003480911255e-01,2.706002909690141678e-03,4.577356856316328049e-03,-5.552824214100837708e-02,-1.667767646722495556e-03,-9.610146284103393555e-03
-2.926308289170265198e-02,-1.757610961794853210e-02,8.379779756069183350e-03,2.886220114305615425e-03,1.482296437025070190e-01,1.190496459603309631e-01,-6.006062403321266174e-02,-1.171159744262695312e-02,-1.973645389080047607e-01,-7.345359027385711670e-02,2.947292663156986237e-02,-3.455174341797828674e-02,2.363607473671436310e-02,-6.373078376054763794e-02,1.913885027170181274e-01
4.077053070068359375e-02,-4.463192448019981384e-02,-2.981720119714736938e-02,-9.561870992183685303e-02,9.363400191068649292e-02,-7.817322760820388794e-02,-1.057760268449783325e-01,9.627149254083633423e-02,6.058613955974578857e-02,-1.525679379701614380e-01,2.963842451572418213e-02,1.314537879079580307e-02,-6.983524560928344727e-02,-2.834210637956857681e-03,-5.417728051543235779e-02
5.740427225828170776e-02,-9.440446645021438599e-02,-5.855023860931396484e-02,-1.605497002601623535e-01,4.909277334809303284e-02,-8.223121613264083862e-02,8.588904142379760742e-02,1.026169806718826294e-01,6.915958970785140991e-02,-1.274701952934265137e-01,-2.546071261167526245e-02,-1.123133823275566101e-01,-1.100937277078628540e-01,3.236266598105430603e-02,-1.928882114589214325e-02
9.534806013107299805e-02,2.181793600320816040e-01,1.043629571795463562e-01,2.218085825443267822e-01,1.096648499369621277e-01,-5.653188750147819519e-02,-2.447766512632369995e-01,-1.778776496648788452e-01,-1.305784136056900024e-01,1.141280159354209900e-01,3.362879855558276176e-03,6.269186735153198242e-02,-1.323573887348175049e-01,1.650769412517547607e-01,-1.727078258991241455e-01
-1.914716064929962158e-01,-4.630309343338012695e-02,-4.270460456609725952e-02,1.439250409603118896e-01,-3.410516306757926941e-02,9.658943116664886475e-02,2.908932566642761230e-01,8.975587785243988037e-02,2.033016532659530640e-01,-8.049259334802627563e-02,-4.991453513503074646e-02,1.479595452547073364e-01,-1.580022424459457397e-01,4.717177525162696838e-02,-1.378413476049900055e-02
-1.407567877322435379e-02,-3.337574377655982971e-02,1.848888248205184937e-01,-1.107944026589393616e-01,1.670666038990020752e-01,1.376355290412902832e-01,-1.106404140591621399e-01,-1.107524558901786804e-01,-2.826342880725860596e-01,1.708610951900482178e-01,1.922429502010345459e-01,-1.033367887139320374e-01,1.387619692832231522e-02,2.445718832314014435e-02,2.008160501718521118e-01
5.189515277743339539e-02,1.625496000051498413e-01,-5.079000815749168396e-02,1.499761734157800674e-02,1.429469436407089233e-01,1.578323245048522949e-01,-1.285459250211715698e-01,-7.968524098396301270e-02,-1.344645917415618896e-01,1.068473905324935913e-01,-1.502890046685934067e-02,-4.445751756429672241e-02,3.459153696894645691e-02,6.418548524379730225e-02,-1.298459526151418686e-02
2.754565514624118805e-02,-2.344125136733055115e-02,-7.560262084007263184e-02,-4.106540232896804810e-02,1.933657377958297729e-02,1.325300037860870361e-01,-2.074918895959854126e-01,1.461255997419357300e-01,-1.021940186619758606e-01,6.505419313907623291e-02,2.731393836438655853e-02,-2.783921733498573303e-02,-7.703813910484313965e-02,-3.698416054248809814e-02,2.403908036649227142e-02
2.172661945223808289e-02,8.204893022775650024e-02,7.345040142536163330e-02,2.273544855415821075e-02,-5.075046792626380920e-03,1.065025106072425842e-01,-9.700480103492736816e-02,-1.437807828187942505e-01,1.785918921232223511e-01,2.229124493896961212e-02,7.652792334556579590e-02,4.203505069017410278e-02,6.493836641311645508e-02,8.208865672349929810e-02,-6.865791231393814087e-02
-1.301776058971881866e-02,2.580356784164905548e-03,6.652137730270624161e-03,1.636657305061817169e-02,5.115176551043987274e-03,-6.619785446673631668e-03,4.917556419968605042e-02,-1.636143960058689117e-02,-6.969827413558959961e-02,5.885078012943267822e-02,-4.221826791763305664e-03,-6.413961727957939729e-06,7.970850914716720581e-03,1.419497188180685043e-02,4.115467425435781479e-03
6.313400715589523315e-02,4.424036666750907898e-02,-1.867643673904240131e-03,-5.178095307201147079e-05,3.315453603863716125e-02,4.056909680366516113e-02,-1.519282311201095581e-01,-1.382644381374120712e-02,1.387419700622558594e-01,-1.784974038600921631e-01,2.035655826330184937e-02,4.240300506353378296e-02,5.389062222093343735e-03,-2.874071011319756508e-03,6.435548514127731323e-02
-1.921517401933670044e-01,-3.754219040274620056e-02,1.369272172451019287e-01,1.104197837412357330e-02,-9.592535346746444702e-02,5.335126817226409912e-02,3.523660823702812195e-02,-1.486129760742187500e-01,1.124366894364356995e-01,-1.845133453607559204e-01,9.886099956929683685e-03,-1.461767405271530151e-01,9.500007331371307373e-02,1.666182726621627808e-01,-2.329943627119064331e-01
-9.051191061735153198e-02,2.859383821487426758e-02,7.802146673202514648e-02,4.125399887561798096e-02,2.297762781381607056e-01,1.738696731626987457e-02,-7.351485639810562134e-02,-3.455864638090133667e-02,-1.823677867650985718e-01,3.285427764058113098e-02,1.398919224739074707e-01,7.266353070735931396e-02,3.121534176170825958e-02,1.062518209218978882e-01,-1.295913457870483398e-01
-2.035974711179733276e-02,-5.076661705970764160e-02,-3.853172808885574341e-02,-1.256098039448261261e-02,2.668194845318794250e-02,-1.850881054997444153e-02,9.567515552043914795e-02,8.438038825988769531e-02,-2.428204566240310669e-01,1.889188885688781738e-01,-8.431534515693783760e-04,-4.317097365856170654e-02,-4.857272654771804810e-02,9.842913597822189331e-03,-2.942138584330677986e-03
3.983212634921073914e-02,6.857426464557647705e-02,-1.464974433183670044e-01,-2.598705887794494629e-02,2.133603990077972412e-01,1.022964194416999817e-01,-1.542054023593664169e-02,-2.887420952320098877e-01,-2.120650112628936768e-01,-6.599541753530502319e-02,1.549566239118576050e-01,1.873452961444854736e-01,2.231413573026657104e-01,1.755027174949645996e-01,-1.693904399871826172e-01
9.795248508453369141e-03,-1.469037383794784546e-01,-1.865973770618438721e-01,7.236203644424676895e-03,-1.826908998191356659e-02,-3.528400510549545288e-02,2.065826207399368286e-01,2.891726046800613403e-02,1.740633845329284668e-01,5.524296686053276062e-02,-1.311415582895278931e-01,-2.671003341674804688e-02,-9.099649637937545776e-02,-8.564741164445877075e-02,-1.386820618063211441e-02
-1.050480827689170837e-02,-8.745202422142028809e-02,1.446886062622070312e-01,1.895466744899749756e-01,-1.549537330865859985e-01,-2.424866892397403717e-03,-1.462080329656600952e-01,-2.892442047595977783e-01,-1.015103794634342194e-02,-8.748757094144821167e-02,-1.219585165381431580e-02,2.556134760379791260e-01,2.680932637304067612e-03,2.288580387830734253e-01,-1.403902620077133179e-01
-1.479098200798034668e-01,3.109278343617916107e-02,-3.969477117061614990e-02,-1.106326729059219360e-01,3.922504186630249023e-02,1.097581312060356140e-01,-7.441186159849166870e-02,8.523023873567581177e-02,-6.040680222213268280e-03,1.381921321153640747e-01,2.049731761217117310e-01,-2.202043980360031128e-01,-1.946270093321800232e-02,1.833257451653480530e-02,-1.631857305765151978e-01
-1.267721503973007202e-01,1.322708427906036377e-01,-8.407034724950790405e-02,1.503762882202863693e-02,-8.295504748821258545e-02,-1.374742835760116577e-01,2.940071225166320801e-01,-5.423815175890922546e-02,4.476856067776679993e-02,-5.363083258271217346e-02,-1.700345873832702637e-01,-1.048524379730224609e-01,4.108359292149543762e-02,4.089391231536865234e-02,-6.868939101696014404e-02
-8.856526762247085571e-02,1.070718765258789062e-01,1.385662108659744263e-01,-1.166460514068603516e-01,-1.981188952922821045e-01,-1.310884952545166016e-01,4.706036299467086792e-03,2.290525138378143311e-01,1.885714381933212280e-01,-1.182211264967918396e-01,-4.703160002827644348e-02,-1.056714169681072235e-02,-5.063582956790924072e-02,-1.005080714821815491e-01,-1.034710481762886047e-01
-9.873886406421661377e-02,-1.372457593679428101e-01,-1.651492714881896973e-01,1.350196450948715210e-01,6.851481646299362183e-02,1.447449326515197754e-01,1.265425048768520355e-02,-1.966799795627593994e-01,-2.769128978252410889e-01,1.408481746912002563e-01,1.954116821289062500e-01,1.456939131021499634e-01,6.334225833415985107e-02,4.235598072409629822e-02,9.366813302040100098e-02
5.672515556216239929e-02,1.632653772830963135e-01,-1.444870233535766602e-01,6.344287097454071045e-02,4.700608924031257629e-02,1.918870508670806885e-01,-1.039409488439559937e-01,-6.505192816257476807e-02,-1.042112857103347778e-01,2.020204812288284302e-02,-1.889795511960983276e-01,1.198359355330467224e-01,4.553537815809249878e-02,1.594639867544174194e-01,6.066317856311798096e-02
-1.336559057235717773e-01,-2.538897655904293060e-02,7.451702840626239777e-03,1.930494233965873718e-02,-9.916678071022033691e-02,-2.285720258951187134e-01,2.738733887672424316e-01,-4.640823695808649063e-03,-1.187347769737243652e-01,1.372251212596893311e-01,1.116806119680404663e-01,-1.493659615516662598e-01,-4.468223080039024353e-03,1.079767793416976929e-01,-1.750260442495346069e-01
-2.554622851312160492e-02,-1.604460738599300385e-02,6.081353873014450073e-02,-1.282922774553298950e-01,-1.660208404064178467e-02,-2.153623998165130615e-01,1.541484892368316650e-01,1.786547005176544189e-01,-8.540247380733489990e-02,-1.633484065532684326e-01,-4.824559763073921204e-02,-1.222089454531669617e-01,-3.884296864271163940e-02,1.731451898813247681e-01,-3.024298511445522308e-02
-2.972982525825500488e-01,2.188678383827209473e-01,1.233782991766929626e-01,-2.738892659544944763e-02,-1.938125193119049072e-01,-2.012530416250228882e-01,2.771957814693450928e-01,-3.021364100277423859e-02,-9.618334472179412842e-02,2.907954622060060501e-03,-1.099038347601890564e-01,-2.649032883346080780e-02,-1.200271472334861755e-01,1.775035448372364044e-02,1.346261054277420044e-01
7.769516110420227051e-02,-5.719928443431854248e-02,8.639074862003326416e-03,-8.405460044741630554e-03,-2.116375043988227844e-02,1.527013927698135376e-01,-6.294886115938425064e-03,1.758143119513988495e-02,-2.727801445871591568e-03,2.944124937057495117e-01,4.646689631044864655e-03,7.751151174306869507e-02,-4.722715914249420166e-02,1.057826541364192963e-02,-2.962715737521648407e-02
-1.972234398126602173e-01,1.958406902849674225e-02,-7.293274253606796265e-02,-8.789017796516418457e-02,-1.766477823257446289e-01,1.321229189634323120e-01,5.347325280308723450e-02,1.876409202814102173e-01,2.315431386232376099e-01,8.629153668880462646e-02,-7.334969937801361084e-02,-1.626889854669570923e-01,-6.253887899219989777e-03,-1.526409983634948730e-01,-1.020148023962974548e-01
1.337428390979766846e-01,1.861318051815032959e-01,1.586767137050628662e-01,-9.530247747898101807e-02,1.971397697925567627e-01,7.149243354797363281e-02,-2.569469809532165527e-01,-2.957300841808319092e-01,-8.111134916543960571e-02,-1.131813749670982361e-01,-1.523449420928955078e-01,1.342579126358032227e-01,1.879313886165618896e-01,1.879796087741851807e-01,-7.463413290679454803e-03
1.062114350497722626e-02,1.084860116243362427e-01,-8.237721771001815796e-02,1.320803910493850708e-01,2.765228599309921265e-02,4.699940234422683716e-02,-1.113388165831565857e-01,4.305890947580337524e-02,-1.432217955589294434e-01,6.933609396219253540e-02,1.682328134775161743e-01,-6.474203616380691528e-02,2.424598857760429382e-02,3.487149253487586975e-02,5.215837061405181885e-02
9.948337078094482422e-02,7.662597298622131348e-02,1.299859434366226196e-01,2.116959542036056519e-01,-6.412415951490402222e-02,-1.200276166200637817e-01,-7.605732232332229614e-02,-1.311766542494297028e-02,-2.136585563421249390e-01,1.408252418041229248e-01,6.182559579610824585e-02,1.374593973159790039e-01,1.184147223830223083e-01,-8.888673037290573120e-02,7.286923471838235855e-03
-1.544934809207916260e-01,1.621680706739425659e-01,-1.345367133617401123e-01,-3.831566078588366508e-03,1.082643270492553711e-01,-4.379616305232048035e-02,-1.441536694765090942e-01,-1.654037833213806152e-01,-5.435063689947128296e-02,-3.824833780527114868e-02,-3.808001056313514709e-02,2.710871696472167969e-01,2.543244659900665283e-01,-1.376036703586578369e-01,2.021993696689605713e-01
8.982318639755249023e-02,-1.118968874216079712e-01,-6.313152611255645752e-02,-1.829059571027755737e-01,6.105637922883033752e-02,1.167370155453681946e-01,-1.265645623207092285e-01,2.175142616033554077e-01,-1.469448804855346680e-01,9.903424978256225586e-02,-1.541621685028076172e-01,2.769932150840759277e-02,-1.473050862550735474e-01,-2.628823742270469666e-02,2.363400533795356750e-02
-1.249787509441375732e-01,7.754731923341751099e-02,-3.172973403707146645e-03,-5.130256339907646179e-02,1.932244449853897095e-01,1.322861909866333008e-01,-2.156365811824798584e-01,-1.580075174570083618e-01,-1.205318570137023926e-01,1.571225672960281372e-01,1.636809557676315308e-01,8.466352522373199463e-02,9.391611814498901367e-02,-6.086156144738197327e-02,5.685653537511825562e-02
-1.550267189741134644e-01,6.601963937282562256e-02,3.289272263646125793e-02,3.483753278851509094e-02,2.746046520769596100e-02,-3.926283493638038635e-02,1.872924417257308960e-01,-1.269291490316390991e-01,2.512207031250000000e-01,-2.539570033550262451e-01,1.252169068902730942e-02,-4.662876948714256287e-02,1.035527512431144714e-01,-1.144588366150856018e-01,8.140915632247924805e-02
-2.351296246051788330e-01,-9.962049871683120728e-02,3.040334768593311310e-02,4.065014794468879700e-02,2.444738298654556274e-01,2.413194775581359863e-01,1.020598784089088440e-01,-3.336129710078239441e-02,-7.671239227056503296e-02,1.463377289474010468e-02,-5.543131381273269653e-02,3.967356309294700623e-02,4.212453216314315796e-02,-1.649211049079895020e-01,-5.778608843684196472e-02
2.775497548282146454e-02,2.229125984013080597e-02,2.305025234818458557e-02,1.587489061057567596e-02,-2.124067954719066620e-02,7.723409682512283325e-02,-8.597431331872940063e-02,-4.465914890170097351e-02,7.049182057380676270e-02,1.467184256762266159e-02,2.836759388446807861e-02,1.299424096941947937e-02,2.529283985495567322e-02,1.763814501464366913e-02,-1.459761150181293488e-02
8.486652374267578125e-02,-1.817036569118499756e-01,-3.126147761940956116e-02,-7.339449971914291382e-02,-7.798711955547332764e-02,-9.075254201889038086e-02,2.105385251343250275e-02,7.028363645076751709e-02,2.719334661960601807e-01,-1.603794991970062256e-01,5.681305751204490662e-02,2.388739213347434998e-02,-1.186867803335189819e-01,-1.486225277185440063e-01,6.614103168249130249e-02
-1.268599033355712891e-01,-6.214261427521705627e-02,-3.947254642844200134e-02,1.547039896249771118e-01,-1.594328880310058594e-01,-2.701650746166706085e-02,2.778522372245788574e-01,1.274648960679769516e-02,6.135600432753562927e-02,-5.427094176411628723e-02,-8.846897631883621216e-02,-1.117527261376380920e-01,-3.999970108270645142e-02,-1.700054109096527100e-01,4.473323002457618713e-02
