5.867086350917816162e-02,2.178671211004257202e-02,-1.917870938777923584e-01,-3.542421758174896240e-02,-2.626488276291638613e-04,-4.459230601787567139e-02,-8.917111158370971680e-02,5.850594490766525269e-02,-5.390806868672370911e-02,1.135984994471073151e-02,-1.681530177593231201e-01,2.485922910273075104e-02,-2.566196322441101074e-01,-8.844636380672454834e-02,-1.333290338516235352e-01,-2.460507601499557495e-01,-1.062773838639259338e-01,-5.699216574430465698e-02,2.104960568249225616e-02,-1.269267797470092773e-01,1.636507511138916016e-01,4.887367784976959229e-02,1.595209836959838867e-01,7.596626877784729004e-02,2.952165156602859497e-02,-1.671220548450946808e-02,-2.285281009972095490e-02,1.304823309183120728e-01,-2.758053839206695557e-01,4.053236544132232666e-02,-1.186763569712638855e-01,-1.268101185560226440e-01,7.582196593284606934e-02,-8.970265276730060577e-03,-6.511717569082975388e-03,-1.932753026485443115e-01,-1.992598026990890503e-01,3.012766875326633453e-02,-6.937889754772186279e-02,1.837844401597976685e-01,-1.544703096151351929e-01,5.555579438805580139e-02,7.313935458660125732e-02,1.810190826654434204e-01,8.168846368789672852e-02,6.120960693806409836e-03,1.902059279382228851e-02,-1.422508619725704193e-02,-1.198319047689437866e-01,9.519198536872863770e-02,-1.878812313079833984e-01,-1.229129061102867126e-01,-1.564858108758926392e-02,-7.553165405988693237e-02,-7.281943410634994507e-02,7.469262927770614624e-02,-3.488359600305557251e-02,1.104177683591842651e-01,-3.752308199182152748e-03,-6.616050750017166138e-02,2.000713348388671875e-02,-7.644432038068771362e-02,-1.366546452045440674e-01,-8.431395888328552246e-02,1.208542883396148682e-01,9.537637233734130859e-02,-1.273801326751708984e-01,-1.573347486555576324e-02,9.376064687967300415e-02,-2.410515211522579193e-02,7.517109625041484833e-03,-1.302638500928878784e-01,-9.375215321779251099e-02,1.471817791461944580e-01,-9.663474559783935547e-02,-2.114255679771304131e-03,-8.999851346015930176e-02,-1.353698223829269409e-01,-6.444508582353591919e-02,3.457015752792358398e-02,1.940345615148544312e-01,-1.781705915927886963e-01,2.166702598333358765e-02,-1.562712341547012329e-01,-1.173581834882497787e-02,9.580738842487335205e-02,1.161747053265571594e-01,-8.714472502470016479e-02,-7.922474294900894165e-02,2.372741000726819038e-03,-1.680676192045211792e-01,-1.693126112222671509e-01,3.560521826148033142e-02,-1.110990792512893677e-01,-4.246860742568969727e-02,6.934071332216262817e-02,-9.267538040876388550e-02,4.747089743614196777e-02,1.138441711664199829e-01,9.778434038162231445e-02,1.304989308118820190e-01,7.373410463333129883e-02,-1.102547496557235718e-01,-8.954535424709320068e-02,2.389930486679077148e-01,-1.631770655512809753e-02,-2.009606361389160156e-01,-1.073170304298400879e-01,-1.594242602586746216e-01,1.027907356619834900e-01,-8.141163736581802368e-02,-1.701925136148929596e-02,3.726780042052268982e-02,-4.106894135475158691e-02,-1.740424633026123047e-01,4.888697341084480286e-02,-2.743327021598815918e-01,-7.498601078987121582e-02,1.407436430454254150e-01,-3.203288652002811432e-03
-1.377213299274444580e-01,7.452239096164703369e-02,-7.921758294105529785e-02,2.456601411104202271e-01,-1.538541633635759354e-02,1.115528047084808350e-01,4.557105153799057007e-02,2.284064143896102905e-01,-3.550311326980590820e-01,-8.264920860528945923e-02,-1.659120768308639526e-01,3.181042969226837158e-01,1.000520661473274231e-01,1.526357680559158325e-01,7.229431718587875366e-02,-3.274754807353019714e-02,-8.296000771224498749e-03,1.946415603160858154e-01,1.109246164560317993e-01,1.122051700949668884e-01,-1.028130054473876953e-01,-9.274933487176895142e-02,-2.272369153797626495e-02,-3.878788277506828308e-02,-6.718168407678604126e-02,8.876023441553115845e-02,5.448683165013790131e-03,-1.550637036561965942e-01,-1.896681785583496094e-01,-2.024276256561279297e-01,4.316351935267448425e-02,-3.928360820282250643e-05,1.865292936563491821e-01,1.090407744050025940e-01,7.982606440782546997e-02,3.317437693476676941e-02,-1.827152818441390991e-02,-3.005578741431236267e-02,-7.755397260189056396e-02,-1.084889546036720276e-01,4.618529696017503738e-03,-1.295382082462310791e-01,-6.092237681150436401e-02,-3.499952331185340881e-02,-2.197315357625484467e-02,-5.894155055284500122e-02,-1.875535249710083008e-01,-7.332220673561096191e-02,2.994340844452381134e-02,-1.303213387727737427e-01,-1.268266737461090088e-01,-2.880738116800785065e-02,7.243189960718154907e-03,3.739809617400169373e-03,-9.045948088169097900e-02,-2.089115045964717865e-02,9.219472855329513550e-02,-1.079961061477661133e-01,1.083800345659255981e-01,-9.976943582296371460e-02,1.215324550867080688e-01,9.321959316730499268e-02,2.611406333744525909e-02,-5.654669553041458130e-02,-2.819444425404071808e-02,2.019105255603790283e-01,1.778177022933959961e-01,-3.634212613105773926e-01,-5.887757614254951477e-02,1.584483981132507324e-01,1.081425547599792480e-01,1.300071645528078079e-02,-2.793882600963115692e-02,1.393324136734008789e-01,-8.015114814043045044e-02,-1.672264635562896729e-01,1.723721623420715332e-01,-9.816890582442283630e-03,4.543682932853698730e-02,4.650130867958068848e-03,9.209377318620681763e-02,-7.484328933060169220e-03,-2.246622228994965553e-03,9.870485216379165649e-02,1.166484355926513672e-01,4.647648334503173828e-02,-1.101368591189384460e-01,-4.362433850765228271e-01,1.613319292664527893e-02,-3.629432246088981628e-02,1.996340304613113403e-01,-3.575015813112258911e-02,4.920578002929687500e-02,-2.494145883247256279e-03,5.102248489856719971e-02,1.444977801293134689e-02,-6.121874973177909851e-02,-2.559877373278141022e-02,4.521805047988891602e-01,-8.807592839002609253e-02,6.244144588708877563e-02,1.755410134792327881e-01,-1.117724329233169556e-01,1.803537458181381226e-02,-3.531959652900695801e-01,-1.518111974000930786e-01,8.540806919336318970e-02,2.594769932329654694e-02,8.358111977577209473e-02,3.233654797077178955e-02,-1.259142309427261353e-01,-1.794197224080562592e-02,-2.001434750854969025e-02,6.792172789573669434e-02,-5.018919706344604492e-02,-2.679015509784221649e-02,-1.393594145774841309e-01,9.881298243999481201e-02,1.871610730886459351e-01,7.957850396633148193e-02
8.094198256731033325e-02,1.410658936947584152e-02,-1.592358052730560303e-01,-1.050398349761962891e-01,-2.125343382358551025e-01,1.127402633428573608e-01,-1.291410923004150391e-01,-7.096706330776214600e-02,9.855797141790390015e-02,-1.567140817642211914e-01,-6.138423085212707520e-02,2.939541637897491455e-02,-1.536518484354019165e-01,3.698917571455240250e-03,7.208008319139480591e-02,-7.753337919712066650e-02,8.490841090679168701e-02,-1.527607142925262451e-01,-2.566549554467201233e-02,1.008033901453018188e-01,2.153726667165756226e-01,-2.040258049964904785e-01,1.154849231243133545e-01,1.588849723339080811e-01,-1.212922781705856323e-01,1.358078420162200928e-01,-8.166319131851196289e-02,-1.083161011338233948e-01,-2.005462944507598877e-01,5.090848729014396667e-02,-1.337435692548751831e-01,-2.171531133353710175e-02,-7.973853498697280884e-03,2.182307392358779907e-01,7.926097512245178223e-02,1.118586659431457520e-01,-1.225271672010421753e-01,4.992889985442161560e-02,-6.382603198289871216e-02,-4.347168654203414917e-02,-9.199777990579605103e-02,-2.852453477680683136e-02,-2.087311893701553345e-01,8.483849465847015381e-02,1.122340559959411621e-01,8.291869610548019409e-02,-1.574833989143371582e-01,-1.174957305192947388e-02,4.106412082910537720e-02,5.576728284358978271e-02,1.023607775568962097e-01,-2.736741304397583008e-02,-3.760258434340357780e-03,-4.748833552002906799e-02,1.928886026144027710e-02,-9.069707244634628296e-02,8.749576658010482788e-02,2.120384573936462402e-01,1.884647607803344727e-01,1.504889130592346191e-01,1.628205478191375732e-01,5.793419200927019119e-03,-1.151027753949165344e-01,-7.784496992826461792e-02,-6.294332444667816162e-02,3.423579409718513489e-02,-7.760785520076751709e-02,1.477406453341245651e-02,5.563680455088615417e-02,7.894986122846603394e-02,1.503335088491439819e-01,4.896340519189834595e-02,-6.852538883686065674e-02,4.818396642804145813e-02,-3.259123768657445908e-03,7.221575081348419189e-02,-1.140095070004463196e-01,-2.531432211399078369e-01,-4.595513269305229187e-02,2.674509212374687195e-02,2.290734499692916870e-01,-5.116941779851913452e-02,2.870256139431148767e-04,-2.167414575815200806e-01,-4.352160613052546978e-04,8.492649346590042114e-02,1.273273378610610962e-01,-2.603942155838012695e-02,-6.389877200126647949e-02,-8.811241388320922852e-02,-7.485476136207580566e-02,1.340102106332778931e-01,-4.384681954979896545e-02,-3.033319488167762756e-02,4.006622731685638428e-02,1.202025189995765686e-01,1.675814986228942871e-01,-7.711386680603027344e-02,7.271986454725265503e-02,1.223890185356140137e-01,-2.873229607939720154e-02,-1.216512396931648254e-01,-3.175789117813110352e-02,1.251757331192493439e-02,4.632355272769927979e-02,6.184184923768043518e-02,-4.542559012770652771e-02,5.138508602976799011e-02,-1.181093305349349976e-01,2.843466401100158691e-01,4.009753093123435974e-02,-1.526213139295578003e-01,-7.452636212110519409e-02,-1.408741474151611328e-01,-1.011091619729995728e-01,1.250028051435947418e-02,8.808208629488945007e-03,-4.547528922557830811e-03,-1.074148640036582947e-01,1.160748526453971863e-01
-1.546988636255264282e-01,1.140019968152046204e-01,-1.581528931856155396e-01,-2.089916616678237915e-01,-5.123522877693176270e-02,1.956505179405212402e-01,-8.133682608604431152e-02,-1.269266605377197266e-01,-9.971834719181060791e-02,1.494464129209518433e-01,1.860765516757965088e-01,-8.156796917319297791e-03,-9.656748734414577484e-03,1.536508500576019287e-01,-2.649329006671905518e-01,2.065393514931201935e-02,2.239932119846343994e-02,1.180074289441108704e-01,2.230716794729232788e-01,1.180210560560226440e-01,2.747892029583454132e-02,-1.622724533081054688e-01,-1.332858949899673462e-01,1.012605577707290649e-01,1.865835674107074738e-02,-4.029320087283849716e-03,-1.428358554840087891e-01,-1.076439172029495239e-01,2.517708577215671539e-02,2.771778404712677002e-01,6.466145813465118408e-02,-1.400914508849382401e-02,-4.744180291891098022e-02,6.327272951602935791e-02,3.778507933020591736e-02,-4.578441381454467773e-02,3.545623645186424255e-02,1.648379266262054443e-01,7.962753623723983765e-02,5.808853544294834137e-03,4.584192112088203430e-02,9.602358937263488770e-02,1.024822443723678589e-01,-1.111905947327613831e-01,-1.775637418031692505e-01,3.304727748036384583e-02,2.545652091503143311e-01,-8.731631189584732056e-02,-1.416261196136474609e-01,3.878133744001388550e-02,6.000718101859092712e-02,-4.850346222519874573e-02,1.566407680511474609e-01,-3.514863085001707077e-03,-1.757975369691848755e-01,-6.506919860839843750e-02,-4.146727547049522400e-02,1.003079637885093689e-01,-3.893003240227699280e-02,4.143292456865310669e-02,6.378209590911865234e-02,-5.802998691797256470e-02,-2.729557752609252930e-01,2.399304136633872986e-02,1.322199404239654541e-01,-3.347783535718917847e-02,2.216072008013725281e-02,5.039578676223754883e-02,-1.023005601018667221e-02,1.032431721687316895e-01,1.315328627824783325e-01,-7.097909692674875259e-03,-1.580461710691452026e-01,-1.035858541727066040e-01,2.071670144796371460e-01,-5.333187989890575409e-03,-9.252933412790298462e-02,1.414280980825424194e-01,-1.047375798225402832e-02,-1.569629758596420288e-01,3.150573745369911194e-02,1.889005862176418304e-02,1.297399401664733887e-01,-7.341733202338218689e-03,-1.680097877979278564e-01,8.350998163223266602e-02,-2.137906104326248169e-02,1.307677775621414185e-01,-2.434715926647186279e-01,-1.379407793283462524e-01,-8.794754743576049805e-02,9.211395680904388428e-02,-8.741547912359237671e-02,-1.548657864332199097e-01,-4.973168671131134033e-02,5.814421921968460083e-02,6.930004805326461792e-02,7.915357500314712524e-02,8.378736674785614014e-02,6.078678369522094727e-02,1.032715141773223877e-01,-7.006020750850439072e-04,-7.400366663932800293e-02,4.687366634607315063e-02,7.316259294748306274e-02,1.697536259889602661e-01,-8.216296136379241943e-02,1.385053545236587524e-01,1.390031166374683380e-02,9.234811365604400635e-02,-5.972421914339065552e-02,3.116726875305175781e-02,-1.091108005493879318e-02,6.518301367759704590e-02,-1.573405414819717407e-01,2.501931190490722656e-01,-9.056127816438674927e-02,9.668777883052825928e-02,-5.001383647322654724e-02,-4.548592492938041687e-02
3.532112389802932739e-02,2.316885143518447876e-01,-1.943973153829574585e-01,4.506893455982208252e-04,-1.308274567127227783e-01,1.435600500553846359e-02,-1.811092533171176910e-02,-6.781377643346786499e-02,5.339834839105606079e-02,-4.725059866905212402e-02,-1.144704073667526245e-01,1.099857762455940247e-01,2.276364155113697052e-02,1.160405129194259644e-01,-5.003189668059349060e-02,6.254238635301589966e-02,-1.535376813262701035e-02,1.347301006317138672e-01,-1.185674071311950684e-01,7.588569819927215576e-02,-6.937175244092941284e-02,-1.292929053306579590e-01,8.232015371322631836e-02,-4.746124520897865295e-02,3.110270388424396515e-02,-1.139154210686683655e-01,-2.953495271503925323e-02,-1.003118511289358139e-02,-5.988798290491104126e-02,9.453763067722320557e-02,-5.089973658323287964e-02,-4.886360839009284973e-02,2.496389858424663544e-02,-2.777089737355709076e-02,-2.711359858512878418e-01,-1.094915531575679779e-02,-1.308750063180923462e-01,2.602004446089267731e-02,-3.469225764274597168e-02,-1.157277077436447144e-01,-9.825818240642547607e-02,-9.319373220205307007e-02,1.276881545782089233e-01,-3.910866379737854004e-02,1.122975274920463562e-01,2.470810897648334503e-02,6.743723899126052856e-02,-6.579849123954772949e-02,-1.975601613521575928e-01,4.066003113985061646e-02,2.355881035327911377e-02,3.793823346495628357e-02,-6.001648679375648499e-02,5.868869647383689880e-02,2.224298194050788879e-02,3.655049949884414673e-02,-1.275685131549835205e-01,1.306775361299514771e-01,2.023895531892776489e-01,3.927985206246376038e-02,-7.168114185333251953e-02,-3.375143930315971375e-02,-2.092575132846832275e-01,-6.779816001653671265e-02,2.959928475320339203e-02,2.362485602498054504e-02,1.443759351968765259e-01,-1.071211844682693481e-01,9.250168502330780029e-02,-6.363198161125183105e-02,2.303286045789718628e-01,-9.429124742746353149e-02,5.450706928968429565e-02,-2.776479721069335938e-01,-7.979010045528411865e-02,1.026868447661399841e-01,-2.528301905840635300e-03,-8.417770266532897949e-03,2.205922901630401611e-01,-9.866899996995925903e-02,-4.250032827258110046e-02,5.224564671516418457e-02,5.438013002276420593e-02,7.649824768304824829e-02,1.055114790797233582e-01,2.352244779467582703e-02,2.496550790965557098e-02,8.317641913890838623e-02,-3.584668785333633423e-02,1.480618491768836975e-02,1.492142081260681152e-01,-8.896931260824203491e-02,-3.544375300407409668e-02,-9.735069423913955688e-02,-6.561638787388801575e-03,1.138696819543838501e-01,6.628295779228210449e-02,1.478866934776306152e-01,1.982673257589340210e-02,2.847648784518241882e-02,5.870405212044715881e-02,-7.979183644056320190e-02,7.459423691034317017e-02,-8.638578653335571289e-02,7.589279860258102417e-02,-8.427402377128601074e-02,1.363696753978729248e-01,-1.664365977048873901e-01,4.787426814436912537e-02,6.964290980249643326e-03,2.408052608370780945e-02,2.019363269209861755e-02,7.071406394243240356e-02,-5.468772724270820618e-03,-7.565755397081375122e-02,4.197613522410392761e-02,-1.490143239498138428e-01,-4.907944425940513611e-02,6.573808193206787109e-02,4.838905110955238342e-02
1.396179795265197754e-01,-5.055036023259162903e-02,9.807051718235015869e-02,-6.755526363849639893e-02,1.664488464593887329e-01,-2.167151076719164848e-03,1.021157652139663696e-01,7.583623379468917847e-02,1.513261795043945312e-01,3.636071830987930298e-02,-1.962942630052566528e-01,-1.658129394054412842e-01,-1.871739774942398071e-01,-1.016292795538902283e-01,3.139683604240417480e-02,4.643838107585906982e-02,-1.715482212603092194e-02,-7.237409055233001709e-02,1.727039180696010590e-02,4.913999512791633606e-02,2.251806855201721191e-01,4.107712581753730774e-02,1.522811502218246460e-02,2.100837230682373047e-02,4.132608324289321899e-02,-1.142209917306900024e-01,-4.244737699627876282e-02,-7.516643404960632324e-02,-2.168318480253219604e-01,1.956693828105926514e-01,-2.167800441384315491e-02,-6.529066711664199829e-02,3.081310093402862549e-01,-1.458043456077575684e-01,7.775453478097915649e-02,-1.135966032743453979e-01,4.397494252771139145e-03,2.476702928543090820e-01,1.250612437725067139e-01,-7.340811938047409058e-02,-1.385893952101469040e-02,-1.834099367260932922e-02,2.544587552547454834e-01,9.116137772798538208e-02,-1.024655550718307495e-01,1.889272183179855347e-01,1.035215556621551514e-01,8.611274510622024536e-02,-2.589584589004516602e-01,9.876105189323425293e-02,-1.000385954976081848e-01,2.280771434307098389e-01,-4.979627206921577454e-02,6.505179405212402344e-02,2.020732685923576355e-02,-1.114101801067590714e-02,1.447601914405822754e-01,-1.199265271425247192e-01,-6.900671869516372681e-02,-1.138457432389259338e-01,5.832203850150108337e-02,-7.182247191667556763e-02,2.988215908408164978e-02,-1.142423972487449646e-01,-9.879357367753982544e-02,-7.181891053915023804e-02,-1.051348745822906494e-01,-1.055258214473724365e-01,4.102823510766029358e-02,-1.516548544168472290e-01,-2.111755162477493286e-01,-9.228279441595077515e-02,-9.899371117353439331e-02,8.868916891515254974e-03,-1.100704148411750793e-01,1.936437445692718029e-03,5.135111510753631592e-02,-5.374303460121154785e-02,1.475495398044586182e-01,1.797717362642288208e-01,4.150693491101264954e-02,-4.685739055275917053e-03,-9.427087008953094482e-02,8.154537528753280640e-02,-1.221008449792861938e-01,-1.704368889331817627e-01,9.350294619798660278e-02,2.773090004920959473e-01,9.894196875393390656e-03,-1.016427055001258850e-01,-1.137685105204582214e-01,5.949296057224273682e-03,2.215431071817874908e-02,-5.291587486863136292e-02,3.199077025055885315e-02,4.097353294491767883e-02,1.024948805570602417e-01,6.490451842546463013e-02,-4.557895287871360779e-02,-1.110586747527122498e-01,-8.508617430925369263e-02,-4.028574526309967041e-01,7.970198988914489746e-02,6.055000424385070801e-02,2.018526643514633179e-01,6.422747671604156494e-02,2.204503165557980537e-03,-1.309026926755905151e-01,3.203922510147094727e-02,-8.694338798522949219e-02,8.247291296720504761e-02,1.025672778487205505e-01,-5.613922700285911560e-02,9.974638372659683228e-02,-3.149475157260894775e-02,-6.676726043224334717e-02,5.482382699847221375e-02,-4.336074739694595337e-02,1.694688946008682251e-02,-2.772808074951171875e-01
-1.051593124866485596e-01,5.745461583137512207e-02,1.034361347556114197e-01,1.432521920651197433e-02,1.445282995700836182e-01,5.710660293698310852e-02,1.072843521833419800e-01,-5.075218528509140015e-02,-7.058757543563842773e-02,1.326459199190139771e-01,7.156050205230712891e-02,2.391976565122604370e-01,1.242890805006027222e-01,-3.195774182677268982e-02,-1.113032102584838867e-01,-2.277934998273849487e-01,-1.357643306255340576e-01,1.876328289508819580e-01,-3.820678591728210449e-02,4.303040355443954468e-02,-1.172697842121124268e-01,1.577778346836566925e-02,-5.399524047970771790e-02,2.492893254384398460e-03,4.564053192734718323e-02,1.338810920715332031e-01,8.898061513900756836e-02,1.381258759647607803e-02,3.269613981246948242e-01,-2.306643426418304443e-01,-1.411840766668319702e-01,4.227375984191894531e-02,-2.164619415998458862e-01,-1.157718971371650696e-01,-1.074532419443130493e-01,-1.837101727724075317e-01,5.136504024267196655e-02,1.638104468584060669e-01,6.522747129201889038e-02,-3.841718286275863647e-02,3.192260116338729858e-02,-7.447859970852732658e-04,1.616922467947006226e-01,-1.918050646781921387e-01,-1.192932873964309692e-01,-5.498291179537773132e-02,-2.112778723239898682e-01,1.564463675022125244e-01,-9.698544442653656006e-02,-1.601493954658508301e-01,-7.861305773258209229e-02,-2.359491586685180664e-02,2.752822823822498322e-02,5.891926959156990051e-02,-3.898662328720092773e-02,-1.117262616753578186e-01,9.947584569454193115e-02,4.343717545270919800e-02,8.391127735376358032e-02,4.129428789019584656e-02,1.402751356363296509e-01,5.469308048486709595e-02,-8.410647511482238770e-03,4.877781495451927185e-02,-5.878339335322380066e-02,-1.111714690923690796e-01,-1.747942119836807251e-01,-8.416778594255447388e-02,2.182091586291790009e-02,-1.489608287811279297e-01,-9.099701046943664551e-02,8.026375621557235718e-02,-5.092088505625724792e-02,-1.310750246047973633e-01,1.136526763439178467e-01,-1.517532765865325928e-01,1.318812072277069092e-01,1.056303828954696655e-01,-1.269692629575729370e-01,9.022111445665359497e-02,-1.622008979320526123e-01,-9.395349770784378052e-02,-6.830857601016759872e-03,-2.547268941998481750e-02,-1.129286065697669983e-01,-6.408971268683671951e-03,-2.276531606912612915e-01,-8.898133039474487305e-02,-4.427045956254005432e-02,1.343443244695663452e-01,-8.909968286752700806e-02,-7.434142380952835083e-02,1.174551993608474731e-01,-1.174026429653167725e-01,2.248495817184448242e-02,-1.023906096816062927e-01,-1.683450043201446533e-01,-6.998143345117568970e-02,8.870719373226165771e-02,-5.986802279949188232e-02,-4.567784722894430161e-03,-4.381966963410377502e-02,-1.874403059482574463e-01,-1.199697330594062805e-01,-9.917537122964859009e-02,1.523647606372833252e-01,1.699028536677360535e-02,-8.425310254096984863e-02,7.183693349361419678e-02,-1.168217957019805908e-01,1.349032223224639893e-01,-3.046267479658126831e-02,-1.263122558593750000e-01,-1.640249490737915039e-01,-1.729802638292312622e-01,1.113611012697219849e-01,-4.194194823503494263e-02,6.590410321950912476e-02,1.636452078819274902e-01,5.680351052433252335e-03
1.845670789480209351e-01,1.277222484350204468e-01,2.063733190298080444e-01,-1.070705205202102661e-01,1.406819373369216919e-01,-1.774854660034179688e-01,2.080180216580629349e-03,5.937746912240982056e-02,-1.299224793910980225e-01,8.939730003476142883e-03,-7.530434429645538330e-02,-2.768743634223937988e-01,-5.206550285220146179e-02,6.906981021165847778e-02,-3.510609641671180725e-02,-2.446007728576660156e-01,-1.135818958282470703e-01,6.920401751995086670e-02,-2.586839795112609863e-01,1.683303900063037872e-02,-1.171468943357467651e-01,-1.303121894598007202e-01,-8.866083621978759766e-02,-3.245140612125396729e-02,-2.390498220920562744e-01,-1.511897146701812744e-01,-8.686359226703643799e-02,4.986786469817161560e-02,-1.707384437322616577e-01,-1.584089994430541992e-01,-6.841392815113067627e-02,-4.179865494370460510e-02,-1.740462146699428558e-02,1.142472214996814728e-02,-1.072197780013084412e-01,7.697113603353500366e-02,-3.160117194056510925e-02,6.629691272974014282e-02,5.171542242169380188e-02,2.847786620259284973e-02,5.859388969838619232e-03,5.818916857242584229e-02,-2.282447516918182373e-01,1.278003007173538208e-01,4.257052764296531677e-02,-1.895586997270584106e-01,6.384863704442977905e-02,3.124186396598815918e-02,8.246719837188720703e-02,-1.337791085243225098e-01,-1.592799872159957886e-01,-1.410028338432312012e-01,-3.540236875414848328e-02,6.114406511187553406e-02,9.482531249523162842e-02,4.312912747263908386e-02,-3.072820603847503662e-02,1.524437963962554932e-01,-1.143711656332015991e-01,1.193741858005523682e-01,1.498510688543319702e-01,1.506208330392837524e-01,4.944698885083198547e-02,1.284561008214950562e-01,3.883303701877593994e-02,-2.060109190642833710e-02,7.701448351144790649e-02,2.404098957777023315e-01,-7.904683053493499756e-02,1.371328681707382202e-01,-1.778316646814346313e-01,-2.549390308558940887e-02,-1.538464426994323730e-01,2.325575649738311768e-01,-9.240180999040603638e-02,-1.157279238104820251e-01,9.104838967323303223e-02,-3.597248718142509460e-02,5.225048586726188660e-02,2.143942564725875854e-01,-2.411052025854587555e-02,-1.287613064050674438e-01,-1.709962487220764160e-01,-4.344290122389793396e-02,-7.274260278791189194e-03,-1.380431558936834335e-02,-1.427758485078811646e-01,-1.949540525674819946e-01,1.221461966633796692e-01,1.580955088138580322e-01,6.192875560373067856e-03,5.725748091936111450e-02,-6.735868752002716064e-02,1.197797358036041260e-01,4.269224032759666443e-02,-1.620805263519287109e-02,-1.520425081253051758e-01,8.872982114553451538e-02,1.207121163606643677e-01,1.182300448417663574e-01,-1.614548116922378540e-01,-1.120943799614906311e-01,-4.748627543449401855e-02,1.193560883402824402e-01,-2.448698319494724274e-02,-1.278064846992492676e-01,4.708307608962059021e-02,2.879846654832363129e-02,-8.769146353006362915e-02,-6.937520205974578857e-02,2.649488151073455811e-01,1.914394050836563110e-01,1.553430221974849701e-02,1.423270553350448608e-01,-7.457255572080612183e-02,-2.514677941799163818e-01,3.672528639435768127e-02,8.805325627326965332e-02,1.347469240427017212e-01,6.620212458074092865e-03
1.329400986433029175e-01,-7.786025851964950562e-02,-1.640628725290298462e-01,-1.777183413505554199e-01,-8.511564694344997406e-03,1.343269795179367065e-01,-4.221181944012641907e-02,-2.107571810483932495e-01,6.467031687498092651e-02,-3.653179854154586792e-03,1.717980057001113892e-01,8.758932352066040039e-02,8.370606601238250732e-02,8.357472717761993408e-02,-2.008370906114578247e-01,1.544940751045942307e-02,3.723092144355177879e-03,9.792538732290267944e-02,1.895794570446014404e-01,-1.129913255572319031e-01,6.423155963420867920e-02,3.819639235734939575e-02,-2.949341945350170135e-02,1.925844103097915649e-01,1.894483268260955811e-01,-6.242469325661659241e-02,-1.613813042640686035e-01,-2.224542386829853058e-02,1.080938056111335754e-01,-1.272575110197067261e-01,1.004307940602302551e-01,-1.046039909124374390e-01,-1.920812875032424927e-01,3.214589878916740417e-02,-4.441936314105987549e-02,-1.254436075687408447e-01,-8.119693398475646973e-02,9.149353951215744019e-02,-9.034509211778640747e-02,1.273436099290847778e-01,5.493051931262016296e-02,1.721808016300201416e-01,2.996912896633148193e-01,-1.787921786308288574e-02,-1.209224388003349304e-01,4.811620712280273438e-02,-9.126972407102584839e-02,4.589601233601570129e-02,-1.779334694147109985e-01,9.878918528556823730e-02,-2.370522357523441315e-02,2.044364213943481445e-01,-1.104895323514938354e-01,5.848734639585018158e-03,5.337574984878301620e-03,1.335201114416122437e-01,-1.210417747497558594e-01,1.025860831141471863e-01,-6.305570155382156372e-02,4.815005883574485779e-02,2.352728694677352905e-02,1.523776329122483730e-03,-9.177663922309875488e-02,-6.566123664379119873e-02,6.988152116537094116e-02,-4.551057238131761551e-03,-8.268240839242935181e-02,1.044866908341646194e-02,6.229166314005851746e-02,1.700653731822967529e-01,1.431438624858856201e-01,-1.907102465629577637e-01,9.562224149703979492e-02,-2.941136062145233154e-01,1.155600100755691528e-01,-9.034185111522674561e-02,4.816277697682380676e-02,-5.332269519567489624e-02,-1.061349362134933472e-01,4.396344348788261414e-02,-4.344777017831802368e-02,-1.947057545185089111e-01,5.649744719266891479e-02,-9.074908494949340820e-02,-8.140151202678680420e-02,1.715238019824028015e-02,1.528533827513456345e-02,-7.200373709201812744e-02,9.736526757478713989e-02,2.390113025903701782e-01,7.249783724546432495e-02,9.933374077081680298e-02,2.186284959316253662e-01,-5.815451033413410187e-03,-4.444786906242370605e-02,-9.956539422273635864e-02,-7.565597444772720337e-02,1.568076759576797485e-01,1.434338539838790894e-01,7.381787896156311035e-02,1.200455874204635620e-01,1.625940501689910889e-01,-3.717199340462684631e-02,2.469383552670478821e-02,-8.056733012199401855e-02,1.280519664287567139e-01,-8.788576722145080566e-02,-1.603859812021255493e-01,1.395036727190017700e-01,-4.403184726834297180e-02,-3.595935180783271790e-02,-4.668932035565376282e-02,-1.015865057706832886e-01,-6.811987608671188354e-02,-1.794750541448593140e-01,-6.460595875978469849e-02,-9.683299064636230469e-02,-7.774353772401809692e-02,1.090342849493026733e-01,1.515306532382965088e-01
-2.204050719738006592e-01,-2.185177430510520935e-02,3.429720997810363770e-01,-2.562939822673797607e-01,-2.576815187931060791e-01,-1.635695993900299072e-01,3.974743559956550598e-02,-1.394593417644500732e-01,2.945505268871784210e-02,6.675045192241668701e-02,-3.863516151905059814e-01,-3.022213876247406006e-01,2.073558568954467773e-01,1.596929877996444702e-01,-2.460684478282928467e-01,1.917048692703247070e-01,5.690677836537361145e-02,-1.824559830129146576e-02,1.320102363824844360e-01,-2.288936227560043335e-01,-4.146291315555572510e-01,-4.923073574900627136e-02,1.338657140731811523e-01,-2.430058643221855164e-02,-8.394069224596023560e-02,-3.056325316429138184e-01,-1.918430924415588379e-01,-1.743028163909912109e-01,1.174747720360755920e-01,1.518890559673309326e-01,1.310383826494216919e-01,-2.089442312717437744e-01,-7.941765338182449341e-02,-1.626229733228683472e-01,-5.133197084069252014e-02,6.399218458682298660e-03,2.749431319534778595e-02,-6.604546215385198593e-03,-9.048948436975479126e-02,-7.452458143234252930e-03,1.857944726943969727e-01,-1.098698079586029053e-01,2.054014354944229126e-01,-3.795827180147171021e-02,-3.258088231086730957e-01,1.734586358070373535e-01,1.756533831357955933e-01,3.638076782226562500e-01,-3.167071342468261719e-01,1.041078418493270874e-01,-8.401685208082199097e-02,-8.505614846944808960e-02,6.668443232774734497e-02,8.617315441370010376e-02,8.532679826021194458e-02,-2.644000016152858734e-02,-7.903128117322921753e-02,-4.569996520876884460e-02,2.226162888109683990e-02,-2.561727166175842285e-01,9.314858168363571167e-02,2.097517102956771851e-01,7.436840981245040894e-02,-4.294496178627014160e-01,-1.506785899400711060e-01,-1.521315723657608032e-01,-1.637576520442962646e-01,3.304897844791412354e-01,2.369934469461441040e-01,-5.415412038564682007e-02,7.036030292510986328e-02,4.118733480572700500e-02,1.146029308438301086e-01,-2.000425010919570923e-01,2.548900544643402100e-01,-2.174787074327468872e-01,6.227842718362808228e-02,8.560421317815780640e-02,2.731674313545227051e-01,4.069103598594665527e-01,-2.988329529762268066e-01,7.481008023023605347e-02,-6.402344256639480591e-02,-1.286275237798690796e-01,2.034839391708374023e-01,6.847346574068069458e-02,-2.628503739833831787e-01,-1.559120565652847290e-01,1.400788873434066772e-01,2.331323921680450439e-01,1.137802675366401672e-01,1.532288342714309692e-01,-1.569056957960128784e-01,6.459634006023406982e-02,2.430282831192016602e-01,3.191398978233337402e-01,1.365799456834793091e-01,-9.143384546041488647e-02,4.651964008808135986e-01,5.317825451493263245e-02,-9.254252165555953979e-02,-4.720510449260473251e-03,1.077414825558662415e-01,1.287554204463958740e-01,6.047859191894531250e-01,1.348319649696350098e-01,-1.546392142772674561e-01,3.281076848506927490e-01,-2.529360353946685791e-01,2.460193485021591187e-01,2.268156111240386963e-01,6.881906092166900635e-02,-7.790689170360565186e-02,3.653830587863922119e-01,-1.830074042081832886e-01,-5.330865979194641113e-01,-8.588638901710510254e-02,1.539910286664962769e-01,-2.377812750637531281e-02,-2.196685820817947388e-01
1.258949637413024902e-01,1.845598220825195312e-01,-1.858247965574264526e-01,1.309934705495834351e-01,1.175842732191085815e-01,3.318184614181518555e-02,2.042509987950325012e-02,-1.342517733573913574e-01,-1.521570682525634766e-01,-1.324710845947265625e-01,-1.567029058933258057e-01,2.221701741218566895e-01,1.698997467756271362e-01,-2.721441984176635742e-01,-5.530580505728721619e-02,-4.209987819194793701e-02,1.735683977603912354e-01,1.874882611446082592e-03,2.727787382900714874e-02,1.228102743625640869e-01,5.716313421726226807e-02,1.031057536602020264e-01,1.908233463764190674e-01,-2.577440738677978516e-01,2.406022846698760986e-01,2.502506598830223083e-02,7.006012648344039917e-02,6.793300062417984009e-02,-8.263275958597660065e-03,3.932232037186622620e-02,-6.943400204181671143e-02,-1.201478857547044754e-02,-3.199146389961242676e-01,8.463703840970993042e-02,-5.709816887974739075e-02,1.660308539867401123e-01,6.645433604717254639e-03,-9.036152809858322144e-02,3.834578394889831543e-02,1.865544170141220093e-01,1.179755404591560364e-01,6.577026844024658203e-02,2.081696875393390656e-02,-1.170808151364326477e-01,1.684085093438625336e-02,-1.196365505456924438e-01,-1.235897392034530640e-01,-7.161974161863327026e-02,-6.072283908724784851e-02,1.494016796350479126e-01,-7.550257444381713867e-02,-3.003682196140289307e-01,2.570385634899139404e-01,-2.997717261314392090e-01,-2.460527978837490082e-02,-3.738964349031448364e-02,1.750660091638565063e-01,-1.502185016870498657e-01,5.961542483419179916e-03,-1.212872043251991272e-01,-7.856960594654083252e-02,-9.266078472137451172e-02,7.163710147142410278e-02,-9.295943379402160645e-02,6.301285326480865479e-02,5.179182812571525574e-02,-1.098589897155761719e-01,-1.399032622575759888e-01,6.129688583314418793e-03,2.589629888534545898e-01,6.260270625352859497e-02,-3.464252352714538574e-01,3.557149693369865417e-02,5.264420062303543091e-02,1.649554669857025146e-01,-1.322438865900039673e-01,-3.916818276047706604e-02,1.526276022195816040e-01,-4.923739284276962280e-02,-2.613321505486965179e-02,-4.000067710876464844e-01,2.395769581198692322e-02,-5.650651082396507263e-02,1.058983579277992249e-01,2.312032505869865417e-02,-1.812118887901306152e-01,-2.470377832651138306e-01,1.012498885393142700e-01,-6.519542634487152100e-02,-5.365726072341203690e-03,1.260537207126617432e-01,-1.142733171582221985e-02,-4.940453916788101196e-02,5.798867787234485149e-04,-2.386809587478637695e-01,7.762335985898971558e-02,3.455238044261932373e-02,1.782892942428588867e-01,-1.393812745809555054e-01,-8.759535104036331177e-02,1.602214872837066650e-01,-1.124663278460502625e-01,9.199003130197525024e-02,-2.994115278124809265e-02,4.791805893182754517e-02,1.830042749643325806e-01,1.122396290302276611e-01,6.868738681077957153e-02,2.493415772914886475e-02,-3.155417367815971375e-02,-6.526606157422065735e-03,-7.376620918512344360e-02,1.581759192049503326e-03,3.067309856414794922e-01,5.144464969635009766e-02,8.102515339851379395e-02,2.412173151969909668e-02,6.439603120088577271e-02,1.906320601701736450e-01,4.668651148676872253e-02
2.077723294496536255e-01,5.046351253986358643e-02,-3.710386902093887329e-02,1.872931234538555145e-02,-1.386819779872894287e-01,-8.157414197921752930e-02,8.015828579664230347e-02,5.738562718033790588e-02,4.824784770607948303e-02,1.109672263264656067e-01,-1.091102734208106995e-01,1.111274883151054382e-01,1.124158874154090881e-01,1.850016117095947266e-01,4.099336639046669006e-02,3.413727506995201111e-02,-6.785731762647628784e-03,-1.236462891101837158e-01,1.024889573454856873e-01,1.146441325545310974e-02,1.708175688982009888e-01,-7.452049851417541504e-02,-7.393130660057067871e-02,-2.793126180768013000e-02,-1.496695429086685181e-01,1.667540520429611206e-02,9.529817104339599609e-02,-1.842242851853370667e-02,5.448473617434501648e-02,-1.621328294277191162e-02,4.384350404143333435e-02,4.335418343544006348e-02,1.262461841106414795e-01,6.011607497930526733e-02,-5.955651775002479553e-02,9.936563670635223389e-02,-1.237880438566207886e-01,-1.747550666332244873e-01,-1.501365453004837036e-01,2.654873393476009369e-02,5.299360305070877075e-02,-3.002070635557174683e-02,-1.302097290754318237e-01,-6.252265721559524536e-02,-4.395078122615814209e-02,9.104100614786148071e-02,2.161128669977188110e-01,-6.746190786361694336e-02,1.155040413141250610e-01,-2.885401062667369843e-02,-1.974500119686126709e-01,-6.996517069637775421e-03,4.360567405819892883e-02,2.130183205008506775e-02,-8.217307925224304199e-02,-4.071614891290664673e-02,-4.759208112955093384e-02,-9.660387784242630005e-02,1.613177061080932617e-01,1.740252375602722168e-01,-3.673736006021499634e-02,1.444136798381805420e-01,-7.943810522556304932e-02,-1.174210831522941589e-01,-1.433756500482559204e-01,-8.365789800882339478e-02,-2.207531221210956573e-02,3.782834112644195557e-02,-2.046012431383132935e-01,-4.683355987071990967e-02,5.953908339142799377e-02,-9.091133624315261841e-02,-1.472476753406226635e-03,-1.219821646809577942e-01,-2.411584742367267609e-02,2.003385499119758606e-02,-5.138098821043968201e-02,-1.040472909808158875e-01,-1.056948006153106689e-01,7.359300553798675537e-02,1.081154644489288330e-01,-1.155497506260871887e-01,4.119956493377685547e-02,-4.522002860903739929e-02,-1.877709478139877319e-02,4.382284730672836304e-02,1.566866785287857056e-01,-5.754718557000160217e-03,5.535570159554481506e-02,5.261952802538871765e-02,-8.924961090087890625e-02,-5.697624012827873230e-02,-1.822701096534729004e-01,3.577729314565658569e-02,-9.093797206878662109e-02,-1.195675414055585861e-02,-7.479480654001235962e-02,-1.375463604927062988e-01,-9.498990140855312347e-03,1.340980082750320435e-01,-1.478068158030509949e-02,1.291262954473495483e-01,1.871218532323837280e-02,2.158844657242298126e-02,-3.106483258306980133e-02,-4.252260923385620117e-02,-1.183820050209760666e-02,-1.778416149318218231e-02,-9.430631995201110840e-03,2.101412601768970490e-02,-1.935929656028747559e-01,-2.834267541766166687e-02,1.042804960161447525e-02,-9.381393343210220337e-02,1.253368682228028774e-03,6.268768105655908585e-03,6.631913036108016968e-02,4.659474268555641174e-02,-7.234052568674087524e-02,-8.004689216613769531e-02
-2.043729647994041443e-02,-2.312596654519438744e-03,-2.754296548664569855e-02,-1.225033029913902283e-01,3.299352228641510010e-01,5.012115463614463806e-02,2.722037732601165771e-01,7.233773171901702881e-02,3.228660672903060913e-02,3.157095611095428467e-02,3.881870806217193604e-01,1.647920161485671997e-01,1.151702553033828735e-01,1.322414427995681763e-01,8.558072894811630249e-02,-2.034334689378738403e-01,-1.446987688541412354e-01,-4.474326036870479584e-03,1.435116678476333618e-01,-2.672507800161838531e-02,-1.298379451036453247e-01,1.020086258649826050e-01,-6.366351246833801270e-02,-3.846221137791872025e-03,1.183241605758666992e-01,-6.127176433801651001e-02,-1.952754259109497070e-01,9.229113906621932983e-02,6.280732154846191406e-01,1.350842267274856567e-01,3.440163657069206238e-02,-1.180570498108863831e-01,-3.541989251971244812e-02,2.129025608301162720e-01,-7.356426864862442017e-02,1.821360737085342407e-01,-1.035422086715698242e-02,-2.028584247455000877e-03,1.034602746367454529e-01,1.794702857732772827e-01,2.765274047851562500e-01,-1.370407193899154663e-01,-6.061649322509765625e-01,1.115454733371734619e-01,2.473783493041992188e-01,-5.300625413656234741e-02,-2.351749502122402191e-02,-1.685748696327209473e-01,-1.434046924114227295e-01,-5.576707795262336731e-02,-1.605330407619476318e-02,-2.895782291889190674e-01,-2.626812085509300232e-02,5.521837156265974045e-03,9.544581919908523560e-02,-3.929425030946731567e-02,-9.918648749589920044e-02,-1.316550523042678833e-01,6.105162575840950012e-02,1.598066091537475586e-01,-1.782104074954986572e-01,-3.965352848172187805e-02,7.731222361326217651e-02,-1.675315946340560913e-01,-1.056218147277832031e-01,-3.973319381475448608e-02,1.184954643249511719e-01,-2.445370256900787354e-01,-2.451805211603641510e-02,-1.140700653195381165e-02,-8.112625032663345337e-02,1.106922514736652374e-02,-7.684987038373947144e-02,-2.864551842212677002e-01,-1.734321564435958862e-01,8.522339165210723877e-02,-5.342120304703712463e-02,1.283732354640960693e-01,1.624142378568649292e-01,-2.970297634601593018e-01,-2.366820126771926880e-01,9.931612759828567505e-02,-8.082561939954757690e-02,-1.140691339969635010e-01,-9.256874211132526398e-03,-2.089378535747528076e-01,1.600510776042938232e-01,4.484433680772781372e-02,4.443537071347236633e-02,2.093008756637573242e-01,-5.010746419429779053e-02,-6.893327087163925171e-02,-2.234256714582443237e-01,9.770967066287994385e-02,-8.406904339790344238e-02,1.471688896417617798e-01,-2.209721505641937256e-01,-2.839824371039867401e-02,-5.971767380833625793e-02,1.538203358650207520e-01,3.542206808924674988e-02,-5.995703488588333130e-02,-1.271241158246994019e-01,1.024442389607429504e-01,6.645740568637847900e-02,-1.542668193578720093e-01,7.437424361705780029e-02,1.180742830038070679e-01,3.255950510501861572e-01,-4.431973099708557129e-01,-3.208127617835998535e-02,3.589257970452308655e-02,1.258152872323989868e-01,-4.881793633103370667e-03,2.711437828838825226e-02,-4.365947097539901733e-02,7.761846482753753662e-02,1.089397519826889038e-01,-3.341463953256607056e-02,-7.126445323228836060e-02
9.588417410850524902e-02,6.117219477891921997e-02,-1.352035701274871826e-01,1.506368964910507202e-01,9.769641607999801636e-02,-4.504269361495971680e-02,-9.054770320653915405e-02,1.117951646447181702e-01,1.094726622104644775e-01,7.326898723840713501e-02,1.045971587300300598e-01,-1.595588922500610352e-01,1.404929906129837036e-01,1.224928125739097595e-01,-9.192166849970817566e-03,8.746100962162017822e-02,1.446530520915985107e-01,-1.590728610754013062e-01,1.336072534322738647e-01,-6.623930484056472778e-02,2.368619292974472046e-01,-2.333891391754150391e-02,3.304474428296089172e-02,-1.478517800569534302e-01,-1.286838650703430176e-01,3.742772154510021210e-03,1.480471491813659668e-01,-7.130920141935348511e-02,-8.964192867279052734e-02,2.586417496204376221e-01,-2.045272849500179291e-02,1.064048241823911667e-02,-4.606486856937408447e-02,-8.762490749359130859e-02,-5.286016315221786499e-02,1.651488058269023895e-02,5.469390377402305603e-02,-1.033821031451225281e-01,-1.372429728507995605e-01,1.046331450343132019e-01,-1.476341038942337036e-01,3.809953480958938599e-02,2.493314631283283234e-02,9.304069727659225464e-02,2.455279678106307983e-01,2.312980443239212036e-01,-4.805152304470539093e-03,8.693151921033859253e-02,-1.658467352390289307e-01,1.509175747632980347e-01,1.131890416145324707e-01,8.562586270272731781e-03,-5.204579234123229980e-02,1.124002784490585327e-02,-1.217726916074752808e-01,-8.659723401069641113e-02,-1.488743424415588379e-01,9.004967659711837769e-02,-6.233803927898406982e-02,-1.031529717147350311e-02,2.768764831125736237e-02,-9.986747801303863525e-02,-9.393095970153808594e-02,1.299151480197906494e-01,2.822084538638591766e-02,7.599197328090667725e-02,-1.384389251470565796e-01,3.066417202353477478e-02,1.333314329385757446e-01,6.693090498447418213e-02,-1.087539419531822205e-01,-1.169702857732772827e-01,9.168541431427001953e-02,4.577537775039672852e-01,3.090195357799530029e-02,8.938600122928619385e-02,-2.018695175647735596e-01,-9.120492264628410339e-03,-4.549388587474822998e-02,1.415957063436508179e-01,1.370881050825119019e-01,1.219661161303520203e-01,3.971417620778083801e-02,6.367257237434387207e-02,-3.017475269734859467e-02,-4.346580058336257935e-02,-4.473028704524040222e-02,3.435794413089752197e-01,-5.002940446138381958e-02,2.714636549353599548e-02,8.955782651901245117e-02,4.714381322264671326e-02,-2.307847328484058380e-02,-4.143727011978626251e-03,-8.705683052539825439e-03,-1.758668422698974609e-01,5.290013737976551056e-03,-1.851576864719390869e-01,-2.145035564899444580e-01,-5.261974409222602844e-02,-1.763415522873401642e-02,-2.075068652629852295e-01,2.297718450427055359e-02,1.371637731790542603e-01,-8.580674231052398682e-02,1.100157201290130615e-01,1.322027891874313354e-01,1.051538065075874329e-01,-1.176528707146644592e-01,3.373274207115173340e-01,-1.581925153732299805e-01,-5.418507382273674011e-02,6.299338769167661667e-03,-1.229780837893486023e-01,1.680712401866912842e-01,6.850170344114303589e-02,-7.719860970973968506e-02,-7.279169559478759766e-02,-1.504058577120304108e-02,-1.869580596685409546e-01
1.625575423240661621e-01,-4.315663129091262817e-02,5.125582218170166016e-02,7.047728449106216431e-02,-3.912324458360671997e-02,-9.006017446517944336e-02,1.610967367887496948e-01,1.484804600477218628e-01,-1.172190606594085693e-01,8.262864500284194946e-02,6.837069522589445114e-03,5.132716149091720581e-02,6.818397343158721924e-02,7.759886980056762695e-02,-5.346510559320449829e-02,6.708870083093643188e-02,8.454366028308868408e-02,4.261445254087448120e-02,-6.643517315387725830e-02,-1.753794103860855103e-01,1.193829476833343506e-01,-1.011751741170883179e-01,-1.175568103790283203e-01,-1.031082123517990112e-01,5.476565659046173096e-02,1.100319176912307739e-01,-1.332648843526840210e-01,-6.869809329509735107e-02,-1.742775738239288330e-01,-8.358840644359588623e-02,4.636316373944282532e-02,-3.221347928047180176e-02,2.847467064857482910e-01,2.342280447483062744e-01,-4.722985252737998962e-02,9.211389347910881042e-03,-1.101585850119590759e-01,8.408634364604949951e-02,1.345474570989608765e-01,9.092716127634048462e-02,6.346352398395538330e-02,5.595538392663002014e-02,1.175259277224540710e-01,1.077201068401336670e-01,-1.168557628989219666e-02,-8.836701512336730957e-02,1.160954236984252930e-01,-1.551958024501800537e-01,2.559642307460308075e-03,-4.717793688178062439e-02,-1.790390461683273315e-01,1.349099874496459961e-01,1.637136489152908325e-01,7.325507700443267822e-02,-1.263013929128646851e-01,8.734687417745590210e-02,1.901040077209472656e-01,1.037377044558525085e-01,-4.446081072092056274e-02,-2.376619726419448853e-03,7.476539909839630127e-02,-1.298704594373703003e-01,-1.417022496461868286e-01,-1.898167580366134644e-01,-2.608867548406124115e-02,-9.976927936077117920e-02,7.740966230630874634e-02,-2.380606159567832947e-02,1.069346517324447632e-01,8.029118925333023071e-02,6.222137063741683960e-02,-3.058611229062080383e-02,3.684436902403831482e-02,5.098100304603576660e-01,6.669163703918457031e-02,3.571264073252677917e-02,1.159722208976745605e-01,6.454707682132720947e-02,-1.544835120439529419e-01,-1.762443929910659790e-01,-1.721082180738449097e-01,-1.362730003893375397e-02,-2.855143137276172638e-02,-1.754771918058395386e-01,1.434352397918701172e-01,5.917790904641151428e-02,-5.741758272051811218e-02,-2.503671310842037201e-02,8.799438364803791046e-03,9.388944506645202637e-02,-3.235364332795143127e-02,6.268988549709320068e-02,-8.566366136074066162e-02,6.068085506558418274e-02,-1.664304882287979126e-01,1.002080067992210388e-01,1.343349367380142212e-01,-1.106611862778663635e-01,1.857495754957199097e-01,-2.120792679488658905e-02,-3.138110972940921783e-03,4.501776397228240967e-02,-5.379639938473701477e-02,1.042306199669837952e-01,-2.821785397827625275e-02,-3.530300920829176903e-03,1.223565191030502319e-01,4.340237751603126526e-02,-2.527505457401275635e-01,1.162478998303413391e-01,7.569685578346252441e-02,1.191755831241607666e-01,-2.293991670012474060e-02,1.348686665296554565e-01,-4.252142459154129028e-02,1.103121563792228699e-01,-1.198900714516639709e-01,1.277149002999067307e-02,-1.000219434499740601e-01,-4.378562793135643005e-02
-1.099523901939392090e-02,-1.688550114631652832e-01,-1.703911572694778442e-01,-1.083703860640525818e-01,-9.991586208343505859e-02,6.573497503995895386e-02,1.482999622821807861e-01,-3.627371415495872498e-02,6.948438286781311035e-02,-2.912427671253681183e-02,-1.120886355638504028e-01,1.525440663099288940e-01,-1.299496740102767944e-01,-1.739267259836196899e-01,7.383222132921218872e-02,-1.097078174352645874e-01,6.046606972813606262e-02,-1.336129847913980484e-02,1.943797618150711060e-01,-2.217653766274452209e-02,-9.092338383197784424e-02,-6.307841092348098755e-02,1.679623685777187347e-02,-5.721431225538253784e-02,6.839878112077713013e-02,1.683647632598876953e-01,-2.690546959638595581e-02,-3.721398115158081055e-02,-2.926898188889026642e-02,-1.214833408594131470e-01,2.954017370939254761e-02,6.401468813419342041e-02,7.842811942100524902e-02,-1.570548117160797119e-02,6.838533096015453339e-03,1.148093119263648987e-01,-1.834494173526763916e-01,8.205720037221908569e-02,2.086390554904937744e-01,8.205728977918624878e-02,9.971010684967041016e-02,3.153085336089134216e-02,-2.744139358401298523e-02,-1.673428807407617569e-03,-5.043793469667434692e-02,6.113395839929580688e-02,-1.472631655633449554e-02,1.084315255284309387e-01,-1.006615608930587769e-01,1.449429243803024292e-01,-4.538092762231826782e-02,-1.314082294702529907e-01,8.718746155500411987e-02,6.663414835929870605e-02,2.855595014989376068e-02,-8.013118058443069458e-02,1.984749585390090942e-01,-2.538087964057922363e-01,8.205263316631317139e-02,1.006326153874397278e-01,-6.571757793426513672e-02,1.270275861024856567e-01,-1.140717267990112305e-01,-6.893138587474822998e-02,-8.050849288702011108e-02,-5.110978335142135620e-02,5.291756987571716309e-02,-2.043704837560653687e-01,-2.643353864550590515e-02,-1.156630143523216248e-01,7.376733422279357910e-02,-1.473710834980010986e-01,-1.016132980585098267e-01,3.908517956733703613e-02,-4.520755261182785034e-02,-1.417185962200164795e-01,-4.302691668272018433e-02,7.867319136857986450e-02,1.703031063079833984e-01,-5.164775252342224121e-02,-9.836208075284957886e-02,-1.141727939248085022e-01,-4.855716601014137268e-02,7.505998760461807251e-02,1.545454561710357666e-01,-1.188565269112586975e-01,3.595053032040596008e-02,4.334453493356704712e-02,1.304776668548583984e-01,8.240169286727905273e-02,-7.368534058332443237e-02,-3.490830585360527039e-02,5.305061116814613342e-02,4.454740881919860840e-02,-2.347640506923198700e-02,-4.712824150919914246e-02,5.796635895967483521e-02,1.957314759492874146e-01,1.151333469897508621e-02,4.830827564001083374e-02,1.349776685237884521e-01,-6.501770019531250000e-02,4.189838841557502747e-02,2.689459733664989471e-02,-3.779868409037590027e-02,3.292478621006011963e-02,-2.820233441889286041e-02,-7.218852639198303223e-02,-1.258536875247955322e-01,2.585990428924560547e-01,-4.063969850540161133e-02,-2.070614509284496307e-02,1.834499537944793701e-01,3.202035324648022652e-03,1.663117110729217529e-01,3.386313840746879578e-02,-2.472086623311042786e-02,1.046420726925134659e-02,6.897679716348648071e-02,-1.455253511667251587e-01
5.266081169247627258e-02,-2.163250371813774109e-02,2.078392952680587769e-01,2.000513821840286255e-01,3.956045210361480713e-02,1.777384877204895020e-01,-3.989123553037643433e-02,-3.445348888635635376e-02,-2.434947639703750610e-01,-4.365863278508186340e-02,-8.587259054183959961e-02,1.380609273910522461e-01,7.615663576871156693e-03,1.305623725056648254e-02,7.519214600324630737e-02,-6.605979055166244507e-02,-1.269514262676239014e-01,-9.455119259655475616e-03,-9.071630239486694336e-02,1.532621979713439941e-01,-2.167836427688598633e-01,-1.586570143699645996e-01,9.419831633567810059e-02,-1.231053024530410767e-01,-2.971662022173404694e-02,7.899591326713562012e-02,-9.868150204420089722e-02,6.787689030170440674e-02,7.167219650000333786e-03,-1.160263568162918091e-01,5.452763289213180542e-02,-7.237827777862548828e-02,8.687500655651092529e-02,-2.026271522045135498e-01,6.006389483809471130e-02,-6.795427203178405762e-02,6.781854480504989624e-02,9.861951321363449097e-02,8.168910443782806396e-02,4.585096612572669983e-02,-5.343147739768028259e-02,1.718645393848419189e-01,6.768471747636795044e-02,1.280743628740310669e-01,1.040417253971099854e-01,9.313005954027175903e-03,6.279003620147705078e-02,3.922123927623033524e-03,8.637388050556182861e-02,-1.306296288967132568e-01,2.330487221479415894e-01,6.446164101362228394e-02,-6.202335655689239502e-02,6.585510075092315674e-02,2.023062855005264282e-02,1.410176008939743042e-01,-5.821458250284194946e-02,-2.821938395500183105e-01,1.207143417559564114e-03,1.898353397846221924e-01,7.541768252849578857e-02,-1.280968487262725830e-01,1.117039006203413010e-03,-2.598429620265960693e-01,-2.679604887962341309e-01,1.090594604611396790e-01,-1.122634485363960266e-02,-5.326008796691894531e-02,1.144559755921363831e-01,1.332571804523468018e-01,-2.397696301341056824e-02,-1.586412191390991211e-01,4.835771396756172180e-02,8.087787032127380371e-02,1.554342638701200485e-02,-6.907259672880172729e-02,-8.542596548795700073e-02,-1.085304170846939087e-01,6.021517515182495117e-02,-1.173843517899513245e-01,5.842275172472000122e-02,-1.359002590179443359e-01,-4.735836759209632874e-02,6.979432702064514160e-02,1.062269285321235657e-01,4.377508908510208130e-02,8.029690384864807129e-02,-2.945791184902191162e-01,6.515629589557647705e-02,-1.338715702295303345e-01,6.956470664590597153e-03,-6.298487633466720581e-02,1.255524307489395142e-01,-8.402351289987564087e-02,-3.484375402331352234e-02,9.722678363323211670e-02,-1.394734811037778854e-02,1.852931231260299683e-01,3.839502930641174316e-01,-1.888699084520339966e-01,1.494305580854415894e-01,-2.817091532051563263e-02,4.442628473043441772e-03,-4.509286582469940186e-02,-4.362005274742841721e-03,2.304570190608501434e-02,2.486349456012248993e-02,5.032999813556671143e-02,1.714000850915908813e-01,-7.704560458660125732e-02,2.792660705745220184e-02,1.060770708136260509e-03,-4.922362789511680603e-02,1.478024125099182129e-01,-4.597209766507148743e-02,-1.209687516093254089e-01,-1.166808046400547028e-02,-1.954947263002395630e-01,6.078052148222923279e-02,-8.658058941364288330e-02
1.748038679361343384e-01,1.933557242155075073e-01,4.717507213354110718e-02,-1.211898922920227051e-01,-9.352242946624755859e-02,2.125483937561511993e-02,-8.873299509286880493e-02,-2.139107882976531982e-01,4.007678851485252380e-02,-8.534886687994003296e-02,1.810187548398971558e-01,1.275862306356430054e-01,1.169051975011825562e-01,-6.822452694177627563e-02,-1.687318533658981323e-01,-7.680507842451334000e-03,-1.675126552581787109e-01,1.122111603617668152e-01,1.713811904191970825e-01,-9.287521988153457642e-02,7.700534164905548096e-02,1.165926605463027954e-01,-7.534401863813400269e-02,1.260446161031723022e-01,4.721784498542547226e-03,-1.166023015975952148e-01,9.952951967716217041e-02,1.390114575624465942e-01,5.941963195800781250e-02,-1.107257530093193054e-01,3.888297453522682190e-02,-1.203005537390708923e-01,-1.528181135654449463e-01,3.575272858142852783e-02,7.096599787473678589e-02,3.542653471231460571e-02,1.932978183031082153e-01,2.190206199884414673e-01,-1.317099481821060181e-01,-2.841806039214134216e-02,-2.779817953705787659e-02,-6.842158734798431396e-02,9.950304776430130005e-02,6.112155318260192871e-02,6.127532944083213806e-02,-6.616982072591781616e-02,-3.529697656631469727e-02,-5.953116714954376221e-02,1.687966883182525635e-01,-1.163626313209533691e-01,1.158099696040153503e-01,-2.918850257992744446e-02,1.274240296334028244e-02,-1.128780916333198547e-01,1.454229801893234253e-01,1.554498672485351562e-01,2.849310636520385742e-02,7.939323782920837402e-02,-2.429360896348953247e-01,1.804550141096115112e-01,5.402599461376667023e-03,-4.199555143713951111e-02,2.794882841408252716e-02,2.125694304704666138e-01,-3.316752985119819641e-02,1.754157543182373047e-01,-2.976423874497413635e-02,-3.930171951651573181e-02,1.045934930443763733e-01,3.975628409534692764e-03,1.020560786128044128e-01,1.101419106125831604e-01,-9.953852742910385132e-03,-1.522034257650375366e-01,1.700374484062194824e-02,4.800954833626747131e-02,-6.504978239536285400e-02,1.652767360210418701e-01,1.112594157457351685e-01,-5.827633664011955261e-02,1.166895776987075806e-01,1.177330315113067627e-01,-1.242359131574630737e-01,-8.960420638322830200e-02,2.107447199523448944e-02,-1.761749833822250366e-01,-8.519215136766433716e-02,-1.383760124444961548e-01,-5.073438212275505066e-02,9.419601410627365112e-03,1.549873054027557373e-01,-7.144974172115325928e-02,1.546326726675033569e-01,8.472636342048645020e-02,-2.282350882887840271e-02,4.135975986719131470e-02,-1.873252242803573608e-01,7.804349809885025024e-02,2.125552892684936523e-01,-8.181832730770111084e-02,-4.873287689406424761e-04,8.464636653661727905e-02,-1.041756421327590942e-01,1.331906616687774658e-01,-1.629637479782104492e-01,-1.221263408660888672e-02,-6.745459884405136108e-02,3.822125867009162903e-02,4.601975530385971069e-02,-1.824929714202880859e-01,1.970170885324478149e-01,3.601302951574325562e-02,-6.322570145130157471e-02,1.272462010383605957e-01,6.660585850477218628e-02,-1.393872592598199844e-02,3.941270709037780762e-02,-2.353775873780250549e-02,7.961989194154739380e-02,-1.406982839107513428e-01
3.941753134131431580e-02,-1.025856658816337585e-01,9.933985024690628052e-02,1.919406056404113770e-01,-6.605938822031021118e-02,1.565383523702621460e-01,-9.969075024127960205e-02,1.747666597366333008e-01,1.507070362567901611e-01,2.119061537086963654e-02,4.098356515169143677e-02,-6.094794254750013351e-03,-8.552975952625274658e-03,1.549234092235565186e-01,1.771972477436065674e-01,-9.176724404096603394e-02,1.623562276363372803e-01,5.001234635710716248e-02,8.381476625800132751e-03,6.343495845794677734e-02,2.169524878263473511e-01,-7.326002418994903564e-02,-1.433497369289398193e-01,-2.563356189057230949e-03,-1.421234663575887680e-02,-5.704788863658905029e-02,-6.354224402457475662e-03,2.824775315821170807e-02,-4.271212816238403320e-01,1.823174059391021729e-01,-1.396295279264450073e-01,-1.932698488235473633e-02,9.942500293254852295e-02,-1.339320689439773560e-01,-6.226274184882640839e-03,8.982816338539123535e-02,-1.895712465047836304e-01,3.913721814751625061e-02,-1.080677062273025513e-01,8.244542032480239868e-02,-1.926146075129508972e-02,1.240903884172439575e-01,2.692921459674835205e-01,1.427925974130630493e-01,1.548330187797546387e-01,3.940357267856597900e-02,1.054178327322006226e-01,-6.807158887386322021e-02,-5.055066570639610291e-02,4.194551706314086914e-02,-1.097455099225044250e-01,-1.761437766253948212e-02,-8.903273940086364746e-02,-1.170302703976631165e-01,4.320358484983444214e-02,1.160094141960144043e-01,-6.832659244537353516e-02,-1.148462221026420593e-01,8.282174170017242432e-02,1.413938999176025391e-01,1.153960302472114563e-01,1.222308874130249023e-01,7.756903022527694702e-02,-1.250057481229305267e-02,-5.990052595734596252e-02,-1.832066848874092102e-02,4.435715824365615845e-02,-2.256401069462299347e-02,1.364598274230957031e-01,1.539721712470054626e-02,-1.243675872683525085e-02,-8.748466521501541138e-02,-1.157626062631607056e-01,5.277968049049377441e-01,3.123843856155872345e-02,-3.673384338617324829e-02,-1.491422951221466064e-01,-5.276038497686386108e-02,-3.679136931896209717e-02,5.333920940756797791e-02,-1.467904299497604370e-01,5.044155567884445190e-02,-7.359635084867477417e-02,2.218794310465455055e-03,1.269327700138092041e-01,8.641826361417770386e-02,2.475540526211261749e-02,2.254567742347717285e-01,-6.850186735391616821e-03,-9.146249853074550629e-03,1.009487267583608627e-02,-3.036689758300781250e-02,-3.521108627319335938e-02,-2.198601663112640381e-01,7.926597446203231812e-02,-3.281856328248977661e-02,1.231775656342506409e-01,-6.878862529993057251e-02,-3.214327394962310791e-01,-1.291250227950513363e-03,4.470514506101608276e-02,-1.688205748796463013e-01,-7.019372284412384033e-02,1.757474429905414581e-02,-2.085041552782058716e-01,6.449776887893676758e-02,-4.509560391306877136e-02,-6.214957684278488159e-03,-3.489788174629211426e-01,1.086943969130516052e-01,1.537404358386993408e-01,1.467195451259613037e-01,-7.989306747913360596e-02,1.010355204343795776e-01,-7.805871218442916870e-02,-1.738922670483589172e-02,1.257745325565338135e-01,-4.756844416260719299e-02,-4.904256388545036316e-02,7.985940203070640564e-03
8.819228410720825195e-02,5.516438931226730347e-02,4.184346646070480347e-02,1.066334359347820282e-02,2.363640628755092621e-02,-1.169153838418424129e-03,-1.136997416615486145e-01,4.496388603001832962e-03,1.297847330570220947e-01,-2.689566276967525482e-02,-1.123336404561996460e-01,-9.000438451766967773e-02,2.091301381587982178e-01,-3.443150967359542847e-02,-5.621119216084480286e-02,1.021159719675779343e-02,2.255987562239170074e-02,3.391409991309046745e-03,-1.577661186456680298e-01,-1.856932640075683594e-01,-7.904762774705886841e-02,-1.545283347368240356e-01,-1.621317565441131592e-01,7.967465370893478394e-02,-1.982294470071792603e-01,1.640564799308776855e-01,1.706320941448211670e-01,1.589316315948963165e-02,-1.698530763387680054e-01,6.731397006660699844e-03,1.513946503400802612e-01,-1.157913729548454285e-02,-6.977669894695281982e-02,1.018987819552421570e-01,1.129117142409086227e-02,-1.086094304919242859e-01,1.041598152369260788e-02,-7.988068461418151855e-02,-1.473377048969268799e-01,1.068822368979454041e-01,-9.769296646118164062e-02,4.452713951468467712e-02,3.601282089948654175e-02,-5.515114963054656982e-02,8.270536363124847412e-02,1.923815160989761353e-01,4.560459405183792114e-02,5.527509376406669617e-02,3.019470907747745514e-02,-3.074862435460090637e-02,-4.128520935773849487e-02,-8.305007591843605042e-03,-1.236273273825645447e-01,8.831198513507843018e-02,2.038144692778587341e-02,-1.172455921769142151e-01,-1.087796315550804138e-01,-1.458797603845596313e-01,1.716374456882476807e-01,6.962317973375320435e-02,6.099678948521614075e-02,-1.349240988492965698e-01,1.753372400999069214e-01,4.160687793046236038e-03,8.927322179079055786e-02,-1.270098537206649780e-01,-1.230930835008621216e-01,6.324779987335205078e-02,1.327520310878753662e-01,1.101764887571334839e-01,5.848838388919830322e-02,1.469204276800155640e-01,-1.316211372613906860e-01,1.369209736585617065e-01,-1.388690322637557983e-01,1.378419399261474609e-01,-1.401023864746093750e-01,-1.946891248226165771e-01,-1.232180744409561157e-01,1.939973980188369751e-02,-5.914202891290187836e-03,5.448433011770248413e-02,-2.208716422319412231e-01,-2.825081534683704376e-02,-4.118112847208976746e-02,2.485560998320579529e-02,5.032512918114662170e-02,2.757816016674041748e-01,-7.360601425170898438e-02,7.547374814748764038e-02,-1.574568897485733032e-01,1.541224122047424316e-01,-7.230209559202194214e-02,1.028659269213676453e-01,-6.602969020605087280e-02,9.043808281421661377e-02,6.148758903145790100e-02,9.237430244684219360e-02,-5.903106182813644409e-02,-1.449760235846042633e-02,3.867539763450622559e-02,6.880030781030654907e-02,4.045850783586502075e-02,-2.404751814901828766e-02,-5.342967808246612549e-02,2.939959801733493805e-02,-1.940381675958633423e-01,-1.000582426786422729e-02,-2.677424252033233643e-02,1.717491745948791504e-01,-1.117220520973205566e-01,-1.266121864318847656e-01,6.317594647407531738e-02,9.391272813081741333e-02,-8.018942316994071007e-04,4.375187854748219252e-04,-2.057258784770965576e-01,-6.020162627100944519e-02,-1.815690845251083374e-01,3.954137116670608521e-02
6.243072450160980225e-02,7.181890308856964111e-02,-9.490784257650375366e-02,-2.119019478559494019e-01,8.960592001676559448e-02,-9.656485170125961304e-02,1.284754723310470581e-01,1.257045716047286987e-01,-8.731799572706222534e-02,-3.678616508841514587e-02,6.422678474336862564e-03,4.912460595369338989e-02,-1.118486896157264709e-01,1.007395051419734955e-02,-3.365413844585418701e-02,-1.003866717219352722e-01,3.891122713685035706e-02,1.927702501416206360e-02,1.202516332268714905e-01,7.112836837768554688e-02,-9.229887276887893677e-03,2.415575683116912842e-01,4.815518110990524292e-02,1.529684066772460938e-01,4.496570676565170288e-02,5.216654762625694275e-02,6.615866720676422119e-02,-8.012118190526962280e-02,4.531378671526908875e-02,-2.259368598461151123e-01,-4.725105315446853638e-02,2.994213253259658813e-02,-7.398618012666702271e-02,-6.072291359305381775e-02,-2.340885065495967865e-02,-4.035758227109909058e-02,-1.221278775483369827e-02,5.957453977316617966e-03,1.200107298791408539e-02,6.181984394788742065e-02,-2.901837788522243500e-02,1.242634952068328857e-01,-2.825582341756671667e-04,-9.274812787771224976e-02,-3.160005509853363037e-01,1.182584278285503387e-02,-1.580667123198509216e-02,1.395406108349561691e-02,-7.750234752893447876e-02,-1.268061995506286621e-01,-1.604420691728591919e-02,-7.307977229356765747e-02,-9.487371891736984253e-02,5.394015088677406311e-02,-2.291255514137446880e-04,-1.377065926790237427e-01,1.246859952807426453e-01,4.956680536270141602e-02,3.669249638915061951e-02,6.513215601444244385e-02,5.977559834718704224e-03,-5.997995659708976746e-02,1.117662265896797180e-01,-1.014010310173034668e-01,7.552634179592132568e-02,1.096865721046924591e-02,-4.661614540964365005e-03,-1.058548241853713989e-01,-5.176533758640289307e-02,2.126767067238688469e-04,5.062612518668174744e-02,-4.970623925328254700e-02,6.666369736194610596e-02,-3.974278569221496582e-01,-1.904847100377082825e-02,-2.701747976243495941e-02,1.555308103561401367e-01,3.792182356119155884e-02,4.249650239944458008e-02,-7.284408062696456909e-02,6.433933228254318237e-02,1.029564514756202698e-01,7.786490023136138916e-02,-5.397438257932662964e-02,4.052809998393058777e-02,-1.707387864589691162e-01,-1.074644085019826889e-02,-1.220168024301528931e-01,6.502751493826508522e-04,2.913851849734783173e-02,-7.495261728763580322e-03,-7.133378833532333374e-02,1.584585309028625488e-01,1.621079146862030029e-01,3.380933776497840881e-02,-3.384643793106079102e-02,8.917514234781265259e-02,2.083699256181716919e-01,2.370188236236572266e-01,4.022303596138954163e-02,1.550250798463821411e-01,-9.759165346622467041e-03,-2.384092658758163452e-02,4.080579802393913269e-02,-1.762615740299224854e-01,-3.686778619885444641e-02,-1.259624063968658447e-01,-1.205861270427703857e-01,9.555494040250778198e-02,-3.065978884696960449e-01,8.680400252342224121e-02,1.416880637407302856e-02,-6.159641593694686890e-02,6.499818712472915649e-02,-8.359183371067047119e-02,-4.752782173454761505e-03,4.416972771286964417e-02,-1.160227879881858826e-01,2.428565919399261475e-02,-5.177681893110275269e-02
-1.269245445728302002e-01,-5.358242243528366089e-02,-7.429327815771102905e-02,-6.681078672409057617e-02,-4.131088405847549438e-02,1.711909621953964233e-01,8.874643594026565552e-02,-7.932039350271224976e-02,-1.693838089704513550e-01,3.589634224772453308e-02,-2.282597273588180542e-01,1.196788847446441650e-01,-1.661710068583488464e-02,1.605395823717117310e-01,-1.034814305603504181e-02,-7.309552282094955444e-03,-9.145306050777435303e-02,8.545352146029472351e-03,-4.419693350791931152e-02,8.493999391794204712e-02,-1.782291978597640991e-01,1.084258779883384705e-01,-8.937537670135498047e-02,-4.139462020248174667e-03,2.942490018904209137e-02,-1.807607263326644897e-01,3.530026972293853760e-02,-1.325621902942657471e-01,1.085604876279830933e-01,-3.896424919366836548e-02,-1.171016246080398560e-01,8.415147662162780762e-02,1.273735463619232178e-01,1.206282153725624084e-01,-1.031224709004163742e-02,-4.435043409466743469e-02,-4.623776674270629883e-02,-7.525487989187240601e-02,1.682888716459274292e-01,-6.501539051532745361e-02,1.300246715545654297e-01,7.910236716270446777e-02,1.131515353918075562e-01,-1.907911449670791626e-01,-4.393197223544120789e-02,-9.706293791532516479e-02,-2.324234545230865479e-01,1.701353639364242554e-01,1.639892011880874634e-01,-1.044376790523529053e-01,9.686557948589324951e-02,-1.019926667213439941e-01,1.538331508636474609e-01,-1.429217159748077393e-01,-5.788367614150047302e-02,-2.144653722643852234e-02,2.442666143178939819e-02,1.226759105920791626e-01,4.915218427777290344e-02,6.789106875658035278e-02,1.183445230126380920e-01,-4.105011001229286194e-02,3.495626896619796753e-02,9.613647311925888062e-02,-1.382422000169754028e-01,2.167365103960037231e-01,-9.478277713060379028e-02,1.214753985404968262e-01,8.511089533567428589e-02,1.391191035509109497e-01,1.164644062519073486e-01,-1.380536407232284546e-01,1.234590932726860046e-01,-3.725974559783935547e-01,1.304732263088226318e-01,8.669655025005340576e-02,2.015061527490615845e-01,5.793407186865806580e-02,-2.155933901667594910e-02,7.841809839010238647e-02,3.663040325045585632e-02,1.431930214166641235e-01,9.385309368371963501e-02,6.595271825790405273e-02,-1.226062449859455228e-04,6.440519541501998901e-02,-5.086199194192886353e-02,-4.896759092807769775e-01,-1.001332476735115051e-01,-1.406786739826202393e-01,5.870136618614196777e-02,-1.166467368602752686e-02,3.354454785585403442e-02,3.464797139167785645e-02,-1.203463822603225708e-01,-1.221005469560623169e-01,-1.209338977932929993e-01,1.353954374790191650e-01,2.340576946735382080e-01,1.217775121331214905e-01,-4.539731144905090332e-02,2.255834639072418213e-01,-9.466821700334548950e-02,-5.476407334208488464e-02,2.037046477198600769e-02,2.599858865141868591e-02,1.939629167318344116e-01,-8.929183334112167358e-02,1.983366757631301880e-01,2.380646392703056335e-02,2.355799078941345215e-03,1.945716142654418945e-02,4.907116526737809181e-04,-1.730780117213726044e-02,-1.730096489191055298e-01,1.130635756999254227e-02,-1.452978849411010742e-01,-1.407736837863922119e-01,-3.182879090309143066e-02,9.242947399616241455e-02
-1.527115143835544586e-02,5.067481473088264465e-02,1.997570693492889404e-01,3.456806764006614685e-02,1.775379292666912079e-02,2.114251442253589630e-02,1.342309564352035522e-01,-2.622480392456054688e-01,-7.227639202028512955e-03,1.319009214639663696e-01,-2.074052244424819946e-01,2.777958810329437256e-01,1.494811568409204483e-02,3.529677540063858032e-02,-5.807131156325340271e-02,1.363916415721178055e-02,8.542697876691818237e-02,-7.548481225967407227e-02,-9.307233244180679321e-02,-1.568660140037536621e-01,-4.700685441493988037e-01,4.943644627928733826e-02,2.036059200763702393e-01,-1.471777260303497314e-01,7.256886363029479980e-02,1.032747179269790649e-01,2.929158881306648254e-02,-7.209928333759307861e-02,1.043180003762245178e-01,-1.307182908058166504e-01,-9.508457034826278687e-02,9.015578031539916992e-02,-2.618887126445770264e-01,1.382960658520460129e-02,-1.131627857685089111e-01,2.970349788665771484e-02,-1.412194967269897461e-01,-1.002135202288627625e-01,-7.870799861848354340e-03,9.087244421243667603e-02,-3.587545827031135559e-02,9.249480813741683960e-02,2.683796584606170654e-01,1.212248802185058594e-01,-6.256818026304244995e-02,4.474399983882904053e-02,-2.795960605144500732e-01,1.021865103393793106e-02,1.070159450173377991e-01,-1.372437775135040283e-01,-1.436640322208404541e-01,1.928126662969589233e-01,-2.053281664848327637e-01,1.840783506631851196e-01,-5.745223164558410645e-02,1.674532890319824219e-02,-1.633656024932861328e-01,-2.588287293910980225e-01,4.987413436174392700e-02,-6.383461505174636841e-02,-1.011593174189329147e-02,5.900289863348007202e-02,-5.539087112993001938e-03,-4.159602895379066467e-02,-3.154014935716986656e-03,1.868883031420409679e-03,1.943738460540771484e-01,-1.624317467212677002e-01,3.258772194385528564e-02,2.275537140667438507e-02,-9.635549038648605347e-02,-1.852854788303375244e-01,-1.021872926503419876e-02,-6.000826507806777954e-02,-1.919950693845748901e-01,4.855583235621452332e-02,-1.350343078374862671e-01,-1.746631115674972534e-01,-5.714239552617073059e-02,3.448729589581489563e-02,1.336405873298645020e-01,-8.324529975652694702e-02,-8.219076693058013916e-02,-8.766143023967742920e-02,4.364538937807083130e-02,4.108902812004089355e-02,5.892115086317062378e-02,-1.594922244548797607e-01,2.588105946779251099e-02,1.225295886397361755e-01,3.733351454138755798e-02,-1.363188624382019043e-01,9.708192199468612671e-02,1.811553388833999634e-01,6.637725234031677246e-02,-1.112065166234970093e-01,8.884624391794204712e-02,3.825586521998047829e-03,2.394456565380096436e-01,1.779319792985916138e-01,-2.761889435350894928e-02,-5.525207147002220154e-02,-8.778445422649383545e-02,-1.118178963661193848e-01,1.697308868169784546e-01,-7.189948111772537231e-02,-6.511876732110977173e-02,-5.263665225356817245e-03,-1.933175772428512573e-01,1.132305338978767395e-01,-1.728841960430145264e-01,6.191034615039825439e-02,4.720595106482505798e-02,-1.424150466918945312e-01,-1.464991271495819092e-01,8.009106665849685669e-02,-6.933420896530151367e-02,-8.882304653525352478e-03,1.964106261730194092e-01,-2.667832002043724060e-02
-8.272381126880645752e-02,3.986242413520812988e-02,-1.465125381946563721e-01,-1.701989471912384033e-01,-8.300838619470596313e-02,-9.701741486787796021e-02,1.241936236619949341e-01,-1.021882742643356323e-01,3.463020920753479004e-02,1.228217482566833496e-01,2.380994856357574463e-01,2.585719805210828781e-03,-1.443373560905456543e-01,-1.428922861814498901e-01,2.113502845168113708e-02,-1.586739718914031982e-01,-1.221085265278816223e-01,1.303661763668060303e-01,6.195087730884552002e-02,-8.492757380008697510e-02,-1.140916422009468079e-01,1.500686109066009521e-01,4.325838387012481689e-02,5.695757642388343811e-02,-3.704519569873809814e-02,-8.672671020030975342e-02,7.082054018974304199e-02,-2.080059051513671875e-01,2.557462155818939209e-01,7.295680791139602661e-02,-3.452215343713760376e-02,-1.145799085497856140e-01,-6.526675075292587280e-02,-6.559469550848007202e-02,-2.405965626239776611e-01,-7.910047471523284912e-02,1.383724659681320190e-01,1.301090270280838013e-01,1.132202893495559692e-01,-1.602251231670379639e-01,1.008747071027755737e-01,1.592016033828258514e-02,-4.014268517494201660e-02,-1.880698353052139282e-01,-1.247767582535743713e-01,-2.669958472251892090e-01,-8.156281709671020508e-02,1.178830862045288086e-01,-1.610992103815078735e-01,4.801279678940773010e-02,3.931673243641853333e-02,2.268289774656295776e-02,1.479574888944625854e-01,-2.350088953971862793e-02,-4.361185058951377869e-02,7.908920198678970337e-02,-1.465077139437198639e-02,4.142304137349128723e-02,4.922262951731681824e-02,-2.182594388723373413e-01,1.330516636371612549e-01,-1.121112927794456482e-01,-6.486319750547409058e-02,-9.279637783765792847e-02,-1.745020747184753418e-01,9.769755601882934570e-02,1.083268895745277405e-01,2.568485587835311890e-02,-5.384979024529457092e-02,4.090965166687965393e-02,-4.991167038679122925e-02,-1.625292301177978516e-01,1.707042306661605835e-01,-3.226785957813262939e-01,1.475388407707214355e-01,-1.559092253446578979e-01,-3.197520971298217773e-02,-4.967869445681571960e-02,-5.049487575888633728e-03,-1.169281080365180969e-01,-4.383889585733413696e-02,1.665896922349929810e-02,-1.019885838031768799e-01,3.796304110437631607e-03,1.893649622797966003e-02,3.626938164234161377e-02,-1.623309105634689331e-01,-1.384136080741882324e-01,-1.143434923142194748e-02,-5.589829012751579285e-02,4.404833167791366577e-02,1.060807108879089355e-01,1.676932126283645630e-01,2.150082401931285858e-02,-4.851556196808815002e-02,4.298780113458633423e-02,-1.198981478810310364e-01,-1.449215859174728394e-01,2.079757899045944214e-01,6.253705918788909912e-02,-1.417494863271713257e-01,7.651755213737487793e-02,-5.248082801699638367e-02,-9.189144521951675415e-02,-1.398995369672775269e-01,-2.443369664251804352e-02,-5.083838477730751038e-03,-1.823531389236450195e-01,2.410462684929370880e-02,-1.312899738550186157e-01,1.509972512722015381e-01,-6.511378102004528046e-03,5.469012260437011719e-02,3.108734078705310822e-02,-1.306251287460327148e-01,-1.008391752839088440e-01,2.697999589145183563e-02,-3.940989263355731964e-03,4.916268959641456604e-02,1.590042710304260254e-01
1.496883481740951538e-01,4.019468277692794800e-02,-2.027615457773208618e-01,7.008388638496398926e-02,1.402677595615386963e-01,1.418728977441787720e-01,2.508077397942543030e-02,4.707735031843185425e-02,-2.184946089982986450e-01,-8.419847115874290466e-03,-1.242860257625579834e-01,2.125995606184005737e-01,6.853353977203369141e-02,-9.465399384498596191e-02,1.412272304296493530e-01,-7.060115225613117218e-03,-3.757059574127197266e-02,3.643721342086791992e-02,-1.578635871410369873e-01,5.405253171920776367e-02,4.692288935184478760e-01,-1.480372101068496704e-01,9.782340377569198608e-02,-1.580412834882736206e-01,-1.283874064683914185e-01,-6.934013962745666504e-02,-8.889178931713104248e-02,7.426274567842483521e-02,-4.008936882019042969e-01,1.013737395405769348e-01,-1.515537947416305542e-01,1.731275916099548340e-01,1.720020920038223267e-02,3.858017968013882637e-03,1.159349456429481506e-01,-9.452809393405914307e-02,1.024615913629531860e-01,-2.874995172023773193e-01,3.269895166158676147e-02,6.601634621620178223e-02,-5.676130950450897217e-02,-1.075480878353118896e-01,-7.773812115192413330e-02,9.422695636749267578e-02,1.228054687380790710e-01,5.338566377758979797e-02,2.424546889960765839e-02,-1.286222338676452637e-01,3.200887516140937805e-02,1.560433506965637207e-01,-3.059410117566585541e-02,-1.680655628442764282e-01,-1.480096131563186646e-01,-1.649948209524154663e-01,-1.094807591289281845e-02,-7.120644301176071167e-02,5.311276391148567200e-02,1.485429555177688599e-01,9.285229444503784180e-02,-3.847332438454031944e-03,1.680826395750045776e-01,7.221590727567672729e-02,-5.947142094373703003e-02,1.732393540441989899e-02,1.259133517742156982e-01,1.544831842184066772e-01,9.338337928056716919e-02,4.058690369129180908e-02,-8.744131773710250854e-02,-5.675467476248741150e-02,4.534383118152618408e-02,-7.539781741797924042e-03,-1.006557047367095947e-01,4.021182283759117126e-02,-1.820519417524337769e-01,-7.242517080157995224e-03,-4.842729866504669189e-02,-7.066255062818527222e-02,4.555677063763141632e-03,-2.130481153726577759e-01,-9.129768610000610352e-02,-1.038952730596065521e-02,-1.097920164465904236e-01,1.088352967053651810e-02,-5.791259184479713440e-02,-1.775637865066528320e-01,4.620203375816345215e-02,1.560292690992355347e-01,-1.051431968808174133e-01,3.212663903832435608e-02,-1.309809088706970215e-01,-8.047619462013244629e-02,3.554679453372955322e-02,-8.652471005916595459e-02,-2.450874820351600647e-02,-1.739498674869537354e-01,1.107787564396858215e-01,-1.211613938212394714e-01,1.012193411588668823e-01,1.510490775108337402e-01,1.146115362644195557e-01,1.582806855440139771e-01,1.021906957030296326e-01,3.568911924958229065e-02,-2.308658212423324585e-01,2.780620157718658447e-01,-2.027324400842189789e-02,1.521154344081878662e-01,-1.180918961763381958e-01,3.825016617774963379e-01,2.601585537195205688e-02,-9.926304966211318970e-02,1.021657437086105347e-01,5.083928816020488739e-03,-3.237550705671310425e-02,1.431781351566314697e-01,1.422941591590642929e-02,1.420322656631469727e-01,-7.572460174560546875e-02,-9.217980504035949707e-02
4.038441181182861328e-02,-1.603241562843322754e-01,-4.321035370230674744e-02,-1.828763931989669800e-01,-2.590605430305004120e-02,-1.413050740957260132e-01,-1.467201560735702515e-01,1.317852437496185303e-01,7.343849539756774902e-02,-6.330474466085433960e-02,2.112592607736587524e-01,-7.356770336627960205e-02,-7.285296171903610229e-02,3.543981164693832397e-02,1.113921478390693665e-01,-7.973600924015045166e-02,-1.991638541221618652e-02,1.051880195736885071e-01,2.254313975572586060e-02,1.703422963619232178e-01,5.585816875100135803e-02,-1.399386674165725708e-01,-1.604959219694137573e-01,-2.335124611854553223e-01,-1.569247804582118988e-02,4.809851571917533875e-02,1.299451440572738647e-01,5.197311937808990479e-02,-1.340749114751815796e-01,-2.474519982933998108e-02,-8.757136762142181396e-02,7.268164306879043579e-02,6.488648802042007446e-02,-1.770528033375740051e-02,5.188553035259246826e-02,-2.702829428017139435e-02,-2.336364388465881348e-01,2.957094833254814148e-02,-6.976065039634704590e-02,-1.311330199241638184e-01,7.748682796955108643e-02,-5.266445688903331757e-03,-1.875189393758773804e-01,-1.126519683748483658e-02,1.840449571609497070e-01,1.291096657514572144e-01,-1.343644503504037857e-02,4.946512728929519653e-02,-5.205804482102394104e-02,-4.537264257669448853e-02,2.169510163366794586e-02,-3.689007088541984558e-02,-1.365108340978622437e-01,6.631600856781005859e-02,8.944470435380935669e-02,1.332041621208190918e-01,1.574313193559646606e-01,-6.379296630620956421e-02,7.258340716361999512e-02,3.958670049905776978e-02,8.355075120925903320e-02,-1.439262330532073975e-01,-3.670284524559974670e-02,-1.905964612960815430e-01,-7.976035773754119873e-02,5.538550019264221191e-02,2.064441703259944916e-02,-1.880422420799732208e-02,-5.036066100001335144e-02,4.537015035748481750e-02,2.528704330325126648e-02,6.442306190729141235e-02,8.159270882606506348e-02,8.830098062753677368e-02,-2.333180420100688934e-02,1.556769460439682007e-01,1.677725911140441895e-01,7.780805975198745728e-02,1.842151135206222534e-01,9.411502629518508911e-02,-8.705186843872070312e-02,-1.552245914936065674e-01,-5.688417702913284302e-02,-6.801617145538330078e-02,3.849619999527931213e-02,5.817333981394767761e-02,1.291064172983169556e-01,1.721341013908386230e-01,-3.493215888738632202e-02,6.770575046539306641e-02,2.029478317126631737e-03,-7.621525973081588745e-02,9.180825203657150269e-02,1.202045828104019165e-01,-1.166571229696273804e-01,-5.629450455307960510e-02,2.715801820158958435e-02,7.429759204387664795e-02,2.705644816160202026e-02,2.441141195595264435e-02,-2.837549522519111633e-02,3.165048733353614807e-02,-4.451111331582069397e-02,9.559854120016098022e-02,1.710118204355239868e-01,-1.610942184925079346e-01,-9.100571274757385254e-02,-5.886078625917434692e-02,-2.184588909149169922e-01,6.825499236583709717e-02,1.267273575067520142e-01,5.403919517993927002e-02,2.653044834733009338e-02,-5.190496891736984253e-02,1.329061537981033325e-01,2.240839647129178047e-03,-4.227184504270553589e-02,-1.311136633157730103e-01,6.613240391016006470e-02,-2.646933197975158691e-01
4.226727411150932312e-02,-8.354681730270385742e-02,-1.228880360722541809e-01,7.479330152273178101e-02,-1.618622839450836182e-01,1.963218674063682556e-02,-7.864660583436489105e-03,3.231429681181907654e-02,6.184810400009155273e-02,-6.854171305894851685e-02,7.782998681068420410e-02,-2.120076864957809448e-01,-9.822886437177658081e-02,-8.992601186037063599e-02,6.501959264278411865e-02,6.125044822692871094e-02,-1.997340768575668335e-01,-4.304892569780349731e-02,-9.486232697963714600e-02,6.844675540924072266e-02,2.155268639326095581e-01,-4.482304677367210388e-03,7.000301778316497803e-02,-6.475231051445007324e-02,-3.465836122632026672e-02,2.230378091335296631e-01,-8.873289078474044800e-02,1.698661013506352901e-03,1.138985902070999146e-01,-6.253708153963088989e-02,-1.333948131650686264e-02,-2.240819111466407776e-02,-1.569884121417999268e-01,4.915590584278106689e-02,1.444866657257080078e-01,5.241391481831669807e-04,5.002436041831970215e-02,1.209528595209121704e-01,1.068363338708877563e-01,-1.242372989654541016e-01,2.825520001351833344e-02,1.217134445905685425e-01,-5.502559244632720947e-02,1.080085560679435730e-01,-7.206723093986511230e-02,4.374194145202636719e-02,-1.109914481639862061e-01,3.924740105867385864e-02,-1.709244698286056519e-01,-1.081105205230414867e-03,1.348447799682617188e-01,6.421747058629989624e-02,9.359981864690780640e-02,5.325702577829360962e-02,-2.622270956635475159e-02,2.906940877437591553e-02,4.049650579690933228e-02,4.255050048232078552e-02,8.362073451280593872e-02,-4.383147880434989929e-02,1.586187481880187988e-01,-1.005734726786613464e-01,-1.062079071998596191e-01,-5.422861501574516296e-02,3.334194049239158630e-02,6.689696758985519409e-02,7.003423571586608887e-02,-5.810058116912841797e-02,4.384462535381317139e-02,-1.334488689899444580e-01,3.965687751770019531e-02,5.406689271330833435e-02,3.859642148017883301e-02,7.493490725755691528e-02,1.186126545071601868e-01,7.701783627271652222e-02,-1.267572045326232910e-01,-3.298670426011085510e-02,9.867180883884429932e-02,-1.685807406902313232e-01,-4.069621115922927856e-02,-4.892246052622795105e-02,-9.064776450395584106e-02,-6.768825650215148926e-02,6.511356681585311890e-02,2.834941819310188293e-02,-1.005437001585960388e-01,4.195190370082855225e-01,-1.227455865591764450e-02,4.371726140379905701e-02,-8.876471221446990967e-02,-1.878588646650314331e-02,-1.312910169363021851e-01,-3.770690038800239563e-02,-5.904838442802429199e-02,-5.247049778699874878e-02,1.759344041347503662e-01,-1.058826521039009094e-01,-1.964259147644042969e-01,-2.856890670955181122e-02,1.188201159238815308e-01,-2.330523282289505005e-01,-1.374105662107467651e-01,4.017591103911399841e-02,1.680710762739181519e-01,2.212838232517242432e-01,-5.974636971950531006e-02,3.914513159543275833e-03,-2.663910090923309326e-01,-2.654024399816989899e-02,1.671971678733825684e-01,2.052381634712219238e-01,7.590967416763305664e-02,-5.924533307552337646e-02,1.841075569391250610e-01,-1.227989122271537781e-01,1.065986305475234985e-01,-3.107561357319355011e-02,-1.648043841123580933e-01,-2.806255593895912170e-02
-7.923264056444168091e-02,4.431270435452461243e-02,-1.289938390254974365e-01,5.226062983274459839e-02,2.296514511108398438e-01,2.903584018349647522e-02,-1.934649609029293060e-02,4.540762677788734436e-02,1.472880542278289795e-01,1.951784826815128326e-02,1.905678361654281616e-01,-2.698595225811004639e-01,-1.322665065526962280e-01,-8.225084096193313599e-02,1.075511053204536438e-01,-1.616836935281753540e-01,-4.023315384984016418e-02,-1.662651309743523598e-03,-1.586570292711257935e-01,-6.302575021982192993e-02,-2.955828979611396790e-02,-1.100814715027809143e-01,-2.019283771514892578e-01,2.045710571110248566e-02,1.901830732822418213e-01,1.634292900562286377e-01,-2.112336084246635437e-02,1.485699601471424103e-02,-1.120686158537864685e-01,1.526568979024887085e-01,5.225195735692977905e-02,-9.037725627422332764e-02,-9.542974829673767090e-02,1.217705383896827698e-01,5.504467990249395370e-04,-1.524989306926727295e-01,-8.713056147098541260e-02,1.691080629825592041e-01,-5.820987001061439514e-02,8.466583490371704102e-02,1.925814449787139893e-01,-1.277524977922439575e-01,-2.665497958660125732e-01,-1.104914769530296326e-01,2.931406199932098389e-01,1.195577681064605713e-01,-3.021075762808322906e-02,-2.029202282428741455e-01,1.475635822862386703e-02,1.557300686836242676e-01,6.467694789171218872e-02,-1.366094686090946198e-02,-1.211016550660133362e-01,8.435802161693572998e-02,-7.618207484483718872e-02,1.014708131551742554e-01,1.132126599550247192e-01,8.763837069272994995e-02,-4.955992102622985840e-02,-4.719294980168342590e-02,-1.272777467966079712e-01,1.172807738184928894e-01,6.550105661153793335e-02,-4.007147252559661865e-02,1.144319996237754822e-01,-9.700745344161987305e-02,-5.635388940572738647e-02,9.400714188814163208e-02,-1.285986751317977905e-01,-9.212311357259750366e-02,2.877110242843627930e-02,4.083570837974548340e-02,-2.154061384499073029e-02,5.116020441055297852e-01,7.438411563634872437e-02,-2.767030615359544754e-03,-9.631811082363128662e-02,1.559032201766967773e-01,-8.990027010440826416e-03,8.682235330343246460e-02,7.401990145444869995e-02,-8.087659627199172974e-02,1.747878491878509521e-01,4.262049216777086258e-03,-8.140847831964492798e-02,-1.065466180443763733e-01,9.627549350261688232e-02,6.037665009498596191e-01,-1.226380914449691772e-01,-4.344886913895606995e-02,1.191148906946182251e-01,1.084126457571983337e-01,-1.459714118391275406e-02,9.342020750045776367e-02,2.678776904940605164e-02,9.858725965023040771e-02,1.716622710227966309e-01,-1.835358887910842896e-02,-6.171284615993499756e-02,-5.334945768117904663e-02,-3.570686280727386475e-02,-1.371839940547943115e-01,4.597127065062522888e-02,6.021932885050773621e-02,1.484429836273193359e-01,8.494462072849273682e-02,3.491429984569549561e-02,-3.658773005008697510e-02,-1.751968860626220703e-01,-9.846454113721847534e-02,5.551358312368392944e-02,4.195972159504890442e-02,-4.259295389056205750e-02,-1.399393230676651001e-01,2.100175917148590088e-01,1.574279963970184326e-01,1.212912201881408691e-01,-2.923673205077648163e-02,-1.413905620574951172e-01,3.600604832172393799e-02
5.572417750954627991e-02,-1.525817159563302994e-02,1.766952336765825748e-03,1.528654247522354126e-01,-1.951887607574462891e-01,3.003672137856483459e-02,-2.582654654979705811e-01,-1.065303161740303040e-01,-1.305114924907684326e-01,-7.649190723896026611e-02,-6.661645323038101196e-02,4.083568695932626724e-03,-3.273936733603477478e-02,4.141792282462120056e-02,-1.518706232309341431e-01,6.011328101158142090e-02,1.449894011020660400e-01,-7.117093075066804886e-03,-1.198584493249654770e-02,5.619159340858459473e-02,1.983638666570186615e-02,-1.114938408136367798e-01,1.747813373804092407e-01,-4.325747862458229065e-02,8.154392242431640625e-02,1.880192197859287262e-02,5.194934830069541931e-02,-1.144613046199083328e-02,-3.978926241397857666e-01,5.851514637470245361e-02,4.817360267043113708e-02,6.773003190755844116e-02,2.562330663204193115e-01,-1.312722712755203247e-01,4.586828500032424927e-02,-1.726662814617156982e-01,-1.485254913568496704e-01,-6.445760279893875122e-02,2.264306694269180298e-02,1.364904344081878662e-01,-7.476841658353805542e-02,-5.676422640681266785e-02,-1.643027514219284058e-01,-7.417744398117065430e-02,3.407281935214996338e-01,-1.691832542419433594e-01,-6.688001099973917007e-03,1.048890128731727600e-01,1.286329180002212524e-01,3.865116462111473083e-02,-4.973703622817993164e-02,-6.024785712361335754e-02,1.427488625049591064e-01,2.062204875983297825e-04,-1.768990419805049896e-02,2.202741950750350952e-01,3.439591079950332642e-02,-4.546536505222320557e-02,1.500117480754852295e-01,9.724172949790954590e-02,-1.064885687083005905e-02,1.055755466222763062e-01,7.431323826313018799e-02,6.505357474088668823e-02,-1.103744953870773315e-01,-3.008255176246166229e-02,2.905402099713683128e-03,1.043768040835857391e-02,2.033486366271972656e-01,-1.312590986490249634e-01,1.530045419931411743e-01,8.960451930761337280e-02,1.798717863857746124e-02,6.325572133064270020e-01,4.243249818682670593e-02,-4.806590080261230469e-02,6.682660430669784546e-03,1.267921030521392822e-01,-1.302843093872070312e-01,-1.849672943353652954e-01,2.574943378567695618e-02,-1.880589872598648071e-02,-1.374422758817672729e-02,-7.583044469356536865e-02,-1.591808795928955078e-01,-9.272221475839614868e-03,1.491569448262453079e-02,-3.362247953191399574e-03,-5.270775780081748962e-02,9.913268685340881348e-02,-5.946871638298034668e-02,1.126061528921127319e-01,3.002022020518779755e-02,2.767305076122283936e-02,4.821833223104476929e-02,-9.202764369547367096e-03,-5.362571775913238525e-02,-9.300263226032257080e-02,6.482498347759246826e-02,2.460563369095325470e-02,-5.584817007184028625e-02,-6.812498718500137329e-02,1.729210466146469116e-01,9.441619366407394409e-02,-9.479740262031555176e-02,-9.791969507932662964e-02,1.610601991415023804e-01,1.076035648584365845e-01,-3.603822365403175354e-02,3.752978444099426270e-01,-5.606838315725326538e-02,1.094384863972663879e-02,5.723743885755538940e-02,-7.665304839611053467e-02,4.648481681942939758e-02,-2.004072070121765137e-01,-1.509867757558822632e-01,-3.595838323235511780e-02,2.010106481611728668e-02,1.248578727245330811e-01
2.866885066032409668e-01,1.446885913610458374e-01,-9.733426570892333984e-02,2.290449291467666626e-01,-1.336146295070648193e-01,-7.283362746238708496e-02,4.413282964378595352e-03,6.430017948150634766e-02,-1.877263039350509644e-01,8.762273937463760376e-03,-1.496193706989288330e-01,-4.612311348319053650e-02,-8.267801254987716675e-02,9.529561549425125122e-02,-4.422857239842414856e-02,-6.738861091434955597e-03,9.494335204362869263e-02,-1.876563727855682373e-01,8.440550416707992554e-03,8.849406242370605469e-02,7.873568683862686157e-02,-1.550147831439971924e-01,-1.050760671496391296e-01,8.629623055458068848e-02,-1.270117163658142090e-01,4.430974274873733521e-02,2.908250130712985992e-02,-1.253605335950851440e-01,-3.058589100837707520e-01,6.923467665910720825e-02,2.121358215808868408e-01,-2.142127044498920441e-02,1.301600635051727295e-01,1.254630237817764282e-01,-1.149468570947647095e-01,9.228464215993881226e-02,-2.928910218179225922e-02,4.656963422894477844e-02,-1.044885739684104919e-01,-3.336013481020927429e-02,4.542696848511695862e-02,1.773692965507507324e-01,-2.491876780986785889e-01,4.788329079747200012e-02,2.606868147850036621e-01,-8.574356883764266968e-02,-1.053796038031578064e-01,1.170671135187149048e-01,2.528540492057800293e-01,1.963908076286315918e-01,1.112714633345603943e-01,1.569255143404006958e-01,3.319563344120979309e-02,2.749812975525856018e-02,1.049681678414344788e-01,-8.090805262327194214e-02,1.657225489616394043e-01,1.054914519190788269e-01,5.990770459175109863e-02,-1.286654174327850342e-01,1.865345835685729980e-01,-9.712553024291992188e-02,-9.035630524158477783e-02,1.039055138826370239e-01,8.403573930263519287e-02,-9.583041071891784668e-02,-8.434874005615711212e-03,1.935143209993839264e-02,-1.039014235138893127e-01,-6.301634013652801514e-02,1.949928551912307739e-01,-1.374272257089614868e-01,-1.036133170127868652e-01,1.859215646982192993e-01,-6.264932453632354736e-02,-3.067132830619812012e-02,1.409410238265991211e-01,3.842362016439437866e-02,-3.537557423114776611e-01,1.014415025711059570e-01,1.628825217485427856e-01,5.430119484663009644e-02,-2.676487714052200317e-02,-1.325598955154418945e-01,-8.889494091272354126e-02,1.296798139810562134e-01,-5.520145967602729797e-02,1.502374857664108276e-01,-1.302660554647445679e-01,2.026140391826629639e-01,-1.198690086603164673e-01,-8.379853516817092896e-02,4.170098528265953064e-02,-3.933245688676834106e-02,7.856342941522598267e-02,-3.602156788110733032e-02,-3.761586174368858337e-02,-1.797734349966049194e-01,6.341397762298583984e-02,1.211003810167312622e-01,2.998108975589275360e-02,-3.616196289658546448e-02,1.516447663307189941e-01,-8.939753472805023193e-02,1.881877183914184570e-01,2.851124666631221771e-02,1.052859798073768616e-01,7.062751799821853638e-02,-2.506780028343200684e-01,2.706713676452636719e-01,-1.515181809663772583e-01,9.424622356891632080e-02,2.088974267244338989e-01,4.237893223762512207e-02,1.230952292680740356e-01,-6.432121247053146362e-02,-1.169109642505645752e-01,7.235105335712432861e-02,4.651354998350143433e-02,-9.022992104291915894e-02
5.270228907465934753e-02,-1.304372549057006836e-01,-2.450390532612800598e-02,-1.591741740703582764e-01,7.239291816949844360e-02,-4.699334502220153809e-02,-2.339181490242481232e-03,-2.170153707265853882e-01,1.743553876876831055e-01,1.511043161153793335e-01,1.375648379325866699e-01,1.265970468521118164e-01,5.451318621635437012e-02,4.253677558153867722e-03,-1.822867803275585175e-02,-1.160396113991737366e-01,-4.580435343086719513e-03,-8.359900675714015961e-03,-3.450132533907890320e-02,1.417539715766906738e-01,1.372115314006805420e-01,8.823893219232559204e-02,-2.645542919635772705e-01,-5.596055183559656143e-03,-1.204180903732776642e-02,1.921806298196315765e-02,-1.570030450820922852e-01,-9.693517535924911499e-02,2.123747766017913818e-01,2.938994765281677246e-02,1.406402736902236938e-01,6.685604900121688843e-02,-2.318719625473022461e-01,1.444765776395797729e-01,-2.302059729117900133e-04,5.469320341944694519e-02,1.749832630157470703e-01,-1.268140077590942383e-01,-3.654970601201057434e-02,-6.680273264646530151e-02,-2.413563244044780731e-02,-2.805745042860507965e-02,2.621615231037139893e-01,-5.104118213057518005e-02,-1.475367248058319092e-01,-3.934555873274803162e-02,-4.631623160094022751e-03,-2.760732732713222504e-02,-1.011539399623870850e-01,2.437367849051952362e-02,-2.117751836776733398e-01,-6.470354646444320679e-02,1.381621360778808594e-01,-1.089911311864852905e-01,6.422188878059387207e-02,8.665833622217178345e-02,4.363252595067024231e-02,-1.494771838188171387e-01,3.064490482211112976e-02,-1.493859738111495972e-01,-7.392274588346481323e-02,1.236440837383270264e-01,2.261701598763465881e-02,7.365648634731769562e-04,-6.610485166311264038e-02,1.158460900187492371e-01,-3.530913963913917542e-02,-9.267715737223625183e-03,-2.859741821885108948e-02,2.745252661406993866e-02,1.623487621545791626e-01,-1.671973615884780884e-01,3.961893264204263687e-03,-2.414969056844711304e-01,1.729154288768768311e-01,-1.097427159547805786e-01,5.219756811857223511e-02,-4.807779937982559204e-02,1.236001309007406235e-02,-2.075057774782180786e-01,1.331895440816879272e-01,-1.230430528521537781e-01,3.327626362442970276e-02,2.887111529707908630e-02,9.231674671173095703e-02,6.953055411577224731e-02,-1.059301048517227173e-01,9.808325022459030151e-02,-3.045323863625526428e-02,6.177232787013053894e-02,1.100585460662841797e-01,5.482646822929382324e-02,3.264172747731208801e-02,7.725847512483596802e-02,4.650751873850822449e-02,3.160001337528228760e-02,-3.237330168485641479e-02,2.542006596922874451e-02,9.768460690975189209e-02,-5.421580746769905090e-03,9.702520444989204407e-03,9.861825406551361084e-02,-5.961107835173606873e-02,3.412517160177230835e-02,-1.992677152156829834e-01,-4.286755993962287903e-02,6.360593438148498535e-02,2.877115085721015930e-02,-4.572705924510955811e-02,-2.664785087108612061e-01,1.069054529070854187e-01,1.365302950143814087e-01,2.104144543409347534e-02,-7.161766290664672852e-02,-3.002608753740787506e-02,-1.041278019547462463e-01,2.333740703761577606e-02,1.821800172328948975e-01,-1.231858581304550171e-01,6.982731074094772339e-02
-1.341528147459030151e-01,-1.078614890575408936e-01,-5.935825780034065247e-02,-1.494015660136938095e-02,-4.546983912587165833e-02,-2.191583663225173950e-01,-1.834851056337356567e-01,2.504215240478515625e-01,-6.354786455631256104e-02,-6.634961068630218506e-02,1.122294291853904724e-01,-2.640241384506225586e-01,-1.441555470228195190e-01,8.398316055536270142e-02,2.872098982334136963e-02,9.665901958942413330e-02,1.780029758810997009e-02,9.847534447908401489e-02,5.509142577648162842e-02,-9.635777771472930908e-02,-5.226729810237884521e-02,5.786159262061119080e-02,1.222882568836212158e-01,2.123177982866764069e-02,-1.814804971218109131e-01,-5.186467617750167847e-02,-7.634892314672470093e-02,9.194722771644592285e-02,-2.065433561801910400e-01,1.786991059780120850e-01,1.058855559676885605e-02,2.843139693140983582e-02,1.032200977206230164e-01,6.283498555421829224e-02,3.343852981925010681e-02,1.235110387206077576e-01,-1.436068266630172729e-01,-7.189063727855682373e-02,1.141039878129959106e-01,-1.013113278895616531e-02,2.670847624540328979e-02,-2.388553135097026825e-02,-1.884825527667999268e-01,-3.927998244762420654e-03,1.629391163587570190e-01,2.465100288391113281e-01,-1.261361092329025269e-01,-2.227575704455375671e-02,-1.717025786638259888e-01,1.388795673847198486e-01,2.950914436951279640e-03,-1.974384114146232605e-02,-3.978796303272247314e-02,-1.735578179359436035e-01,-9.490285068750381470e-03,-1.101408749818801880e-01,-1.648460328578948975e-01,7.722963392734527588e-02,-1.957927085459232330e-02,-1.148470938205718994e-01,1.309762150049209595e-01,9.523873031139373779e-02,8.360596001148223877e-02,-1.210699304938316345e-01,-7.343298196792602539e-02,-2.093680761754512787e-02,1.218353956937789917e-01,-1.798867881298065186e-01,2.130863070487976074e-02,5.391968414187431335e-02,9.677921235561370850e-02,-9.146063029766082764e-02,2.331668697297573090e-02,5.130544304847717285e-01,1.461936980485916138e-01,-1.433816850185394287e-01,-1.273557841777801514e-01,-1.039844080805778503e-01,2.692345157265663147e-02,-1.605652458965778351e-02,7.163993548601865768e-03,-1.119404733180999756e-01,-1.192562952637672424e-01,2.002743072807788849e-03,5.485557392239570618e-02,1.479792743921279907e-01,2.143362462520599365e-01,7.573690265417098999e-02,1.184315681457519531e-01,8.085810393095016479e-02,-5.233956035226583481e-04,-2.395967580378055573e-02,2.295113168656826019e-02,8.141400665044784546e-02,9.296751022338867188e-02,-1.077748686075210571e-01,4.661909118294715881e-02,5.770149640738964081e-03,-4.937579110264778137e-02,-1.508232653141021729e-01,1.553121060132980347e-01,-4.482178017497062683e-02,-9.515366703271865845e-02,3.888846188783645630e-02,-1.148159131407737732e-01,-2.512490935623645782e-02,-8.521166443824768066e-02,7.699744403362274170e-02,-1.016351729631423950e-01,3.624687790870666504e-01,6.757216155529022217e-02,9.035478532314300537e-02,3.767546638846397400e-02,1.270075142383575439e-01,1.101851686835289001e-01,5.953463166952133179e-02,1.524504423141479492e-01,-4.364242404699325562e-02,-9.351009875535964966e-02,-1.431740634143352509e-02
