1.929540932178497314e-02,-5.244337022304534912e-02,-1.574768312275409698e-02,1.003203797154128551e-04,-4.631925185094587505e-05,8.795269241090863943e-05,-1.377272903919219971e-01,-1.152252370957285166e-04,-1.865291595458984375e-01,1.838295310735702515e-01,-8.768411725759506226e-02,-1.014869194477796555e-02,5.718170199543237686e-03,1.383629534393548965e-02,-1.263932418078184128e-02,-5.689365044236183167e-02,1.027305115712806582e-04,8.746115781832486391e-05,-1.566249132156372070e-01,-1.330265076830983162e-04,4.346396963228471577e-06,9.448216110467910767e-02,-1.843035424826666713e-04,-4.556801542639732361e-02,3.293568079243414104e-05,-4.171095861238427460e-05,-4.561921741697005928e-06,-8.288052678108215332e-02,2.277944087982177734e-01,-9.640327841043472290e-02,6.120898574590682983e-02,5.332532600732520223e-05,2.929264883277937770e-05,1.340283751487731934e-01,2.778773568570613861e-02,-1.226157173514366150e-01,-9.390258789062500000e-02,-1.899640634655952454e-02,-2.221435308456420898e-02,1.037457259371876717e-04,-1.067809716914780438e-04,-1.778270304203033447e-01,1.697157472372055054e-01,-2.091596834361553192e-02,4.830873385071754456e-02,-3.527232183841988444e-05,-8.280268048110883683e-06,7.415854930877685547e-02,-2.001092582941055298e-01,2.625149115920066833e-02,2.244099159725010395e-04,8.162918675225228071e-05,-2.851213142275810242e-02,1.658213295741006732e-04,-1.339276731014251709e-01,-1.601552963256835938e-01,-1.536342897452414036e-04,-2.710358798503875732e-02,1.281581073999404907e-01,-3.473491221666336060e-02,-4.981337860226631165e-02,1.974294136743992567e-04,8.702045679092407227e-02,1.011674612527713180e-04,3.258476863265968859e-05,-3.641480952501296997e-02,4.109543806407600641e-05,-4.473236203193664551e-02,-5.565981194376945496e-02,2.711308002471923828e-01,-3.003189158334862441e-05,1.309740910073742270e-04,6.616529572056606412e-05,-1.968391984701156616e-02,8.032909780740737915e-02,-7.450866542058065534e-05,4.609110951423645020e-02,-2.367216050624847412e-01,-1.111416742205619812e-01,-1.368355879094451666e-04,4.517730325460433960e-02,-1.639844030141830444e-01,-6.905743794050067663e-05,-4.180416837334632874e-02,-1.262552104890346527e-02,5.231169416219927371e-05,-1.051382422447204590e-01,-9.630047861719503999e-05,-6.535681337118148804e-02,-2.575407597760204226e-05,5.652900290442630649e-05,-4.305146649130620062e-05,4.109006002545356750e-02,8.700325997779145837e-05,6.676709745079278946e-05,-1.684358716011047363e-02,1.926452368497848511e-01,-6.311552169790957123e-06,-1.606330079084727913e-05,1.083471402525901794e-01,-2.759362012147903442e-02,-2.246064366772770882e-03,-8.115406334400177002e-02,2.416318784526083618e-05,6.408836692571640015e-02,3.244441018068755511e-07,3.625183808253495954e-06,-4.991496098227798939e-06,5.249611288309097290e-02,-9.650747961131855845e-05,-9.817392310651484877e-06,1.449032715754583478e-04,-2.556221734266728163e-04,1.020690397126600146e-04,-2.604801557026803493e-05,1.059365458786487579e-04,-8.077196252997964621e-05,2.448393788654357195e-04,-1.934453030116856098e-04,-2.417388313915580511e-04
